-2.303459867835044861e-02,5.684527568519115448e-04,-2.263953676447272301e-03,-2.471714653074741364e-02,5.981539189815521240e-02,1.245380379259586334e-02,-6.553757935762405396e-02,-1.207531895488500595e-02,-1.560938823968172073e-02,4.650847986340522766e-02,3.243659809231758118e-02,-4.598825052380561829e-02,1.713233254849910736e-02,-6.527891010046005249e-02,2.817791514098644257e-02,-4.689162969589233398e-02,-4.685420915484428406e-02,4.072837904095649719e-02,-3.388574346899986267e-02,-7.397142052650451660e-02,3.042782843112945557e-02,2.257562591694295406e-04,6.345893442630767822e-02,-9.940878488123416901e-03,-3.680785000324249268e-02,1.059909537434577942e-02,-6.069996580481529236e-02,4.819401726126670837e-02,-1.973518356680870056e-02,5.282804369926452637e-03,5.435566604137420654e-02,-6.327683222480118275e-04,-3.793584182858467102e-02,-5.071793869137763977e-02,-7.058317214250564575e-02,-1.732605323195457458e-02,-1.081631425768136978e-02,6.357695907354354858e-02,-3.243350610136985779e-02,-2.454959787428379059e-03,5.562517791986465454e-02,1.886679604649543762e-02,5.938889458775520325e-02,-3.906986117362976074e-02,-1.001523882150650024e-01,-2.365964092314243317e-02,1.748292939737439156e-03,-4.039163235574960709e-03,-5.912097170948982239e-02,3.695115679875016212e-03,4.599926993250846863e-02,-5.464416742324829102e-02,-6.230175867676734924e-02,4.314505308866500854e-02,-5.109390988945960999e-02,-3.914043307304382324e-02,-2.796767465770244598e-02,-2.820071205496788025e-02,-7.172654569149017334e-02,-6.906969100236892700e-02,6.022623740136623383e-03,-6.473089754581451416e-02,-3.313184529542922974e-02,-6.615994125604629517e-02,-2.295569051057100296e-03,-3.580456972122192383e-02,5.079760402441024780e-02,-6.195782497525215149e-02,-2.186360210180282593e-02,4.121313989162445068e-02,-2.154129371047019958e-02,-6.087431311607360840e-02,-5.856485292315483093e-02,1.546704769134521484e-02,2.746475674211978912e-02,-3.314691781997680664e-02,2.507519349455833435e-02,-5.165595188736915588e-02,3.320357576012611389e-02,-7.953412830829620361e-03,3.978994861245155334e-02,1.295321341603994370e-02,-3.875292465090751648e-02,-8.472315385006368160e-04,-5.030982941389083862e-02,3.453480452299118042e-02,-3.162072226405143738e-02,-7.913574576377868652e-02,-2.733786962926387787e-02,5.036054924130439758e-02,4.402612149715423584e-02,6.754428148269653320e-02,6.364998966455459595e-02,5.817676428705453873e-03,4.318761825561523438e-02,-2.944321557879447937e-02,3.429899737238883972e-02,5.098486691713333130e-02,5.945180356502532959e-02,3.434639796614646912e-02,3.320205956697463989e-03,2.547808922827243805e-03,-2.382030896842479706e-02,-4.320789128541946411e-02,-8.306613564491271973e-02,6.141065061092376709e-02,3.182150050997734070e-02,1.498969737440347672e-02,2.990097925066947937e-02,2.151388442143797874e-03,-3.706625103950500488e-02,5.897212028503417969e-02,-5.329812318086624146e-02,5.526081193238496780e-03,-2.765821851789951324e-02,-4.569627717137336731e-02,3.323744237422943115e-02,-6.699268706142902374e-04,-3.054908663034439087e-02,5.456029251217842102e-02,3.692913055419921875e-02,-4.035958275198936462e-02,2.330949157476425171e-02,1.259096059948205948e-02,5.689139664173126221e-02,-3.985241055488586426e-04,-7.568705826997756958e-02,-4.598756507039070129e-02,2.319179475307464600e-02,6.628334522247314453e-02,-5.248112976551055908e-02,-7.455199956893920898e-02,6.343626230955123901e-02,-5.548567324876785278e-02,-1.191932056099176407e-02,-2.093580365180969238e-02,3.651573508977890015e-02,3.082411736249923706e-02,-2.944382280111312866e-02,-7.126887887716293335e-02,-4.357985407114028931e-02,-6.916511803865432739e-02,1.063320785760879517e-02,-7.847742736339569092e-02,-7.867162674665451050e-02,4.381370916962623596e-02,7.297347765415906906e-03,4.868432879447937012e-04,-1.401507854461669922e-02,1.516334712505340576e-03,6.772360205650329590e-02,4.801321029663085938e-02,5.239062011241912842e-02,-5.747742950916290283e-02,-2.350448817014694214e-02,4.802992194890975952e-02,4.728150367736816406e-02,3.067473322153091431e-02,8.551274426281452179e-03,2.165713161230087280e-02,4.262565076351165771e-02,3.116367757320404053e-02,2.928620949387550354e-02,-4.753224551677703857e-02,2.952929586172103882e-02,-1.477161888033151627e-02,-3.523395396769046783e-03,-3.313447907567024231e-02,-7.963491976261138916e-02,-4.628912359476089478e-02,6.936511397361755371e-02,2.295120805501937866e-02,3.678225725889205933e-02,2.052655816078186035e-02,-3.442244604229927063e-02,2.522860281169414520e-02,3.021824359893798828e-02,5.470402538776397705e-02,3.922583907842636108e-02,-9.145312011241912842e-02,-5.832681059837341309e-02,-4.140783101320266724e-02,3.820620477199554443e-02,6.588765978813171387e-02,-4.054608941078186035e-02,5.696656182408332825e-02,4.682652652263641357e-03,2.175404131412506104e-02,5.333665013313293457e-02,-4.045361280441284180e-02,1.055382378399372101e-02,-8.121377974748611450e-02
5.045277625322341919e-02,2.892172336578369141e-02,-4.096207767724990845e-02,4.391371458768844604e-02,-1.077208667993545532e-02,-5.825882405042648315e-02,1.361508108675479889e-02,-3.745201602578163147e-02,-8.480013161897659302e-02,3.114022500813007355e-02,1.909258775413036346e-02,2.647613361477851868e-02,1.360356155782938004e-02,-6.047989800572395325e-02,-5.125721916556358337e-02,-6.447625905275344849e-02,2.503675594925880432e-02,-2.317792177200317383e-02,-1.492059323936700821e-03,6.693215668201446533e-02,-5.820340663194656372e-02,4.184407182037830353e-03,5.959065258502960205e-02,2.527767047286033630e-02,3.399084135890007019e-02,-9.303448349237442017e-02,-2.713195607066154480e-02,-5.059794057160615921e-03,4.551454633474349976e-02,5.008853971958160400e-02,-1.104574836790561676e-02,1.985582709312438965e-02,-1.622931286692619324e-02,-7.385681569576263428e-02,-6.130116805434226990e-02,-4.190590232610702515e-02,-5.373919382691383362e-02,3.522050753235816956e-02,8.879737928509712219e-03,8.187666535377502441e-03,-5.116182938218116760e-02,-1.293738838285207748e-02,4.622616246342658997e-02,-6.626530736684799194e-02,-7.901037484407424927e-02,-6.331580132246017456e-02,-2.339906431734561920e-02,-6.391932070255279541e-02,3.885842114686965942e-02,3.925089165568351746e-02,1.389816775918006897e-02,-6.708430498838424683e-02,-5.693616345524787903e-02,-9.203130379319190979e-03,4.471451044082641602e-02,4.784535989165306091e-02,-4.025274142622947693e-02,-1.249682903289794922e-02,5.103858187794685364e-02,-5.811702832579612732e-02,-5.559311434626579285e-02,3.142458572983741760e-02,-4.817167669534683228e-02,5.252184718847274780e-02,-6.495439261198043823e-02,9.637663140892982483e-03,-2.253592573106288910e-02,3.694037348031997681e-02,-2.488533221185207367e-02,-4.512166138738393784e-03,1.160035957582294941e-03,-7.273462601006031036e-03,-4.243730753660202026e-02,-5.347227305173873901e-02,-2.190981060266494751e-02,5.320864915847778320e-02,-4.415137320756912231e-02,5.973389372229576111e-03,1.305843330919742584e-02,-5.008681491017341614e-02,-5.906883254647254944e-02,1.549593871459364891e-03,-5.380484089255332947e-02,2.521174773573875427e-02,3.189602494239807129e-02,-5.712580308318138123e-02,-5.513150990009307861e-02,3.665279224514961243e-02,3.628595545887947083e-02,-7.771616429090499878e-02,-4.820183292031288147e-02,4.039875417947769165e-02,6.054481863975524902e-02,-7.123981416225433350e-02,6.157703697681427002e-02,-7.076229155063629150e-02,-2.909071370959281921e-02,3.461644751951098442e-03,3.092910721898078918e-02,-7.029891014099121094e-02,-1.735915057361125946e-02,1.309049502015113831e-02,4.257571697235107422e-02,-1.634341850876808167e-02,5.971522256731987000e-02,1.234961766749620438e-02,4.548941925168037415e-02,4.723311588168144226e-02,6.532500684261322021e-02,3.954996168613433838e-02,-5.874565988779067993e-02,5.605792999267578125e-02,4.116952419281005859e-03,-7.878532260656356812e-02,-5.729113519191741943e-02,1.508408691734075546e-03,2.793773077428340912e-02,-5.568547919392585754e-02,-1.028493884950876236e-02,-4.204491898417472839e-02,-3.879685699939727783e-02,-3.017460927367210388e-02,-7.119774073362350464e-02,3.749185055494308472e-02,4.522510617971420288e-02,2.973224222660064697e-02,-1.602762751281261444e-02,5.721254646778106689e-02,5.548481643199920654e-02,-4.861227795481681824e-02,-6.934548914432525635e-02,-3.442873805761337280e-02,-1.422672532498836517e-02,4.649244993925094604e-02,6.024818122386932373e-02,-5.348392948508262634e-02,5.517810583114624023e-03,-4.932065680623054504e-02,-6.522663682699203491e-02,-4.176072776317596436e-03,4.249368235468864441e-02,1.810456067323684692e-02,1.747070252895355225e-02,-3.815736994147300720e-02,-4.102072492241859436e-02,6.203004345297813416e-02,-8.100565522909164429e-02,4.434037953615188599e-02,-5.312317982316017151e-02,-4.499296098947525024e-02,6.539055705070495605e-02,-3.723064437508583069e-02,-3.380150347948074341e-02,-5.302526522427797318e-03,5.640237033367156982e-02,5.566584691405296326e-02,2.240589354187250137e-03,-3.714821115136146545e-02,-2.224553376436233521e-02,-1.016337051987648010e-02,5.043881386518478394e-02,-5.598094686865806580e-02,-2.100601093843579292e-03,3.135466575622558594e-02,-1.832138188183307648e-02,5.643812939524650574e-02,2.721088007092475891e-02,-1.060581207275390625e-02,3.815789520740509033e-02,3.926200419664382935e-02,-5.478438735008239746e-02,-2.288376912474632263e-02,1.595193333923816681e-02,-3.801415488123893738e-02,1.558542251586914062e-02,-7.404892891645431519e-02,-1.335385441780090332e-02,4.066701233386993408e-02,-1.285280287265777588e-02,-7.338412851095199585e-02,-1.515187695622444153e-02,-6.569627672433853149e-02,5.712048709392547607e-02,3.114400058984756470e-02,2.079580724239349365e-02,-3.700960427522659302e-02,-3.419816866517066956e-02,-6.936960667371749878e-02,2.426367253065109253e-02,-4.343970865011215210e-02,-4.403990879654884338e-02,-3.698021918535232544e-02
1.262016873806715012e-02,-4.482346400618553162e-02,1.880627870559692383e-02,-2.473744191229343414e-02,6.780724227428436279e-02,5.494427401572465897e-03,-5.086352303624153137e-02,-1.911529339849948883e-02,3.342037275433540344e-02,-7.665249705314636230e-02,4.484617337584495544e-02,-5.224154144525527954e-02,1.304264087229967117e-02,2.756177075207233429e-02,-1.553585566580295563e-02,6.921820342540740967e-02,-5.182566866278648376e-02,2.950175851583480835e-02,5.659887194633483887e-02,4.355749115347862244e-02,4.297907650470733643e-02,7.640169933438301086e-03,3.983991593122482300e-02,2.868796698749065399e-02,6.058286502957344055e-02,-7.403428107500076294e-02,4.909225553274154663e-02,-6.986651569604873657e-02,4.325507581233978271e-02,-6.678994745016098022e-02,1.292380969971418381e-02,4.333371296525001526e-02,1.625692471861839294e-02,4.377224296331405640e-02,3.871665149927139282e-02,-2.698587439954280853e-02,-4.527825862169265747e-02,-7.741264253854751587e-02,-2.601889893412590027e-02,-5.159827321767807007e-02,-5.274209007620811462e-02,3.343389136716723442e-03,4.287665337324142456e-02,-3.027400374412536621e-02,-3.916583955287933350e-02,-8.146378397941589355e-02,3.037191741168498993e-02,-3.925054520368576050e-02,-9.915456175804138184e-04,5.164365842938423157e-02,-4.882415384054183960e-02,-4.273445159196853638e-02,-6.909711286425590515e-03,8.003205992281436920e-03,-6.807441264390945435e-02,-5.574658513069152832e-02,-2.337811328470706940e-02,3.969772160053253174e-02,-2.613428793847560883e-02,3.350614383816719055e-02,-1.935697160661220551e-02,5.041101947426795959e-02,2.462509088218212128e-02,3.253828966990113258e-03,-4.137245938181877136e-02,-6.279207020998001099e-02,1.740686595439910889e-02,2.379937469959259033e-02,-3.440074250102043152e-02,4.637425020337104797e-02,-6.756857782602310181e-02,-5.191498622298240662e-02,7.866342552006244659e-03,1.973999291658401489e-02,4.161846637725830078e-02,-3.936415910720825195e-02,5.314768105745315552e-02,-2.972020208835601807e-02,-3.612235561013221741e-02,3.635279834270477295e-03,-2.548125572502613068e-02,-7.055348902940750122e-02,-2.500195428729057312e-02,2.859209105372428894e-02,-7.327242940664291382e-02,4.315463453531265259e-02,5.344164371490478516e-02,2.103759348392486572e-02,-6.634364277124404907e-02,8.515169844031333923e-03,-2.804856747388839722e-02,1.937951147556304932e-02,-8.320929110050201416e-02,5.319514870643615723e-02,5.914423614740371704e-02,-5.626208335161209106e-02,2.867625653743743896e-02,4.189969971776008606e-02,3.728279843926429749e-02,-1.425150036811828613e-02,4.355323314666748047e-02,-2.530515938997268677e-02,-3.941528871655464172e-02,-7.573752105236053467e-02,4.208399355411529541e-02,-5.536834523081779480e-02,2.359718829393386841e-02,-4.703439772129058838e-02,-7.772865891456604004e-02,1.451191119849681854e-02,-6.117106229066848755e-02,-3.748295083642005920e-02,-1.256666146218776703e-03,9.582393802702426910e-03,3.847377374768257141e-02,-5.421617999672889709e-02,1.745090703479945660e-03,-4.125619307160377502e-02,2.603147737681865692e-02,-6.338176876306533813e-02,-7.911362498998641968e-02,7.047434151172637939e-02,6.786937010474503040e-04,5.097742751240730286e-02,2.757584303617477417e-02,2.939983271062374115e-02,-3.649866441264748573e-03,-3.458962962031364441e-02,2.311379462480545044e-02,-2.886026725172996521e-02,-1.400653272867202759e-02,-5.993695929646492004e-02,-4.207024350762367249e-02,-4.267758876085281372e-02,2.455443702638149261e-02,-5.391775816679000854e-02,2.340155839920043945e-02,-6.103036180138587952e-02,-4.289557039737701416e-02,6.930419802665710449e-02,-6.432091444730758667e-02,-4.195596277713775635e-02,-3.503273800015449524e-02,-2.579639106988906860e-02,-1.564289256930351257e-02,-2.664546109735965729e-02,-8.269266784191131592e-02,-1.918911188840866089e-02,-1.011437550187110901e-02,-3.664011508226394653e-02,-7.214987277984619141e-02,3.621675074100494385e-03,1.901566982269287109e-02,-2.604491077363491058e-02,7.158659398555755615e-02,-3.780289366841316223e-02,-3.103518486022949219e-02,-1.056927219033241272e-01,-4.445643350481987000e-02,5.001288652420043945e-02,3.786445409059524536e-02,-5.850490927696228027e-02,-3.849357366561889648e-02,-7.303144037723541260e-02,-1.221818383783102036e-02,3.817478194832801819e-02,1.377845089882612228e-02,1.284114271402359009e-02,-5.146097391843795776e-02,-5.171552300453186035e-03,2.199265360832214355e-02,-2.937415242195129395e-02,3.206028416752815247e-02,-5.051775276660919189e-02,-5.414046347141265869e-02,1.369845494627952576e-02,-4.595056176185607910e-02,7.777258753776550293e-03,-2.652591094374656677e-02,-4.343367740511894226e-02,-3.682934865355491638e-02,4.989338666200637817e-02,-4.793188720941543579e-02,1.974949240684509277e-02,9.496547281742095947e-03,-5.797214061021804810e-02,-4.259849339723587036e-02,1.854032278060913086e-02,4.510642588138580322e-02,-1.345459371805191040e-02,-9.755061566829681396e-02,-2.280784025788307190e-02
-1.516863703727722168e-02,-6.047482788562774658e-02,-1.952373236417770386e-02,5.483778566122055054e-02,-1.652954146265983582e-02,4.423420876264572144e-02,2.119082957506179810e-02,-5.703572928905487061e-02,2.756877802312374115e-02,-5.507951229810714722e-02,1.295935176312923431e-02,-8.089806884527206421e-02,-7.232192158699035645e-02,2.452714368700981140e-02,-6.500498950481414795e-02,2.582968212664127350e-02,4.949808865785598755e-02,8.734338730573654175e-02,-8.348800241947174072e-02,4.558055475354194641e-02,-2.678436785936355591e-02,3.302485868334770203e-02,-4.768209531903266907e-02,-5.422857590019702911e-03,1.977702043950557709e-02,-4.446885362267494202e-02,2.790860133245587349e-03,-1.268613785505294800e-01,2.116169780492782593e-02,2.043160796165466309e-02,-4.022866860032081604e-02,-5.636900663375854492e-02,3.286726400256156921e-02,-2.900918573141098022e-02,5.215762555599212646e-02,-1.020615920424461365e-02,4.964423179626464844e-02,-7.152145355939865112e-02,-6.326467543840408325e-02,-2.785936743021011353e-02,-3.941132873296737671e-02,-8.871050179004669189e-02,-2.670058980584144592e-02,-1.216867938637733459e-02,4.875452816486358643e-02,-1.661719568073749542e-02,-6.908689439296722412e-02,-5.290366709232330322e-02,-2.949433773756027222e-02,-8.739541284739971161e-03,-4.371214285492897034e-02,-9.432746097445487976e-03,-2.154084667563438416e-02,7.857409119606018066e-02,-1.048069912940263748e-03,5.175698921084403992e-02,-2.369118295609951019e-02,3.037702478468418121e-02,1.598131097853183746e-02,6.426600366830825806e-02,-2.268976718187332153e-02,1.812129281461238861e-02,-7.682902365922927856e-02,-2.822403796017169952e-02,-6.039301678538322449e-02,-2.648915536701679230e-02,-8.498635888099670410e-02,-2.925604768097400665e-02,-7.044928520917892456e-02,4.298165068030357361e-02,-3.256331384181976318e-02,-5.355534330010414124e-02,6.609737873077392578e-02,1.733648218214511871e-02,-4.003123566508293152e-02,-2.765563875436782837e-02,-8.445527404546737671e-02,5.237761884927749634e-02,-6.808076798915863037e-02,-5.946452543139457703e-02,-3.033301793038845062e-02,2.602139301598072052e-02,-2.918936870992183685e-02,9.051367640495300293e-02,-2.384964562952518463e-02,-3.692641109228134155e-02,5.733217298984527588e-02,-1.354559604078531265e-02,-1.612221263349056244e-02,-1.569184241816401482e-03,4.983701556921005249e-02,9.143821895122528076e-03,-1.029270365834236145e-01,-3.380617126822471619e-02,-3.771005198359489441e-02,-3.055815957486629486e-02,-4.512241110205650330e-02,1.106984391808509827e-01,4.050786048173904419e-02,-3.074749559164047241e-02,-9.898555278778076172e-02,5.054265633225440979e-02,-1.118203327059745789e-01,-3.011137247085571289e-02,2.578927390277385712e-02,-3.713823622092604637e-03,-3.234561160206794739e-02,-1.417089998722076416e-01,3.644297271966934204e-02,2.589218132197856903e-02,3.147191181778907776e-02,-2.990413457155227661e-02,-3.033499233424663544e-02,-3.184486925601959229e-02,6.503525190055370331e-03,4.132976010441780090e-02,-4.807465150952339172e-02,8.415360003709793091e-02,-4.349261149764060974e-02,-1.767627708613872528e-02,-7.027217745780944824e-02,3.763819113373756409e-02,8.301875554025173187e-03,-1.066582277417182922e-01,-1.577706262469291687e-02,-7.857282459735870361e-02,-4.908920824527740479e-02,3.161403536796569824e-02,-5.984527245163917542e-02,5.226308107376098633e-02,5.451677739620208740e-02,-1.462735682725906372e-01,-5.227874964475631714e-02,-6.679339706897735596e-02,3.181176632642745972e-02,-2.104409737512469292e-03,-5.651558935642242432e-02,5.606019496917724609e-02,-5.358602851629257202e-02,1.571418344974517822e-02,-1.477835178375244141e-01,-1.167135313153266907e-02,3.633421659469604492e-02,3.413780778646469116e-02,-5.277198553085327148e-02,-2.360928803682327271e-02,-3.169475868344306946e-02,-1.113529875874519348e-02,6.000794470310211182e-02,3.891051560640335083e-02,-5.079497396945953369e-02,-3.956476971507072449e-02,2.315900288522243500e-03,4.033212736248970032e-02,6.765523552894592285e-02,-4.280920326709747314e-02,-7.246271520853042603e-02,3.295115381479263306e-02,-6.687854230403900146e-02,3.606680035591125488e-02,-1.619201153516769409e-02,-1.596319973468780518e-01,1.565673761069774628e-02,1.995133422315120697e-02,1.006746478378772736e-02,-5.226816050708293915e-03,-2.840296365320682526e-02,-2.959921956062316895e-03,-1.244003623723983765e-01,-1.222653314471244812e-02,-2.496648207306861877e-02,-5.654241144657135010e-02,2.997816726565361023e-02,5.989976227283477783e-02,-4.128411412239074707e-03,5.295664072036743164e-03,6.808097660541534424e-02,-3.350561112165451050e-02,-6.134191900491714478e-02,-2.617078600451350212e-03,1.382178068161010742e-02,-1.926209405064582825e-02,-6.615229696035385132e-02,-1.700316369533538818e-02,-4.988529160618782043e-02,3.442062065005302429e-02,2.107220143079757690e-02,5.402107536792755127e-02,-1.627494394779205322e-02,-3.926409408450126648e-02,-2.604926377534866333e-02,3.080336377024650574e-03
-2.245293930172920227e-02,-6.180490925908088684e-02,-6.675261259078979492e-02,-6.351879239082336426e-02,5.313625931739807129e-02,-1.020096614956855774e-02,-2.586394920945167542e-02,-6.829662621021270752e-02,3.527911007404327393e-02,-5.609990656375885010e-02,-3.786286711692810059e-02,4.601491242647171021e-02,3.906755894422531128e-02,1.355085615068674088e-02,-3.357243537902832031e-02,-5.358444899320602417e-02,1.484991703182458878e-02,-5.923579633235931396e-02,-1.724771782755851746e-02,-5.283565819263458252e-02,4.856893420219421387e-02,-5.840364843606948853e-02,6.362679600715637207e-02,-5.244120582938194275e-02,4.069153591990470886e-02,-7.331388443708419800e-02,-5.520386993885040283e-02,-4.555867984890937805e-02,-3.772446885704994202e-02,4.110225290060043335e-02,5.837446451187133789e-02,6.510485708713531494e-02,-2.424405515193939209e-02,3.783728182315826416e-02,1.276433467864990234e-04,-3.014164604246616364e-02,2.323435992002487183e-02,-5.053679645061492920e-02,-5.654901638627052307e-02,-3.427296504378318787e-02,-3.977186605334281921e-02,-6.043826695531606674e-03,-3.625221177935600281e-02,2.876076847314834595e-02,4.534659534692764282e-02,2.628431282937526703e-02,2.850697934627532959e-02,-2.242901176214218140e-02,-1.542410627007484436e-02,7.168000936508178711e-02,3.342073783278465271e-02,-9.402305632829666138e-02,-6.337927281856536865e-02,-5.549638718366622925e-02,-4.666793346405029297e-02,-6.757967174053192139e-03,7.259094156324863434e-03,3.882501274347305298e-02,-6.611524522304534912e-02,-6.828776001930236816e-02,-6.325562298297882080e-02,-1.917977444827556610e-02,-6.876818090677261353e-02,-6.588876992464065552e-02,3.995149955153465271e-02,-1.770728081464767456e-02,1.019715517759323120e-02,4.697521030902862549e-02,-4.364217072725296021e-02,5.058178678154945374e-02,3.182221436873078346e-03,4.621133208274841309e-02,-2.335382997989654541e-02,5.578742921352386475e-02,-5.929621309041976929e-02,-3.075502440333366394e-02,-7.900776714086532593e-02,4.456915706396102905e-02,4.512423276901245117e-02,-5.115760117769241333e-02,-5.633708089590072632e-02,-2.098258584737777710e-02,-3.699732013046741486e-03,2.953961491584777832e-02,-4.089443758130073547e-02,-8.261442184448242188e-02,3.635942935943603516e-02,-3.467640280723571777e-02,2.250428125262260437e-02,-4.057920351624488831e-02,-6.017290870659053326e-04,-5.069490522146224976e-02,-1.152987405657768250e-02,-8.606130629777908325e-02,-5.890149623155593872e-02,-1.507676392793655396e-02,2.022807300090789795e-02,1.902573555707931519e-02,1.460592448711395264e-02,3.007009811699390411e-02,2.924737147986888885e-02,5.086180754005908966e-03,-4.369542747735977173e-02,-6.748403608798980713e-02,-2.724999934434890747e-02,-6.998541951179504395e-02,-2.686100488062947989e-04,-3.444980457425117493e-02,-1.753715239465236664e-02,-2.043292671442031860e-02,5.108833312988281250e-02,-9.634613990783691406e-03,-6.243512406945228577e-02,-4.571441933512687683e-02,-2.011662907898426056e-02,-5.992721393704414368e-02,-3.788979258388280869e-03,-4.115322977304458618e-02,-2.002178505063056946e-02,-1.151613891124725342e-03,6.701357662677764893e-03,3.042361140251159668e-02,-4.962853342294692993e-02,2.605040371417999268e-02,6.990598142147064209e-02,1.767379045486450195e-02,1.313702017068862915e-02,-5.464319884777069092e-02,-2.571611106395721436e-02,-8.000604808330535889e-03,2.452567219734191895e-02,2.786237746477127075e-03,3.566666692495346069e-02,2.581743896007537842e-02,2.966651320457458496e-02,-6.931418180465698242e-02,2.186860889196395874e-02,-3.898521512746810913e-02,5.445301532745361328e-03,4.514122754335403442e-02,-7.856908440589904785e-02,-1.878805831074714661e-02,-6.351894885301589966e-02,-5.491582676768302917e-02,-1.594232022762298584e-02,-2.464815601706504822e-02,4.413549229502677917e-02,-4.663250595331192017e-02,2.882471680641174316e-02,-2.113597095012664795e-02,5.971331894397735596e-02,5.091941356658935547e-02,2.226382493972778320e-04,-1.558914128690958023e-02,3.084637224674224854e-03,5.413463711738586426e-02,7.325534243136644363e-03,1.517457049340009689e-02,-2.713926695287227631e-02,3.889483958482742310e-02,-2.263323590159416199e-02,4.141968116164207458e-02,-1.746479421854019165e-02,-7.932613044977188110e-02,-2.329282462596893311e-02,8.475311100482940674e-03,6.119307875633239746e-02,4.825670272111892700e-02,4.196849465370178223e-02,1.205115765333175659e-02,5.677352845668792725e-02,-3.966256976127624512e-03,-2.507215924561023712e-02,4.120807349681854248e-02,-1.114107668399810791e-02,4.281719774007797241e-02,3.276412189006805420e-02,-5.371680110692977905e-02,1.429803669452667236e-02,-9.187625348567962646e-02,-5.750325322151184082e-02,6.971992552280426025e-02,6.988197565078735352e-03,-2.564911916851997375e-02,-6.502158939838409424e-03,-9.868858754634857178e-02,2.693467587232589722e-02,3.775285929441452026e-02,-7.158898562192916870e-02,-6.003588438034057617e-02,-2.164039062336087227e-03,3.776985034346580505e-02
4.671587049961090088e-02,-6.737388204783201218e-03,5.272489413619041443e-02,-1.341959182173013687e-02,-5.703612696379423141e-03,-4.935476928949356079e-02,4.356142878532409668e-02,5.588535964488983154e-02,-4.912135004997253418e-02,-6.294226646423339844e-02,-1.370435114949941635e-02,5.751762166619300842e-02,-5.558903887867927551e-02,5.070186778903007507e-02,8.963861502707004547e-03,4.315512627363204956e-02,-6.305135786533355713e-02,-6.194073334336280823e-02,-4.907261952757835388e-02,-9.590219706296920776e-02,6.897190213203430176e-02,2.145570889115333557e-02,1.711210608482360840e-02,1.207047421485185623e-02,-7.674080133438110352e-02,-1.987049914896488190e-02,2.484218217432498932e-02,-4.120394214987754822e-02,1.900778338313102722e-02,-2.037310227751731873e-02,1.842909120023250580e-02,5.878113582730293274e-02,-9.107493795454502106e-03,3.228801116347312927e-02,-7.533463090658187866e-02,1.157399360090494156e-02,4.271086305379867554e-02,1.151813752949237823e-02,1.417563576251268387e-02,-7.935265451669692993e-02,-3.993042185902595520e-02,-5.369947291910648346e-03,-6.555742770433425903e-02,-7.124297320842742920e-02,-2.795228734612464905e-02,4.466979950666427612e-02,-3.058835491538047791e-02,5.356199294328689575e-02,-8.392401039600372314e-03,-4.010195657610893250e-02,-1.569120027124881744e-02,-2.071042917668819427e-02,6.784907542169094086e-03,-2.263043820858001709e-02,-4.443212598562240601e-02,-7.136063277721405029e-02,-4.247032478451728821e-02,-4.352828115224838257e-02,3.496199473738670349e-02,4.653150588274002075e-02,7.497664191760122776e-04,-6.977997720241546631e-02,2.284345589578151703e-02,5.937387701123952866e-03,-1.077606808394193649e-02,-4.046342149376869202e-02,-4.700773209333419800e-02,-4.546153172850608826e-02,2.689062058925628662e-02,9.320667595602571964e-04,-7.504634559154510498e-02,-4.342968575656414032e-03,-5.500536412000656128e-02,-5.822828412055969238e-02,-3.272802010178565979e-02,5.759568512439727783e-02,-2.072019502520561218e-02,1.835855282843112946e-02,3.005106747150421143e-02,6.345418840646743774e-02,-5.275898799300193787e-02,8.860409259796142578e-03,-4.470919445157051086e-02,-1.072480063885450363e-02,-1.860793121159076691e-02,2.131397463381290436e-02,1.174649596214294434e-02,2.888477034866809845e-02,2.356337849050760269e-03,3.957481589168310165e-03,-7.092266529798507690e-02,-1.030351594090461731e-02,-2.588674426078796387e-02,-2.529745455831289291e-03,4.910205304622650146e-02,-1.054750233888626099e-01,8.951353956945240498e-04,3.901965171098709106e-02,5.317532643675804138e-02,-8.164275437593460083e-03,4.822016507387161255e-02,-2.220273762941360474e-02,5.235378071665763855e-02,1.804471574723720551e-02,5.040009692311286926e-02,-6.067125499248504639e-02,-2.144399471580982208e-02,-3.657509014010429382e-02,-2.959471195936203003e-02,4.194290563464164734e-02,-2.461378648877143860e-02,-1.514564827084541321e-02,-1.686811819672584534e-02,4.738916642963886261e-03,-1.900775544345378876e-02,-4.756455495953559875e-02,3.380263224244117737e-02,5.031202733516693115e-02,-1.017989870160818100e-02,-3.183206915855407715e-02,1.912898942828178406e-02,-5.065806210041046143e-02,-7.590869814157485962e-02,-2.009351737797260284e-03,-1.045283302664756775e-02,-5.547154694795608521e-02,-5.974438390694558620e-04,-2.339210733771324158e-02,2.522236853837966919e-02,-3.201514109969139099e-02,-5.902225151658058167e-02,-5.942611396312713623e-02,5.305581167340278625e-02,-7.125923037528991699e-02,-3.013776428997516632e-02,-6.138953566551208496e-02,-2.086520195007324219e-02,1.869312673807144165e-02,3.848809748888015747e-02,-2.976051345467567444e-02,-8.080663532018661499e-02,-3.059425577521324158e-02,-4.066980630159378052e-02,-1.707175746560096741e-02,-1.258152443915605545e-02,-4.838524758815765381e-02,-3.445941954851150513e-02,-1.460887864232063293e-02,2.989611029624938965e-02,-3.303498029708862305e-03,-1.686008274555206299e-02,-6.972263008356094360e-02,-4.398448392748832703e-02,2.414569817483425140e-02,-5.813547596335411072e-02,-7.577966433018445969e-03,-4.541250690817832947e-02,1.629509963095188141e-02,3.204078972339630127e-02,5.841681361198425293e-02,-2.565757557749748230e-02,2.600981853902339935e-02,2.522496320307254791e-02,-2.833406068384647369e-02,-2.255544066429138184e-02,-7.551902532577514648e-02,-6.444941461086273193e-02,1.334697753190994263e-02,-1.198209263384342194e-02,-2.562728524208068848e-02,3.042705357074737549e-02,6.075315177440643311e-02,1.146165281534194946e-02,-1.868098229169845581e-02,6.484632194042205811e-02,4.478454589843750000e-02,-7.960490882396697998e-03,2.356103062629699707e-02,-3.174394369125366211e-02,3.468107804656028748e-02,-1.835574582219123840e-02,-1.242645084857940674e-03,-2.595090866088867188e-02,4.117324948310852051e-02,5.117738991975784302e-02,-2.291830629110336304e-02,-6.772473454475402832e-03,-5.649212002754211426e-02,2.084697782993316650e-02,-5.761681497097015381e-02,1.686151325702667236e-02,1.119265519082546234e-02
3.305966407060623169e-02,-5.362030863761901855e-02,4.114615544676780701e-02,2.783755771815776825e-02,3.874501585960388184e-02,-5.441948398947715759e-02,-2.991804108023643494e-02,-2.231393009424209595e-02,3.840182721614837646e-02,-2.036252059042453766e-02,3.260431345552206039e-03,1.356658041477203369e-01,6.969317793846130371e-02,-6.752722710371017456e-02,-2.383301965892314911e-02,-1.124203428626060486e-01,-1.862763427197933197e-02,2.162606269121170044e-02,4.848980903625488281e-02,7.194525003433227539e-02,-7.996479421854019165e-02,-6.816585361957550049e-02,-2.416337840259075165e-02,3.083114326000213623e-02,6.141211092472076416e-02,7.014481723308563232e-02,-6.986033171415328979e-02,-1.212710235267877579e-02,-5.576517060399055481e-02,-4.349509254097938538e-02,-5.204825103282928467e-02,-2.327835559844970703e-02,-4.310537874698638916e-02,-1.034882664680480957e-02,7.100304216146469116e-02,-2.498778887093067169e-02,2.118072286248207092e-02,6.923028081655502319e-02,7.080913521349430084e-03,-7.505710236728191376e-03,-8.929654210805892944e-02,3.339760750532150269e-02,-2.960725128650665283e-02,6.798370927572250366e-02,7.430008798837661743e-02,4.105736687779426575e-02,8.254226297140121460e-03,8.359542698599398136e-04,6.665240973234176636e-02,3.046006523072719574e-02,-1.053227111697196960e-02,-6.684843450784683228e-02,-1.659547388553619385e-01,-3.205117210745811462e-02,-5.218726024031639099e-02,-6.222043558955192566e-02,6.161502748727798462e-02,-9.221113473176956177e-02,4.396317526698112488e-02,5.310023203492164612e-02,2.053486881777644157e-03,5.832630395889282227e-02,-1.440410153008997440e-03,2.475473657250404358e-02,3.794706240296363831e-02,1.777370832860469818e-02,-4.666942358016967773e-02,1.546192448586225510e-02,-6.330876052379608154e-02,-2.649076655507087708e-02,-4.906558245420455933e-02,-3.030190430581569672e-02,6.613415479660034180e-02,4.793523252010345459e-02,7.249180227518081665e-02,-5.145183950662612915e-02,-3.372809290885925293e-02,-4.691796004772186279e-02,1.581245958805084229e-01,3.382574766874313354e-03,5.027297884225845337e-02,1.721767708659172058e-02,6.972209666855633259e-04,4.820192605257034302e-02,-5.490140523761510849e-03,-2.659920603036880493e-02,4.782582074403762817e-02,-3.382258862257003784e-02,-1.556657138280570507e-03,3.866115957498550415e-02,3.027372062206268311e-02,-9.374673664569854736e-02,7.714676111936569214e-02,2.610617876052856445e-02,-5.359029024839401245e-02,7.424268126487731934e-02,-1.518914103507995605e-02,-6.457702070474624634e-02,5.733846500515937805e-02,-6.818250566720962524e-02,6.197550892829895020e-02,8.534535765647888184e-02,-1.404229179024696350e-02,5.557516217231750488e-02,-4.547342658042907715e-02,-9.064421057701110840e-03,4.693996533751487732e-02,-1.074197236448526382e-02,-6.005537696182727814e-03,7.640664279460906982e-02,4.111373052000999451e-02,5.176462605595588684e-02,9.774039499461650848e-03,2.469100430607795715e-02,3.287611156702041626e-02,6.499150395393371582e-02,-7.331622764468193054e-03,-5.286651197820901871e-03,2.069289423525333405e-02,-9.921785444021224976e-02,-4.847337305545806885e-02,-5.248888861387968063e-03,-7.832558825612068176e-03,5.052052065730094910e-02,-1.098036020994186401e-01,-1.964256353676319122e-02,3.834592923521995544e-02,-7.525900006294250488e-02,-1.383881643414497375e-02,1.945938169956207275e-02,4.580216109752655029e-02,-6.813605874776840210e-02,-5.934780091047286987e-02,1.417068392038345337e-02,-4.366377368569374084e-02,1.005568075925111771e-02,-1.399557292461395264e-02,-6.410205364227294922e-02,-2.715749666094779968e-02,-3.239941969513893127e-02,-1.021913886070251465e-01,4.423809796571731567e-02,3.774408996105194092e-02,-8.722796104848384857e-03,-1.016903761774301529e-02,-4.545569047331809998e-02,-2.843649592250585556e-03,-5.137819424271583557e-02,-3.168286010622978210e-02,-3.648126497864723206e-02,7.259368896484375000e-03,-5.190079659223556519e-02,-6.005665287375450134e-03,5.193772539496421814e-02,1.203242689371109009e-02,-4.984374158084392548e-03,7.321944087743759155e-02,-7.512173149734735489e-03,1.089652702212333679e-01,1.412112265825271606e-02,5.218220502138137817e-02,-1.374215167015790939e-02,3.887489438056945801e-02,4.654447734355926514e-02,5.540426820516586304e-02,2.025827206671237946e-02,-3.421185910701751709e-02,-6.011479347944259644e-02,1.056969724595546722e-02,-4.024962708353996277e-02,2.015279233455657959e-02,2.663672715425491333e-02,1.190862730145454407e-01,-2.495336905121803284e-02,6.105849146842956543e-02,-2.515647187829017639e-02,-4.226028546690940857e-02,-5.053466930985450745e-02,-6.809408962726593018e-02,4.335740953683853149e-02,-6.773255765438079834e-03,5.751706659793853760e-02,-5.580186843872070312e-04,-1.011457294225692749e-02,5.299985408782958984e-02,6.365008652210235596e-02,-6.058104336261749268e-02,1.613356173038482666e-02,-1.105412468314170837e-02,-7.739811670035123825e-03,8.459106087684631348e-03,9.609970450401306152e-02
-5.192113295197486877e-02,3.163933008909225464e-02,-3.537768498063087463e-02,8.598087006248533726e-04,-3.160144388675689697e-02,4.154945164918899536e-02,2.090904861688613892e-02,-4.016226902604103088e-02,-3.260409086942672729e-02,-5.946208909153938293e-02,-5.216146819293498993e-03,3.168028593063354492e-02,-3.064044006168842316e-02,4.143244773149490356e-02,-6.094051897525787354e-02,-7.080366462469100952e-02,-3.118926845490932465e-02,5.568735767155885696e-03,-3.429374098777770996e-02,2.224210835993289948e-02,-4.808967933058738708e-02,2.975732274353504181e-02,7.137618213891983032e-02,6.422267109155654907e-02,-4.500962048768997192e-02,6.395967793650925159e-04,2.185508608818054199e-02,6.616511195898056030e-02,1.206973008811473846e-02,-1.155696250498294830e-02,8.535190485417842865e-03,3.603389253839850426e-03,-2.577375061810016632e-02,8.206416666507720947e-02,5.171107593923807144e-03,6.410238146781921387e-02,5.211883410811424255e-02,1.377044338732957840e-02,-1.303747761994600296e-02,-1.052184496074914932e-02,-6.410852819681167603e-02,1.721731573343276978e-02,-4.009566735476255417e-03,-3.751391917467117310e-02,8.670264482498168945e-02,5.710975825786590576e-02,4.968402907252311707e-02,-5.324828997254371643e-02,-2.183005772531032562e-02,7.942260056734085083e-02,6.103368848562240601e-02,5.102552846074104309e-02,-2.991210855543613434e-02,-2.375178784132003784e-02,-5.764299537986516953e-03,-5.124830827116966248e-02,2.973441407084465027e-02,-4.054513573646545410e-02,6.533218920230865479e-02,-2.636306732892990112e-02,-2.819192036986351013e-02,-1.981053687632083893e-02,3.654712811112403870e-02,-3.568950295448303223e-02,-3.995348233729600906e-03,6.938903126865625381e-03,-3.996335342526435852e-02,-6.543898582458496094e-02,7.247105985879898071e-02,-6.272557377815246582e-02,-1.458507310599088669e-02,-1.437072269618511200e-02,4.258684068918228149e-02,5.220284685492515564e-02,-2.030788175761699677e-02,1.739933528006076813e-02,1.891575194895267487e-02,6.311409175395965576e-02,1.315637826919555664e-01,9.307545609772205353e-03,-1.620514318346977234e-02,-1.915597170591354370e-02,5.911611951887607574e-03,5.241508036851882935e-02,-2.170863747596740723e-02,-2.901638671755790710e-02,6.956951227039098740e-03,9.895553812384605408e-03,-8.281446993350982666e-02,-4.757299274206161499e-02,5.014279484748840332e-02,-1.162215471267700195e-01,-4.813401401042938232e-02,-6.533222645521163940e-02,6.638878583908081055e-02,4.502010066062211990e-03,1.559456624090671539e-02,3.632555156946182251e-02,6.538517307490110397e-03,-3.654864802956581116e-02,-1.171989273279905319e-02,-1.419426128268241882e-02,4.936323314905166626e-02,5.562344938516616821e-02,4.697222262620925903e-03,-5.539038404822349548e-02,2.879582531750202179e-02,2.618049737066030502e-03,6.907498836517333984e-02,-2.116938494145870209e-02,9.222044050693511963e-02,2.696313709020614624e-02,6.541362963616847992e-03,-5.819349363446235657e-02,2.109776064753532410e-02,1.296959351748228073e-02,-1.610471121966838837e-02,4.416049271821975708e-02,2.839311398565769196e-02,-8.665432780981063843e-02,3.920006379485130310e-02,-4.616602510213851929e-02,-3.176267072558403015e-02,7.422769907861948013e-03,-1.277319341897964478e-01,8.193724788725376129e-03,-1.485542021691799164e-02,-5.690646171569824219e-02,3.789769113063812256e-02,-1.751622185111045837e-02,-3.048685379326343536e-03,-8.254321664571762085e-02,4.078245535492897034e-02,4.243072122335433960e-02,-5.650258436799049377e-02,3.226694650948047638e-03,2.674406021833419800e-02,6.273685395717620850e-02,-4.220708459615707397e-02,1.714789122343063354e-02,-1.101239696145057678e-01,-6.207523494958877563e-02,-4.270415753126144409e-02,-8.633587509393692017e-03,4.999915882945060730e-02,-3.159710019826889038e-02,-7.776837050914764404e-02,-5.792466178536415100e-02,1.676584035158157349e-02,2.772942930459976196e-02,-7.135178148746490479e-02,6.848174333572387695e-02,5.524735897779464722e-03,5.474390089511871338e-02,-2.328569442033767700e-02,3.772038593888282776e-02,9.025201946496963501e-02,3.520168736577033997e-02,4.044274240732192993e-02,-2.434368804097175598e-02,1.274352520704269409e-02,4.810484498739242554e-02,3.899313881993293762e-02,4.267140477895736694e-02,4.969827458262443542e-02,-5.363591387867927551e-02,-1.063267607241868973e-02,-2.557880431413650513e-02,7.698388397693634033e-02,6.393851339817047119e-02,-4.612974822521209717e-02,6.472387909889221191e-02,1.307959295809268951e-02,6.142044067382812500e-02,-7.071964442729949951e-03,-5.047856830060482025e-03,-6.310371309518814087e-02,-2.469725906848907471e-03,2.452724426984786987e-02,9.688842296600341797e-02,-5.095713585615158081e-02,3.085842728614807129e-02,6.073912978172302246e-02,4.715950042009353638e-02,-2.584698423743247986e-02,-4.463759437203407288e-02,1.188587397336959839e-02,-1.487163826823234558e-02,-6.955678015947341919e-02,-7.722248788923025131e-03,2.187055349349975586e-02,7.159953564405441284e-02
-3.448946401476860046e-02,-7.851739227771759033e-02,1.836013980209827423e-02,9.571256116032600403e-03,6.243836879730224609e-02,-3.943471238017082214e-02,1.142972987145185471e-02,-7.838119566440582275e-02,-8.006378263235092163e-02,2.347443066537380219e-02,-7.355716824531555176e-02,-3.475934732705354691e-03,-3.348193317651748657e-02,-1.203091256320476532e-02,4.601563792675733566e-03,5.369597673416137695e-02,1.887307874858379364e-02,-7.462543435394763947e-04,2.235791180282831192e-03,-1.436558365821838379e-02,-1.089819055050611496e-02,1.428287290036678314e-02,-6.820432096719741821e-02,5.449424311518669128e-02,4.676589369773864746e-02,-5.032767355442047119e-02,-2.694186381995677948e-02,-3.085601143538951874e-02,-4.155047982931137085e-02,-5.386499688029289246e-03,-3.877225890755653381e-02,3.220940381288528442e-02,4.418922122567892075e-03,-1.559422258287668228e-02,2.061099372804164886e-02,3.652211651206016541e-02,-7.450226694345474243e-02,3.042932972311973572e-02,4.360491875559091568e-03,-4.225897043943405151e-02,5.706118792295455933e-02,-5.515149608254432678e-02,2.905745245516300201e-02,-2.319893985986709595e-02,-2.790730446577072144e-02,1.772381737828254700e-02,-9.289204142987728119e-03,1.825879327952861786e-02,-1.590474322438240051e-02,4.872695729136466980e-02,1.309887273237109184e-03,-3.850142285227775574e-02,9.932573884725570679e-04,-3.338721022009849548e-02,8.115141652524471283e-03,-5.863380804657936096e-02,-3.127570077776908875e-02,-3.103461861610412598e-02,1.978018879890441895e-02,-4.344679787755012512e-02,2.823374792933464050e-02,-6.011638790369033813e-02,-1.739137992262840271e-02,-5.644893273711204529e-03,-4.748678579926490784e-02,1.795101538300514221e-02,3.048405051231384277e-02,-6.923284381628036499e-02,1.379735488444566727e-02,4.704087227582931519e-02,-3.832498332485556602e-03,1.362510304898023605e-02,4.967680200934410095e-02,7.173575460910797119e-02,4.461012035608291626e-02,3.097850829362869263e-02,-1.853967830538749695e-02,-4.514636471867561340e-02,-6.409791857004165649e-02,3.379542380571365356e-02,4.337109625339508057e-02,5.238662287592887878e-02,3.099222481250762939e-02,5.392751470208168030e-02,2.997773326933383942e-02,3.439848497509956360e-02,-6.138511002063751221e-03,-6.113453209400177002e-02,-7.312170416116714478e-02,1.811471767723560333e-02,1.894024387001991272e-02,2.763148397207260132e-02,5.440365150570869446e-02,-9.106949437409639359e-04,1.064344029873609543e-02,-7.547466084361076355e-03,-7.522707432508468628e-02,5.905091762542724609e-02,1.488917227834463120e-02,5.608703941106796265e-02,4.532654955983161926e-02,-4.386152699589729309e-02,4.650472849607467651e-02,4.097999632358551025e-02,-1.064280164428055286e-03,1.058188080787658691e-02,-6.903004646301269531e-02,-3.576249629259109497e-02,1.219618972390890121e-02,7.041129749268293381e-03,2.475967817008495331e-02,2.394860982894897461e-02,8.393861353397369385e-03,-2.600376866757869720e-02,-3.715043887495994568e-02,-8.420681953430175781e-02,-7.958357036113739014e-02,-2.224057912826538086e-02,-7.999366789590567350e-05,-5.735122784972190857e-02,4.455312341451644897e-02,-1.057479158043861389e-02,4.126510117202997208e-03,5.333353579044342041e-02,3.376685082912445068e-03,-2.736428380012512207e-02,-1.909321732819080353e-02,4.500824958086013794e-02,1.179540902376174927e-02,3.993468731641769409e-02,1.662159711122512817e-02,-7.334538549184799194e-02,-7.037490606307983398e-02,-7.047010958194732666e-02,9.340939112007617950e-03,6.339152809232473373e-03,-4.824868217110633850e-02,-6.633181124925613403e-02,5.461916327476501465e-03,-4.615231603384017944e-02,7.413496728986501694e-03,-5.886180698871612549e-02,3.095164149999618530e-02,-1.042970735579729080e-02,1.607168465852737427e-02,-1.835347153246402740e-02,-5.514300242066383362e-02,-4.955992847681045532e-02,-4.061579704284667969e-03,-1.953618228435516357e-02,-5.070087313652038574e-02,1.148754358291625977e-02,4.566685110330581665e-02,4.109879955649375916e-02,2.930022776126861572e-03,-8.238904923200607300e-02,1.977987959980964661e-02,-6.383485347032546997e-02,-4.094651713967323303e-02,1.292253285646438599e-02,7.126159965991973877e-02,-5.805838480591773987e-02,-4.720708355307579041e-02,7.856883108615875244e-03,-3.243769332766532898e-02,1.937461271882057190e-02,-4.628049954771995544e-02,-5.862920358777046204e-02,1.483182702213525772e-02,1.258307695388793945e-02,-5.959535762667655945e-02,-1.295450329780578613e-02,-4.195604845881462097e-02,-3.863868489861488342e-02,-5.022324249148368835e-02,4.124966263771057129e-02,1.105585694313049316e-02,-2.885524183511734009e-02,-1.976027712225914001e-02,-2.510168403387069702e-02,3.072056174278259277e-02,-1.169137656688690186e-03,2.573379129171371460e-02,7.132247090339660645e-02,-6.169424578547477722e-02,3.141340613365173340e-02,-8.747451007366180420e-03,-3.250943124294281006e-02,6.938728690147399902e-02,-5.929269269108772278e-02,4.585501179099082947e-02,1.974872872233390808e-02
3.022313117980957031e-02,-4.920375719666481018e-02,-5.871552228927612305e-02,-7.371791452169418335e-02,1.953560858964920044e-02,4.666744172573089600e-02,-5.140699446201324463e-02,-4.628041014075279236e-02,-5.713470652699470520e-02,6.304173171520233154e-02,5.921768397092819214e-02,-1.251519750803709030e-02,-5.102443695068359375e-02,-3.023580089211463928e-02,-3.836636617779731750e-02,-5.245053023099899292e-02,-7.285450398921966553e-02,4.646923765540122986e-02,3.214944899082183838e-02,-1.071836277842521667e-01,-6.807412207126617432e-02,2.754030376672744751e-02,7.395529747009277344e-02,4.968132078647613525e-02,-6.858553737401962280e-02,4.626410081982612610e-02,-6.407807767391204834e-02,-7.789069321006536484e-03,-7.399776950478553772e-03,1.443438231945037842e-02,4.704828560352325439e-02,-6.386189907789230347e-02,5.212898552417755127e-02,3.496683016419410706e-02,3.065101802349090576e-02,3.025668859481811523e-02,5.894709378480911255e-02,6.471692025661468506e-02,-5.566588044166564941e-02,4.285183921456336975e-02,-1.903403736650943756e-02,-3.505700081586837769e-02,4.801250994205474854e-02,6.253710389137268066e-02,7.081256480887532234e-04,6.597252190113067627e-02,3.071536310017108917e-02,4.917047545313835144e-02,-6.540182977914810181e-02,1.884879171848297119e-02,3.889961168169975281e-02,-2.706904895603656769e-02,1.582477055490016937e-02,-3.464024141430854797e-02,-2.132614143192768097e-02,5.148546025156974792e-02,1.629749871790409088e-02,-1.870606839656829834e-02,-6.639704853296279907e-02,-8.621452376246452332e-03,-4.948374629020690918e-02,-6.399222463369369507e-02,-1.956009073182940483e-03,-7.013349980115890503e-02,-5.515568703413009644e-02,-2.820217981934547424e-02,5.557104572653770447e-02,-1.144233718514442444e-02,1.310061104595661163e-02,-2.342932857573032379e-02,-5.742130056023597717e-02,-5.649143457412719727e-02,3.957232460379600525e-02,-1.145038753747940063e-02,-4.400824010372161865e-02,5.254711210727691650e-02,-3.312848135828971863e-02,3.012224286794662476e-02,-7.845126837491989136e-02,4.699089378118515015e-02,3.257220983505249023e-02,5.643875151872634888e-02,-2.690512873232364655e-02,-7.787147164344787598e-02,-1.940230838954448700e-02,-7.759069651365280151e-02,-2.467972785234451294e-02,1.351149566471576691e-02,2.766150794923305511e-02,1.108956336975097656e-02,-1.640956103801727295e-02,-3.316175192594528198e-02,1.703016459941864014e-02,-7.588598877191543579e-02,-2.615154488012194633e-03,-5.333510786294937134e-02,1.076161675155162811e-02,-4.891926795244216919e-02,-6.513366848230361938e-02,-3.187955170869827271e-02,2.982116490602493286e-02,3.016070090234279633e-02,-6.540805846452713013e-02,6.190711632370948792e-02,-4.362029209733009338e-02,1.902213133871555328e-02,4.439669102430343628e-02,-4.041944071650505066e-02,9.770832955837249756e-03,3.375294432044029236e-02,2.961582131683826447e-02,-4.600384086370468140e-02,-6.562192738056182861e-02,-7.520124781876802444e-03,-9.996484965085983276e-03,1.792474463582038879e-02,1.725780218839645386e-02,2.572675421833992004e-02,-7.261972874402999878e-02,-3.490063920617103577e-02,3.293923661112785339e-02,-4.998845234513282776e-02,3.121683932840824127e-02,-3.611355321481823921e-03,6.197044253349304199e-02,3.550499677658081055e-04,5.189684778451919556e-02,-2.059106156229972839e-02,3.442574292421340942e-02,-9.242318570613861084e-03,-1.685651019215583801e-02,4.847245756536722183e-03,1.096837408840656281e-02,3.207089751958847046e-02,-6.598212569952011108e-02,-3.140645101666450500e-02,-6.539904326200485229e-02,-5.596810579299926758e-02,-2.963167056441307068e-02,1.770994067192077637e-02,-2.245621941983699799e-02,-6.635320186614990234e-02,-5.182432383298873901e-02,-5.026680976152420044e-02,5.445307865738868713e-02,-5.167003720998764038e-02,-3.021150128915905952e-03,7.659420371055603027e-04,-6.367688626050949097e-02,-1.329801976680755615e-02,-1.357179880142211914e-02,7.173193991184234619e-02,5.384460836648941040e-02,1.689286157488822937e-02,-6.335638463497161865e-02,4.070222377777099609e-02,-3.116695582866668701e-02,-6.017745658755302429e-02,4.740122333168983459e-02,-4.666501283645629883e-02,-4.317494109272956848e-02,-9.858570247888565063e-02,4.641932435333728790e-03,-2.344816736876964569e-02,-6.183166056871414185e-02,-3.380548954010009766e-02,1.261567790061235428e-02,-5.223254114389419556e-02,-8.139859139919281006e-02,7.398776710033416748e-03,-5.509510636329650879e-02,-3.154595196247100830e-02,-8.007989078760147095e-02,-2.482037991285324097e-02,-4.156724736094474792e-02,-5.689913779497146606e-02,5.009208619594573975e-02,1.130625605583190918e-04,8.047662675380706787e-03,-4.065541923046112061e-02,2.820656448602676392e-02,6.195530295372009277e-02,5.452419817447662354e-02,1.614793390035629272e-02,-3.670837357640266418e-02,-4.859045613557100296e-03,-1.828361675143241882e-02,-6.289901584386825562e-02,8.351482450962066650e-03,2.231087721884250641e-02,1.091263722628355026e-02,-2.179268933832645416e-02
-6.478151679039001465e-02,2.531522326171398163e-02,-1.951131597161293030e-02,1.062146499752998352e-01,1.512185949832201004e-02,-1.318511739373207092e-02,4.236543178558349609e-02,5.474359914660453796e-02,6.683400832116603851e-03,-2.521454356610774994e-02,2.363173849880695343e-02,4.273537918925285339e-02,-4.256598185747861862e-04,7.060384005308151245e-02,-3.551749512553215027e-02,-6.789077818393707275e-02,2.830842323601245880e-02,-5.612213909626007080e-02,-3.152693063020706177e-02,-1.227393932640552521e-02,5.304741859436035156e-02,7.302541285753250122e-02,-6.815605796873569489e-03,-4.003559052944183350e-02,8.199078589677810669e-02,-2.884311415255069733e-02,-1.015128791332244873e-01,6.586305797100067139e-02,5.221216380596160889e-02,-2.174089895561337471e-03,-3.075251728296279907e-02,-3.585569933056831360e-02,2.726366557180881500e-02,2.861094474792480469e-02,6.232196465134620667e-02,5.104433000087738037e-02,-2.040516957640647888e-02,2.562450803816318512e-02,7.222400978207588196e-03,5.827271193265914917e-02,8.077126927673816681e-03,-5.458264797925949097e-02,-4.186932370066642761e-02,4.298468306660652161e-02,7.694286108016967773e-02,4.764387384057044983e-02,2.326247282326221466e-02,7.477598637342453003e-02,-2.002375945448875427e-02,-2.458836883306503296e-03,5.360879004001617432e-03,2.714731357991695404e-02,-1.103731915354728699e-01,-3.239959245547652245e-03,2.209109440445899963e-02,-3.491819277405738831e-02,5.018578842282295227e-02,-1.041815131902694702e-01,6.986775249242782593e-02,6.153934448957443237e-02,-1.052634324878454208e-02,5.483368411660194397e-02,3.804996609687805176e-02,5.831575393676757812e-02,-2.544258348643779755e-02,-1.716681569814682007e-02,-1.158261578530073166e-02,-6.631636619567871094e-02,-4.208268225193023682e-02,6.713274866342544556e-02,5.391246825456619263e-02,-5.211072415113449097e-02,3.849897906184196472e-02,-2.462314814329147339e-02,6.216474249958992004e-02,-9.408223628997802734e-02,-1.669436879456043243e-02,2.190610393881797791e-03,1.083190366625785828e-01,-1.108166649937629700e-01,2.577428705990314484e-02,-1.096786279231309891e-02,-2.060061320662498474e-02,1.024163141846656799e-02,-7.305929437279701233e-03,2.833105437457561493e-02,-4.166374728083610535e-02,5.872333049774169922e-02,-1.005716435611248016e-02,-6.204326078295707703e-02,4.090107046067714691e-03,-1.290173456072807312e-02,-6.050978600978851318e-02,-2.593025192618370056e-02,-1.357743795961141586e-02,-1.393730845302343369e-02,2.921820059418678284e-02,6.865730136632919312e-02,7.016473263502120972e-02,-6.621934473514556885e-02,-6.591618806123733521e-02,6.682290136814117432e-02,4.921393468976020813e-02,-2.791240625083446503e-02,2.488161250948905945e-02,6.842129677534103394e-02,5.955815315246582031e-03,5.474638193845748901e-02,-5.899780616164207458e-02,-2.883937768638134003e-02,-1.929278112947940826e-02,-4.049816355109214783e-02,6.790474802255630493e-02,-3.968745470046997070e-02,-3.677015751600265503e-02,-3.400059416890144348e-02,3.660850226879119873e-02,4.334280639886856079e-02,2.705576363950967789e-03,-7.722990214824676514e-02,-3.625867143273353577e-02,4.979696124792098999e-02,4.733716323971748352e-02,5.996551830321550369e-03,-6.733752042055130005e-02,3.370551019906997681e-02,-4.045107960700988770e-02,2.538726106286048889e-02,6.927508115768432617e-02,1.887667924165725708e-02,-5.658677220344543457e-02,-1.151210744865238667e-03,-1.610465347766876221e-02,-3.030479326844215393e-02,3.733909502625465393e-02,6.302507221698760986e-02,6.703387200832366943e-02,-2.973058447241783142e-02,-6.125672906637191772e-02,4.868610948324203491e-02,-1.092533022165298462e-01,9.245485067367553711e-03,2.069579064846038818e-02,-3.928960859775543213e-02,-1.602035760879516602e-02,-6.119371205568313599e-02,-4.173186048865318298e-02,4.443255066871643066e-02,-4.296608269214630127e-02,-1.092957705259323120e-02,3.768046945333480835e-02,-4.294138401746749878e-02,-5.575411766767501831e-02,-3.250458091497421265e-02,4.749924689531326294e-02,5.171926692128181458e-02,5.490223318338394165e-02,7.727950811386108398e-02,1.092324182391166687e-01,-2.609529718756675720e-02,6.481194496154785156e-02,9.782331436872482300e-02,-4.889558255672454834e-02,2.326365187764167786e-02,9.151358157396316528e-02,-4.356296733021736145e-02,3.115088865160942078e-02,-5.601607263088226318e-02,4.073708876967430115e-02,6.729386746883392334e-02,6.187494099140167236e-02,-5.473738908767700195e-02,6.604450196027755737e-02,-4.800562560558319092e-02,-2.322901412844657898e-02,-5.121938511729240417e-02,-3.742005303502082825e-02,1.191405206918716431e-02,3.551162779331207275e-02,1.090430617332458496e-01,-4.697094485163688660e-02,-4.028638824820518494e-02,3.654528409242630005e-02,-2.807211130857467651e-02,-5.242596939206123352e-02,-3.441131487488746643e-02,-5.810124427080154419e-02,3.357357531785964966e-02,-7.143721729516983032e-02,7.990676909685134888e-02,6.759554613381624222e-03,7.350126653909683228e-02
-3.978423401713371277e-02,6.179243326187133789e-02,-5.083366855978965759e-02,3.545487299561500549e-02,-2.271387353539466858e-02,-6.021413952112197876e-02,6.576792150735855103e-02,-1.144358702003955841e-02,-4.039567708969116211e-02,7.566675543785095215e-03,4.163170978426933289e-02,3.104098699986934662e-02,-1.312461681663990021e-02,5.127608031034469604e-02,-4.496336355805397034e-02,5.555510520935058594e-02,1.101874001324176788e-02,1.198556274175643921e-02,-4.443744570016860962e-02,-4.309296235442161560e-02,2.096790075302124023e-02,-1.488493010401725769e-02,-5.473197624087333679e-02,-2.004907466471195221e-02,-2.704876102507114410e-02,5.334957968443632126e-03,2.256765030324459076e-02,-6.455338001251220703e-02,1.980910636484622955e-02,5.561232566833496094e-03,-5.131764709949493408e-02,6.232368946075439453e-02,1.944281905889511108e-02,-6.455841660499572754e-02,-2.278875000774860382e-02,-5.451868847012519836e-02,4.609948489814996719e-03,-1.335601508617401123e-02,3.809166327118873596e-02,-6.178281083703041077e-02,-1.415875833481550217e-02,-6.294329464435577393e-02,-5.817897617816925049e-03,-6.975010782480239868e-02,1.424997020512819290e-02,4.875745251774787903e-02,5.114808678627014160e-02,2.367703989148139954e-02,-2.769666165113449097e-02,6.341230124235153198e-02,6.014776229858398438e-02,1.298701390624046326e-02,2.549357153475284576e-02,-5.117747187614440918e-02,-6.186032295227050781e-02,-7.079659495502710342e-03,-7.564811408519744873e-02,5.288606882095336914e-02,5.135569721460342407e-02,5.792361125349998474e-02,-8.092281967401504517e-02,-2.186893299221992493e-02,-4.857762530446052551e-02,2.218233607709407806e-02,-2.407358959317207336e-02,-7.270516455173492432e-02,-9.317104704678058624e-03,6.140892207622528076e-02,4.128928110003471375e-02,-1.191039197146892548e-02,-6.770353764295578003e-02,5.595457553863525391e-02,4.423255100846290588e-02,3.864821046590805054e-02,-8.232437074184417725e-02,-3.198042139410972595e-02,2.378130331635475159e-02,-2.108633518218994141e-02,-6.414152681827545166e-02,3.335762023925781250e-02,4.622724652290344238e-02,-5.703829228878021240e-03,-1.031408552080392838e-02,-1.721834577620029449e-02,-5.879915505647659302e-02,2.006573788821697235e-02,3.630116581916809082e-03,-3.737139701843261719e-02,-2.757165767252445221e-02,3.095382638275623322e-02,1.560435816645622253e-02,-1.372748240828514099e-02,2.782200649380683899e-02,-5.795944482088088989e-03,-5.493288487195968628e-02,-2.811024896800518036e-02,6.082045286893844604e-02,-1.095251995138823986e-03,1.705923303961753845e-02,-5.190811678767204285e-02,-6.444429606199264526e-02,3.046260401606559753e-02,9.979619644582271576e-03,-3.458925336599349976e-02,-7.684999704360961914e-02,-1.083190646022558212e-02,1.748856529593467712e-02,-3.922892361879348755e-02,1.825305260717868805e-02,-4.718235507607460022e-02,5.143598094582557678e-02,5.982743203639984131e-02,5.640767514705657959e-02,1.794545166194438934e-02,-2.373433671891689301e-02,8.108060806989669800e-03,-5.193774774670600891e-02,4.918993916362524033e-03,-2.667075768113136292e-02,5.942995846271514893e-02,2.124247141182422638e-02,-6.974497437477111816e-02,-7.315362989902496338e-02,2.558266744017601013e-02,2.499926835298538208e-02,-2.226504124701023102e-02,5.780203267931938171e-02,-3.606351092457771301e-02,9.914971888065338135e-03,2.517277747392654419e-02,-1.901029050350189209e-02,2.750587649643421173e-03,-5.375580489635467529e-02,4.526520520448684692e-02,6.081546097993850708e-02,-7.591978460550308228e-02,4.145909845829010010e-02,-2.163620293140411377e-02,5.498500168323516846e-02,2.830906212329864502e-02,-7.379339635372161865e-02,-4.754850268363952637e-02,2.978902310132980347e-02,5.199425294995307922e-02,3.345474973320960999e-02,-4.231775552034378052e-02,-6.824893504381179810e-02,-5.384653806686401367e-02,7.213895022869110107e-02,5.801431834697723389e-02,-3.351407498121261597e-02,6.977860629558563232e-02,-6.649745255708694458e-02,1.768471114337444305e-02,-2.981808781623840332e-02,6.016483530402183533e-02,-4.720922932028770447e-02,-5.957164242863655090e-02,-5.112886801362037659e-02,3.334534168243408203e-02,-7.542073726654052734e-04,3.729612380266189575e-02,3.566066175699234009e-02,8.458478376269340515e-03,6.003308296203613281e-02,3.848835360258817673e-03,-5.190813541412353516e-02,-5.322340875864028931e-02,1.386614516377449036e-03,4.604252427816390991e-02,6.344920396804809570e-02,2.739913016557693481e-02,-2.083277516067028046e-02,-1.475878059864044189e-02,-3.634855151176452637e-03,6.575519684702157974e-03,1.226285845041275024e-02,2.322413027286529541e-02,-4.365771263837814331e-02,5.209092050790786743e-02,3.684934973716735840e-02,3.493521362543106079e-02,-5.359631031751632690e-02,4.091748595237731934e-02,6.097692251205444336e-02,1.024534646421670914e-02,4.027353972196578979e-02,-5.629506334662437439e-02,1.279646903276443481e-02,-2.350026741623878479e-02,-2.156687527894973755e-02,-3.027356415987014771e-02
2.516303444281220436e-03,2.464241161942481995e-02,-3.958115726709365845e-02,1.006180569529533386e-01,-2.921532839536666870e-02,3.476851619780063629e-03,-1.458818465471267700e-02,2.005314920097589493e-03,-4.993526637554168701e-02,2.754657529294490814e-02,3.048312105238437653e-02,8.958922326564788818e-02,3.692260012030601501e-02,1.014417037367820740e-02,4.125095531344413757e-02,-1.213555037975311279e-01,-2.577929524704813957e-03,1.219175849109888077e-02,1.760179921984672546e-02,6.244376301765441895e-02,1.183169707655906677e-02,7.138014584779739380e-02,5.813223868608474731e-02,7.054940611124038696e-02,-3.092347830533981323e-02,8.387438952922821045e-02,-1.025084182620048523e-01,6.723113823682069778e-03,-3.830292820930480957e-02,-5.411174520850181580e-02,8.387242257595062256e-02,4.255337640643119812e-03,-6.709523499011993408e-02,-1.494897413067519665e-03,1.532365288585424423e-02,7.270397245883941650e-02,-3.569147363305091858e-02,2.823782525956630707e-02,-2.471081912517547607e-02,9.031317196786403656e-03,-2.192596439272165298e-04,-1.837200485169887543e-02,4.601180180907249451e-02,8.883600123226642609e-03,3.181736916303634644e-02,2.963554486632347107e-02,7.910250872373580933e-02,-2.832485735416412354e-02,6.756928283721208572e-03,6.727821379899978638e-02,1.015065517276525497e-02,-4.554850980639457703e-03,5.983987357467412949e-03,7.077464461326599121e-02,-2.306601777672767639e-02,4.067249223589897156e-02,-3.201013803482055664e-02,-1.361711788922548294e-02,-6.668975111097097397e-03,-5.483703687787055969e-02,-1.599358767271041870e-02,2.558224089443683624e-02,6.868709623813629150e-02,-3.121712431311607361e-02,3.849572967737913132e-04,3.635316714644432068e-02,3.331107646226882935e-02,5.236702039837837219e-02,-1.117221079766750336e-02,3.754633944481611252e-03,-4.645627364516258240e-02,3.883949667215347290e-02,-2.696332708001136780e-02,-3.785237297415733337e-02,4.370662197470664978e-02,9.694307809695601463e-04,-3.061055950820446014e-02,-4.065053910017013550e-02,1.536878198385238647e-01,3.151658549904823303e-02,5.833784583956003189e-03,4.620150104165077209e-02,5.432738736271858215e-02,-2.627958357334136963e-02,-1.506489515304565430e-02,-5.442104302346706390e-03,-6.875227391719818115e-02,4.020489007234573364e-02,-1.155726704746484756e-02,5.730524286627769470e-02,4.780068621039390564e-02,-2.606155909597873688e-02,8.035096526145935059e-02,3.647032007575035095e-02,1.985648274421691895e-02,3.974115103483200073e-02,4.008641093969345093e-02,2.732528746128082275e-02,-3.740006685256958008e-02,-3.677406162023544312e-02,3.341890126466751099e-02,2.528505772352218628e-02,6.280221790075302124e-02,8.385086804628372192e-02,7.773622125387191772e-02,-4.534168541431427002e-02,-1.514501310884952545e-02,-4.622617363929748535e-02,-1.462948042899370193e-02,4.671440646052360535e-02,2.637670934200286865e-02,3.234918462112545967e-03,2.953886240720748901e-02,1.648167334496974945e-02,5.658020451664924622e-02,1.338450331240892410e-02,-2.201476506888866425e-02,8.829877711832523346e-03,1.579733006656169891e-02,-3.881904110312461853e-02,6.972954422235488892e-02,-6.090794131159782410e-02,-3.412542864680290222e-02,-1.406372245401144028e-02,-1.623185575008392334e-01,1.086380705237388611e-02,-3.321335837244987488e-02,-8.267059177160263062e-02,-3.682799637317657471e-03,1.782354712486267090e-02,-5.636868532747030258e-03,-7.998786866664886475e-02,3.229677677154541016e-02,1.343989372253417969e-02,4.938530176877975464e-02,8.332228660583496094e-02,-5.530997365713119507e-02,-1.458754017949104309e-02,-3.120402619242668152e-02,-4.424875974655151367e-02,-1.063711568713188171e-01,-3.159718215465545654e-02,7.711768150329589844e-03,-5.530842766165733337e-02,4.348041955381631851e-03,-6.183844059705734253e-02,1.161733362823724747e-02,-1.057368889451026917e-02,-1.560196280479431152e-02,4.682667553424835205e-03,6.146125495433807373e-02,2.367776632308959961e-02,-1.135586202144622803e-02,1.368931028991937637e-02,4.023385047912597656e-02,-1.829159329645335674e-03,2.805595844984054565e-02,8.614275604486465454e-02,5.295335315167903900e-03,-2.877865731716156006e-02,-6.522661447525024414e-02,9.983803331851959229e-02,-8.657550066709518433e-02,-6.154732778668403625e-02,-1.675014570355415344e-02,5.451782792806625366e-02,-2.443372504785656929e-03,1.768208295106887817e-02,6.552100181579589844e-02,-2.417175471782684326e-02,-4.933184012770652771e-02,-7.064080983400344849e-02,2.054847776889801025e-02,-6.451812386512756348e-02,1.436349004507064819e-02,1.972052082419395447e-02,-4.241518676280975342e-02,2.199482172727584839e-02,-6.610419601202011108e-02,6.470374763011932373e-02,6.935532391071319580e-02,-6.505061686038970947e-02,-3.866068646311759949e-02,6.160263717174530029e-02,2.764597535133361816e-03,5.123635753989219666e-03,-5.582831799983978271e-03,-6.784553825855255127e-02,-1.483215764164924622e-02,3.129865741357207298e-03,-1.622134633362293243e-02,1.007536798715591431e-01
3.338046371936798096e-02,-7.098874449729919434e-02,-6.915521621704101562e-02,7.595166098326444626e-03,2.878355234861373901e-02,5.750536918640136719e-02,2.724234387278556824e-02,1.744681410491466522e-02,2.853154763579368591e-02,8.127879351377487183e-03,3.754978626966476440e-02,1.934710144996643066e-02,-6.422153115272521973e-02,-7.376001030206680298e-02,-3.096935525536537170e-02,3.061483800411224365e-02,-4.973982274532318115e-02,5.028654634952545166e-02,-2.588078938424587250e-02,-4.343390837311744690e-02,-5.304224789142608643e-02,2.843384258449077606e-02,-3.217186778783798218e-02,-4.734442383050918579e-02,-6.353930383920669556e-02,-4.456315189599990845e-02,6.092797592282295227e-02,-2.939356863498687744e-02,-2.378641813993453979e-02,5.803524516522884369e-03,-1.668989844620227814e-02,3.730440139770507812e-02,2.401708811521530151e-02,6.056875362992286682e-02,1.441998034715652466e-02,-5.340307578444480896e-02,5.721505731344223022e-02,2.534256689250469208e-02,1.133262179791927338e-02,-2.530675940215587616e-02,-1.460307091474533081e-02,-4.917345941066741943e-02,8.249398320913314819e-02,7.589517533779144287e-02,-1.441433466970920563e-02,-4.730361327528953552e-02,-1.676489040255546570e-02,-3.107798285782337189e-02,-1.739101856946945190e-02,2.640838921070098877e-02,-4.493276774883270264e-02,-5.787737295031547546e-02,-3.729582205414772034e-02,3.906650468707084656e-02,-4.763836041092872620e-02,4.634582996368408203e-02,7.171354256570339203e-03,3.646745905280113220e-02,-3.681829571723937988e-02,-6.683084368705749512e-02,-2.230679616332054138e-02,2.197642810642719269e-03,5.218686908483505249e-02,-6.044772639870643616e-02,-1.533786021173000336e-02,3.520864620804786682e-02,-2.736073173582553864e-02,6.710813939571380615e-02,-8.535967767238616943e-02,-5.739052966237068176e-02,-2.696619927883148193e-02,-2.931731939315795898e-02,-5.871462449431419373e-02,8.687540888786315918e-03,-4.960063472390174866e-02,3.944548219442367554e-02,-4.392187297344207764e-02,5.596966668963432312e-02,1.067774277180433273e-02,1.836369186639785767e-02,5.054068937897682190e-02,-1.614455878734588623e-02,-6.879584491252899170e-02,4.385621473193168640e-02,-4.047582671046257019e-02,-2.285198494791984558e-02,-2.278238907456398010e-02,7.710560690611600876e-03,-1.328343711793422699e-02,2.585415728390216827e-02,2.577487193048000336e-02,1.118834316730499268e-02,-1.180454269051551819e-01,1.808457449078559875e-02,-7.165942341089248657e-02,-5.733232572674751282e-02,-3.173111006617546082e-02,5.903398990631103516e-02,-5.215300247073173523e-03,-2.069808170199394226e-02,2.950118668377399445e-02,-2.176558598875999451e-02,-2.529853582382202148e-02,1.300460100173950195e-02,-4.350860044360160828e-02,3.959494084119796753e-02,8.542179130017757416e-03,4.167958721518516541e-02,2.505996823310852051e-02,-6.710919737815856934e-02,8.516252972185611725e-03,-1.674435287714004517e-02,2.771673258394002914e-03,-1.228461321443319321e-02,-4.617034643888473511e-02,-1.713507063686847687e-02,-5.519425030797719955e-03,-4.827731847763061523e-02,1.830144971609115601e-02,3.542054817080497742e-02,-6.513960659503936768e-03,3.605708479881286621e-02,-5.006306804716587067e-03,-2.068931935355067253e-03,-4.801838845014572144e-02,-4.772752150893211365e-02,-4.551551491022109985e-02,3.340338170528411865e-02,-6.188146024942398071e-02,-7.551960647106170654e-03,-2.200970047852024436e-04,4.804345592856407166e-02,-3.432133793830871582e-02,3.234404325485229492e-02,-6.717657297849655151e-02,-2.949040196835994720e-02,-1.998062431812286377e-02,4.661239683628082275e-03,1.401858031749725342e-02,3.068521618843078613e-02,-3.512410447001457214e-02,-4.750014096498489380e-02,3.509074449539184570e-04,3.677444159984588623e-02,-1.279242243617773056e-02,1.011532358825206757e-02,-8.610524237155914307e-02,1.839137077331542969e-02,-3.168193250894546509e-02,4.242693632841110229e-02,-3.213251754641532898e-02,5.418932437896728516e-02,4.879785329103469849e-02,-4.967814311385154724e-02,-7.002879679203033447e-02,-2.694271504878997803e-02,-8.053844422101974487e-02,-1.209817826747894287e-02,-7.543284446001052856e-02,6.757993996143341064e-02,-2.062102779746055603e-02,-7.303830236196517944e-02,-7.298694923520088196e-03,-9.925948455929756165e-03,6.384074687957763672e-03,4.653644934296607971e-02,6.498736888170242310e-02,6.662040948867797852e-03,-7.921024411916732788e-02,2.042617648839950562e-02,-2.470749244093894958e-02,-7.057858258485794067e-02,4.464627802371978760e-02,-4.154377803206443787e-02,6.392702460289001465e-03,-6.073756888508796692e-02,2.158609777688980103e-02,9.665139019489288330e-03,-6.903912127017974854e-02,-9.658785909414291382e-02,5.304826796054840088e-02,1.340086013078689575e-02,5.489313602447509766e-02,5.280984193086624146e-02,5.455580353736877441e-02,3.440240398049354553e-02,-1.999996230006217957e-02,-2.756845578551292419e-02,-7.165525853633880615e-02,-2.937606535851955414e-02,-7.427943497896194458e-02,-2.005955949425697327e-02
-6.397815793752670288e-02,3.643180057406425476e-02,3.044415451586246490e-02,-7.855411618947982788e-03,-1.693209074437618256e-02,-4.853943362832069397e-02,-2.806773968040943146e-02,-5.209284275770187378e-02,-6.638851016759872437e-02,4.997639451175928116e-03,-3.921971470117568970e-02,6.737171858549118042e-02,-3.666238114237785339e-02,3.499867161735892296e-03,-5.863796919584274292e-02,1.206825254485011101e-03,-2.739138901233673096e-02,-8.247838914394378662e-02,-5.542868375778198242e-02,7.299078255891799927e-02,-9.218940883874893188e-02,-3.519324585795402527e-02,3.994299098849296570e-02,-4.868789762258529663e-02,4.774320125579833984e-02,5.392792075872421265e-02,-7.488135993480682373e-02,3.514474630355834961e-02,-6.117210909724235535e-02,3.341270238161087036e-02,7.259184867143630981e-02,-3.411106765270233154e-02,3.003446571528911591e-02,9.519320726394653320e-02,-5.506838113069534302e-02,-4.654408618807792664e-02,5.144416168332099915e-02,-1.009163563139736652e-03,2.442304231226444244e-02,2.339388243854045868e-02,-1.195845473557710648e-02,3.257060796022415161e-02,5.519541352987289429e-02,-5.765512213110923767e-02,7.345547527074813843e-02,2.411881461739540100e-02,-1.788974367082118988e-02,5.111133679747581482e-02,4.842833057045936584e-02,-4.378252103924751282e-02,-1.223099138587713242e-02,-2.801037393510341644e-02,-7.715394347906112671e-02,1.672990806400775909e-02,-2.021546661853790283e-02,5.470113828778266907e-02,-4.066843166947364807e-02,-3.564602881669998169e-02,6.945551186800003052e-02,-5.462114140391349792e-02,-1.852707378566265106e-02,3.786592558026313782e-02,2.776087028905749321e-03,2.595276385545730591e-02,6.557281315326690674e-02,-5.456501245498657227e-02,-1.549576409161090851e-02,3.896247828379273415e-03,6.548158824443817139e-02,6.144227087497711182e-02,5.651967227458953857e-02,-3.129873052239418030e-02,7.212223857641220093e-02,1.312873233109712601e-02,1.230423431843519211e-02,3.683971613645553589e-02,6.418990343809127808e-02,3.833590075373649597e-02,5.073450878262519836e-02,2.993156574666500092e-02,-3.901346400380134583e-02,1.833728514611721039e-03,-3.801109641790390015e-02,-1.534781325608491898e-02,-5.280365422368049622e-02,4.455162584781646729e-02,-3.979565948247909546e-02,2.456474490463733673e-02,5.783407017588615417e-02,-2.652782201766967773e-02,6.188832223415374756e-02,-3.336178511381149292e-02,4.903358966112136841e-02,-1.682737283408641815e-02,1.989569887518882751e-02,-4.278735443949699402e-02,6.643784046173095703e-02,-5.978608503937721252e-02,-2.351263351738452911e-02,-6.226193532347679138e-02,-5.166227743029594421e-02,6.455557048320770264e-02,2.967904508113861084e-02,9.711558371782302856e-02,1.799277402460575104e-02,-4.758775234222412109e-02,-1.554871350526809692e-02,5.935265216976404190e-03,-2.812620438635349274e-02,8.746535331010818481e-02,2.647013776004314423e-02,-3.135948209092020988e-03,-5.891989916563034058e-02,6.018565222620964050e-02,1.875873096287250519e-02,-3.843580558896064758e-02,-6.349394097924232483e-03,1.436902023851871490e-02,-1.366460788995027542e-02,-7.683289051055908203e-02,7.061397284269332886e-02,4.619545862078666687e-02,-9.174621105194091797e-02,7.828404009342193604e-02,-4.672683030366897583e-02,-4.154554381966590881e-02,6.951353698968887329e-02,4.483357816934585571e-02,-5.104082822799682617e-02,5.340564250946044922e-02,4.729924723505973816e-02,-5.730824172496795654e-02,3.951452672481536865e-02,2.399868518114089966e-02,-5.166392400860786438e-02,3.573887050151824951e-02,8.745878934860229492e-03,3.795579075813293457e-02,-7.129601389169692993e-02,7.744617760181427002e-03,-1.416008621454238892e-01,-7.164128124713897705e-03,-1.053315028548240662e-02,-4.626437555998563766e-03,3.158088400959968567e-02,-2.222854644060134888e-02,3.392672166228294373e-02,1.304359734058380127e-02,-6.875244528055191040e-02,6.498287618160247803e-02,5.454337596893310547e-02,-7.163183391094207764e-02,-2.923722378909587860e-03,5.104210972785949707e-02,-3.451649472117424011e-02,-5.981073714792728424e-03,1.008240059018135071e-01,-8.625558577477931976e-03,4.392985254526138306e-02,7.072691619396209717e-02,6.672297418117523193e-02,5.711609870195388794e-02,-7.776179909706115723e-02,4.521837830543518066e-02,8.407986909151077271e-02,-3.600967675447463989e-02,-5.474725365638732910e-02,-2.683757245540618896e-02,1.282999217510223389e-01,4.069212079048156738e-02,-6.417848169803619385e-03,2.385842800140380859e-02,1.108702868223190308e-01,-2.411909401416778564e-03,4.722974449396133423e-02,3.167911246418952942e-02,-8.613690733909606934e-03,4.711738228797912598e-02,-5.598410964012145996e-02,9.138038009405136108e-02,-3.275950625538825989e-02,-5.802512168884277344e-04,6.732878088951110840e-02,-6.757501512765884399e-02,-2.051210403442382812e-02,1.668639108538627625e-02,5.533538758754730225e-02,-8.317321538925170898e-03,-1.838249340653419495e-02,1.273106504231691360e-02,-3.326452523469924927e-02,1.431443244218826294e-01
-3.845391049981117249e-02,9.425787255167961121e-03,3.721027448773384094e-02,8.573384582996368408e-02,-3.623659536242485046e-02,-1.627235859632492065e-02,3.095721453428268433e-02,-4.526367411017417908e-02,1.027145236730575562e-02,-2.515440806746482849e-02,-7.577818632125854492e-02,9.405964612960815430e-02,3.647897392511367798e-02,-2.505973912775516510e-02,3.426716849207878113e-02,-6.554555147886276245e-02,-5.622370913624763489e-02,-1.194299012422561646e-02,-5.409337580204010010e-02,-1.996595785021781921e-02,2.530577965080738068e-02,7.347930222749710083e-02,-2.556293085217475891e-02,-6.635233014822006226e-02,7.761099189519882202e-02,8.995079435408115387e-03,-1.009147148579359055e-02,3.360669687390327454e-02,-3.343772888183593750e-02,7.342938333749771118e-02,-4.844885692000389099e-02,6.006640382111072540e-03,-6.111828982830047607e-02,3.747525811195373535e-02,6.264063995331525803e-03,9.668738394975662231e-02,6.641872972249984741e-02,-2.904959581792354584e-02,4.962798580527305603e-02,-4.771422594785690308e-02,-4.040040820837020874e-02,-2.106730826199054718e-02,4.799367487430572510e-02,-6.041885539889335632e-02,-2.201633527874946594e-03,3.816802054643630981e-02,2.529937308281660080e-03,3.721641376614570618e-02,-2.433429658412933350e-02,-3.881052508950233459e-02,4.234856367111206055e-02,-6.039219722151756287e-02,3.228871151804924011e-03,4.119400680065155029e-02,-6.301177293062210083e-02,-3.780234605073928833e-02,3.837335109710693359e-02,-1.061964686959981918e-02,-4.449832811951637268e-02,5.875159054994583130e-02,1.056046225130558014e-03,5.943870637565851212e-03,-4.605282470583915710e-02,1.090388186275959015e-02,-7.932821288704872131e-03,-4.066502675414085388e-02,-5.325647071003913879e-02,-4.974625632166862488e-02,3.673516586422920227e-02,4.420821741223335266e-02,-1.967380195856094360e-02,5.578392650932073593e-03,9.707122109830379486e-03,3.531093895435333252e-02,6.777759641408920288e-02,-8.233562111854553223e-03,3.770560398697853088e-02,-4.444152116775512695e-02,5.630006268620491028e-02,-9.513830393552780151e-02,3.756958059966564178e-03,-2.118868008255958557e-02,-6.335021555423736572e-02,4.547215939965099096e-04,4.409927874803543091e-02,7.171379029750823975e-02,-2.987649850547313690e-02,-2.421018667519092560e-02,2.553141303360462189e-02,-4.621254652738571167e-02,5.952642858028411865e-02,-1.072229146957397461e-01,3.507066285237669945e-03,1.028136815875768661e-02,2.412585355341434479e-02,-3.320986405014991760e-02,6.060044839978218079e-02,7.180511602200567722e-04,8.242838829755783081e-02,2.805911749601364136e-02,6.531628966331481934e-02,-1.456571556627750397e-02,5.372652411460876465e-02,4.941838979721069336e-02,3.589996695518493652e-02,-4.389691352844238281e-02,5.709347873926162720e-02,8.023712038993835449e-02,-6.068022176623344421e-02,6.973098963499069214e-02,2.837545983493328094e-02,1.385897211730480194e-02,2.644625119864940643e-02,6.920389831066131592e-02,3.645804012194275856e-03,-5.118305236101150513e-02,8.693638443946838379e-02,2.305200323462486267e-02,2.525669056922197342e-03,-4.548970982432365417e-02,2.460648678243160248e-02,2.640845254063606262e-02,-3.611398115754127502e-02,-3.470998629927635193e-02,-1.066377162933349609e-01,-2.312680706381797791e-02,6.496784090995788574e-02,4.572997614741325378e-02,7.087290287017822266e-03,6.885863840579986572e-02,1.888148719444870949e-03,1.288011483848094940e-02,-3.604508936405181885e-02,-3.663255274295806885e-02,3.786824271082878113e-02,8.290694653987884521e-02,3.260771185159683228e-02,-6.465476751327514648e-02,-1.110513508319854736e-02,3.906335681676864624e-02,-7.499340176582336426e-02,-5.836415663361549377e-02,-4.355430603027343750e-03,-8.653487893752753735e-04,-1.619829051196575165e-02,-6.509037315845489502e-02,6.946649402379989624e-02,-5.068726837635040283e-03,-3.670171275734901428e-02,-4.378814250230789185e-02,-6.400250643491744995e-02,-1.933549717068672180e-02,3.850037232041358948e-02,1.344519667327404022e-02,-1.773221418261528015e-02,2.062646439298987389e-03,3.895247727632522583e-02,5.460010096430778503e-02,1.014995127916336060e-01,7.215304672718048096e-02,2.726585417985916138e-02,1.751904748380184174e-02,4.652988165616989136e-02,-6.775204837322235107e-02,2.276317914947867393e-03,2.428276464343070984e-03,2.830574847757816315e-02,2.437321096658706665e-02,4.673971235752105713e-02,-6.835786998271942139e-02,-6.364068388938903809e-02,-2.853326499462127686e-03,1.048820912837982178e-01,5.080518871545791626e-02,-3.942243754863739014e-02,7.873854041099548340e-02,4.595506936311721802e-02,5.863285064697265625e-02,-3.689057007431983948e-02,5.123753473162651062e-02,-2.486968785524368286e-02,2.536325156688690186e-02,4.183929413557052612e-02,-3.286004066467285156e-03,-4.639033228158950806e-02,7.898676395416259766e-02,4.749044030904769897e-02,3.765319287776947021e-02,-4.527099803090095520e-02,2.733785100281238556e-02,-2.650884725153446198e-02,1.547804027795791626e-01
2.809139341115951538e-02,2.098333090543746948e-02,3.544031083583831787e-02,-4.412910342216491699e-02,7.214029133319854736e-02,-5.492136627435684204e-02,3.742047399282455444e-02,-2.241934463381767273e-02,3.350701183080673218e-02,4.194551706314086914e-02,5.564929544925689697e-02,5.024984478950500488e-02,-3.351986408233642578e-03,-7.138032466173171997e-02,5.222968757152557373e-02,6.102643907070159912e-02,3.665508329868316650e-02,-1.091236993670463562e-02,-2.960973232984542847e-02,3.313846886157989502e-02,3.797660768032073975e-02,-5.053766071796417236e-02,-2.064682543277740479e-03,6.444637477397918701e-02,-2.716385573148727417e-02,4.891521483659744263e-02,2.827246487140655518e-02,1.938521862030029297e-03,-3.962859511375427246e-03,-4.598609358072280884e-02,-4.354017972946166992e-02,-3.911044076085090637e-02,-5.917377024888992310e-02,-2.268494293093681335e-02,6.729821860790252686e-02,-5.557933822274208069e-02,1.533932983875274658e-03,-2.606398984789848328e-02,8.933119475841522217e-03,-6.227823719382286072e-02,4.836148023605346680e-02,-4.794366657733917236e-03,-4.462277144193649292e-02,-3.016895055770874023e-02,-6.161048263311386108e-02,2.058438956737518311e-02,6.984850764274597168e-02,6.831358373165130615e-02,4.524007439613342285e-02,2.928435057401657104e-02,1.001130789518356323e-02,-2.639709785580635071e-02,6.584653258323669434e-02,-8.579269051551818848e-03,-3.100568801164627075e-02,1.857826858758926392e-02,2.926457673311233521e-02,3.403072059154510498e-02,-6.523083150386810303e-02,2.619866281747817993e-02,-5.628935992717742920e-02,-4.824196174740791321e-02,1.515830308198928833e-02,-3.712677955627441406e-02,-4.988171905279159546e-02,4.811149835586547852e-02,4.201580584049224854e-02,-4.679636657238006592e-02,7.119853794574737549e-02,-4.684600979089736938e-02,-1.341405138373374939e-02,-3.923043608665466309e-03,-3.479299321770668030e-02,-6.511893868446350098e-02,1.747541874647140503e-02,-5.223855748772621155e-02,-9.586878120899200439e-03,4.401426762342453003e-02,3.297457844018936157e-02,-5.860935524106025696e-02,-1.028275489807128906e-02,-2.286195009946823120e-02,-5.694702267646789551e-02,-3.935571014881134033e-02,5.927318334579467773e-02,-3.756285086274147034e-02,-6.460613757371902466e-02,-1.171202212572097778e-02,4.073545336723327637e-02,-1.245636865496635437e-02,-3.891319036483764648e-02,4.277179390192031860e-02,-4.723709076642990112e-02,-3.894357383251190186e-02,4.923412203788757324e-02,-7.069822400808334351e-02,2.331238985061645508e-02,2.424215525388717651e-02,-5.463627353310585022e-02,1.151978969573974609e-02,1.833281666040420532e-02,-8.428536355495452881e-03,-4.400667175650596619e-02,4.961064457893371582e-02,3.164076805114746094e-02,-2.330897375941276550e-02,1.099669188261032104e-02,-5.874311923980712891e-02,-6.181945651769638062e-02,4.980967193841934204e-02,2.793229371309280396e-02,-4.055767878890037537e-02,-5.136622488498687744e-02,1.720155775547027588e-02,2.899949252605438232e-02,-8.909694850444793701e-03,-6.304266303777694702e-02,-7.201647013425827026e-02,-3.057508170604705811e-02,6.565327942371368408e-02,5.977368354797363281e-02,2.079744637012481689e-02,-4.055347293615341187e-02,-2.444037795066833496e-02,-7.026892155408859253e-02,-4.981938377022743225e-02,5.819018185138702393e-02,6.269836425781250000e-02,-5.539275705814361572e-03,-4.758358001708984375e-03,-3.894107043743133545e-02,-5.226755142211914062e-02,5.848422646522521973e-02,-6.564001739025115967e-02,-2.160036191344261169e-02,-3.718048334121704102e-03,4.938729852437973022e-02,-2.758515253663063049e-02,5.398365855216979980e-02,-8.024461567401885986e-03,-4.007510840892791748e-02,3.066094964742660522e-02,-5.042041093111038208e-02,1.566271483898162842e-02,-2.478264644742012024e-02,-2.997130155563354492e-02,6.428508460521697998e-02,4.714114964008331299e-02,-2.361436933279037476e-02,-3.731792420148849487e-02,6.077460944652557373e-02,-4.878170043230056763e-02,3.923548012971878052e-02,3.056731820106506348e-02,2.104628831148147583e-02,6.140106916427612305e-02,-9.819731116294860840e-03,-5.405106022953987122e-02,-4.255823791027069092e-02,6.828720867633819580e-02,1.221039146184921265e-02,1.069138199090957642e-02,3.944969922304153442e-02,1.021377742290496826e-03,-5.051587894558906555e-02,2.982988208532333374e-02,3.527949750423431396e-02,4.815548658370971680e-03,-2.570863440632820129e-02,3.756422549486160278e-02,2.195418626070022583e-02,6.507816910743713379e-02,3.990902006626129150e-02,-3.780761733651161194e-02,-6.756680458784103394e-02,4.395568370819091797e-02,4.088708758354187012e-02,4.679963737726211548e-02,-1.354500651359558105e-03,-6.982798874378204346e-02,-5.332577601075172424e-02,2.282539755105972290e-02,-4.264266043901443481e-02,-2.932511270046234131e-03,1.638500392436981201e-02,-3.597758710384368896e-03,5.594326555728912354e-02,3.561400622129440308e-02,3.510027378797531128e-02,-6.306248158216476440e-02,4.493081569671630859e-02,3.480375558137893677e-02
1.244523376226425171e-02,5.514296144247055054e-02,-9.284719824790954590e-03,-1.364270132035017014e-02,-2.410701289772987366e-02,3.468491882085800171e-02,3.909587115049362183e-02,1.107414811849594116e-02,4.630237445235252380e-02,-1.717631891369819641e-02,4.386798664927482605e-02,-1.290451269596815109e-02,-6.830479949712753296e-02,-7.222277671098709106e-02,-1.409303303807973862e-02,-4.890337586402893066e-03,-8.908338844776153564e-03,2.850215137004852295e-02,-4.287791997194290161e-02,-4.487072303891181946e-02,4.248696565628051758e-02,5.206147581338882446e-02,-8.513495326042175293e-03,1.954161934554576874e-02,-3.538225963711738586e-02,5.569592490792274475e-02,-6.474047154188156128e-02,-2.729417011141777039e-02,-4.432740807533264160e-02,-6.494474411010742188e-02,-3.454811125993728638e-02,3.425319492816925049e-02,3.094627708196640015e-02,-2.893103752285242081e-03,2.979490719735622406e-02,-8.049812912940979004e-02,-4.959169030189514160e-02,6.552387028932571411e-02,4.179785028100013733e-02,-2.406823262572288513e-02,-7.646270841360092163e-02,2.032687887549400330e-03,4.300113022327423096e-02,-1.876757293939590454e-02,3.802467137575149536e-02,-7.508415728807449341e-02,6.544850766658782959e-02,4.165358096361160278e-02,-3.739463910460472107e-02,3.561832755804061890e-02,-1.443834602832794189e-02,4.090287536382675171e-02,-1.827793568372726440e-02,3.303605318069458008e-02,-7.829592563211917877e-03,-5.286619439721107483e-02,-8.364275097846984863e-02,-3.521258011460304260e-02,5.277816206216812134e-03,-7.323664426803588867e-02,2.122445963323116302e-02,-2.884036675095558167e-02,2.664609998464584351e-02,2.934064157307147980e-02,-6.622324883937835693e-02,-1.685938611626625061e-02,-4.533133283257484436e-02,-2.977686002850532532e-02,6.018139049410820007e-02,-3.605655208230018616e-02,-5.572680011391639709e-02,-6.365715712308883667e-02,-1.539524272084236145e-02,4.044768214225769043e-02,6.323696672916412354e-02,1.655895262956619263e-02,-1.713266223669052124e-02,6.326351314783096313e-02,-2.363616367802023888e-04,4.823499917984008789e-02,1.700008404441177845e-03,2.348419092595577240e-02,-5.719878524541854858e-02,6.510612368583679199e-02,-1.911905221641063690e-02,-6.754686683416366577e-02,3.499995917081832886e-02,2.376432064920663834e-03,5.938285589218139648e-02,-1.867772312834858894e-03,-5.354501307010650635e-02,5.405181646347045898e-02,-1.128674950450658798e-03,-5.008133128285408020e-02,2.662124112248420715e-02,-7.823553681373596191e-02,-1.189818605780601501e-02,4.945001751184463501e-02,1.355146639980375767e-03,-5.164456740021705627e-02,2.068635448813438416e-02,5.848405417054891586e-03,-6.444598548114299774e-03,5.598976463079452515e-02,-4.432789981365203857e-02,4.769433289766311646e-02,-6.879992038011550903e-02,-4.866902902722358704e-02,-5.221313983201980591e-02,4.976608604192733765e-02,-5.154186114668846130e-02,6.139384210109710693e-02,2.348154783248901367e-02,-7.927855849266052246e-02,-5.962408706545829773e-02,1.898124068975448608e-02,1.120979618281126022e-02,-2.158545330166816711e-02,4.611144959926605225e-02,3.863441571593284607e-02,4.813764616847038269e-02,-6.088348850607872009e-02,-2.294277399778366089e-02,-4.481263924390077591e-03,-1.677595078945159912e-02,-3.098588902503252029e-03,-4.641631618142127991e-02,-6.166150048375129700e-02,-2.285815030336380005e-02,-1.344246417284011841e-02,2.051774039864540100e-02,-9.924810146912932396e-04,5.642525851726531982e-02,4.630400240421295166e-02,-1.741687022149562836e-02,2.784068137407302856e-02,-2.040214836597442627e-03,-6.219904497265815735e-02,4.471413791179656982e-03,-1.660104840993881226e-02,3.852066397666931152e-02,3.638997673988342285e-02,-1.499108225107192993e-02,6.580001860857009888e-02,-1.620388403534889221e-02,5.127802863717079163e-02,4.440249502658843994e-02,-5.790619924664497375e-02,2.329356968402862549e-03,1.024553924798965454e-02,-5.350575596094131470e-02,6.733354926109313965e-02,-5.127928406000137329e-02,-1.374195422977209091e-02,-4.521357268095016479e-02,-2.897818014025688171e-02,-1.773822121322154999e-02,-7.820393890142440796e-02,-2.436407655477523804e-02,5.319073796272277832e-03,9.123906493186950684e-04,-1.856201328337192535e-02,-3.326283022761344910e-02,-4.354888573288917542e-02,-6.353104859590530396e-02,-5.909064784646034241e-02,-2.728799916803836823e-02,1.367782056331634521e-02,5.932218953967094421e-02,4.298599809408187866e-02,-5.151408165693283081e-02,1.771429926156997681e-02,2.887958101928234100e-02,6.505639851093292236e-02,-1.233101263642311096e-02,-6.497789919376373291e-02,2.051917463541030884e-02,-7.153109461069107056e-02,4.784397780895233154e-02,2.801340818405151367e-02,1.997402310371398926e-02,6.061644852161407471e-02,-5.776092782616615295e-02,-6.522192806005477905e-02,-3.203780204057693481e-02,7.452936843037605286e-03,4.486852884292602539e-02,6.669315695762634277e-02,6.107021868228912354e-02,-2.585276216268539429e-02,-7.344163209199905396e-02,-1.370195299386978149e-02
1.033150870352983475e-02,2.558331750333309174e-02,-3.825370967388153076e-02,-3.280690684914588928e-02,2.618099795654416084e-03,-1.527415239252150059e-03,-3.292857110500335693e-02,4.301111772656440735e-02,1.063989195972681046e-02,4.182174801826477051e-02,-1.258861273527145386e-02,6.199123337864875793e-02,-4.149895906448364258e-02,-5.973759666085243225e-02,3.497248142957687378e-02,-7.838563621044158936e-02,-1.266194786876440048e-02,-2.220897190272808075e-02,-5.325150117278099060e-02,4.148593917489051819e-02,-7.358250021934509277e-02,1.393858157098293304e-02,2.096403576433658600e-02,-3.533396869897842407e-02,3.061659075319766998e-02,7.813035696744918823e-02,-1.884998567402362823e-02,3.951358050107955933e-02,2.448177151381969452e-02,-3.928497806191444397e-02,-5.948708276264369488e-04,8.314932137727737427e-02,-6.228543072938919067e-02,4.266323149204254150e-02,-1.633104681968688965e-02,8.185031265020370483e-02,4.864652454853057861e-02,4.342453181743621826e-02,-2.242067456245422363e-02,8.178131654858589172e-03,-2.832113392651081085e-02,8.100377768278121948e-02,-3.826349228620529175e-02,-5.249801650643348694e-02,7.042553275823593140e-02,-5.760820955038070679e-02,-3.575654700398445129e-02,3.573049977421760559e-02,-3.157353773713111877e-02,-1.191140152513980865e-02,3.565099462866783142e-02,-4.338272288441658020e-02,1.736245490610599518e-02,-5.579767376184463501e-02,-7.524497061967849731e-02,-2.963458746671676636e-02,-1.565559208393096924e-02,-1.228677574545145035e-03,4.907006770372390747e-02,-2.312957309186458588e-02,1.038652565330266953e-02,-6.647153291851282120e-03,-1.071192510426044464e-02,4.108453914523124695e-02,3.674271702766418457e-02,7.968349009752273560e-02,4.351811483502388000e-02,5.375014152377843857e-03,-5.063583701848983765e-02,-4.402798414230346680e-02,3.059502132236957550e-02,-1.516041345894336700e-02,4.693830013275146484e-02,-8.086928725242614746e-02,-1.489196624606847763e-02,3.397178277373313904e-02,4.232647269964218140e-02,3.722598403692245483e-02,1.432689577341079712e-01,-8.003619313240051270e-02,-5.799741297960281372e-02,2.792777679860591888e-02,-3.849299624562263489e-02,-2.325150743126869202e-02,-7.923866622149944305e-03,1.814555563032627106e-02,-5.831259116530418396e-02,-4.480734001845121384e-03,5.071338266134262085e-02,1.455294340848922729e-02,5.029349029064178467e-02,-1.142263561487197876e-01,-1.019843947142362595e-02,-4.251605644822120667e-02,3.093541972339153290e-02,1.996317878365516663e-02,-7.215211540460586548e-02,-6.367955356836318970e-02,-9.259564802050590515e-03,3.761378675699234009e-02,-4.991731047630310059e-02,3.297986835241317749e-02,-1.593688875436782837e-02,7.009039819240570068e-02,6.719203665852546692e-04,7.947047799825668335e-02,1.335122715681791306e-02,8.685602992773056030e-02,-2.870871126651763916e-02,-4.164188355207443237e-02,3.371554613113403320e-02,6.562785804271697998e-02,-6.690333038568496704e-02,5.682892724871635437e-02,-1.233020302606746554e-04,-9.336901456117630005e-02,5.161390826106071472e-02,2.303127013146877289e-02,5.667391419410705566e-02,-8.587975054979324341e-02,3.311249986290931702e-02,3.297761082649230957e-02,-5.087439343333244324e-02,1.566647551953792572e-02,-8.417474478483200073e-02,1.235299371182918549e-02,-6.931885331869125366e-02,6.694891490042209625e-03,-1.322876289486885071e-02,-5.746021121740341187e-02,1.531926076859235764e-02,3.778504580259323120e-02,6.482231430709362030e-03,3.903716057538986206e-02,-6.985853891819715500e-03,2.077353745698928833e-02,-4.100016504526138306e-02,-4.040896892547607422e-04,-1.492783427238464355e-03,4.988874495029449463e-02,-1.070033982396125793e-01,-3.974981606006622314e-02,3.591877222061157227e-02,-8.264905773103237152e-03,2.504049101844429970e-03,-5.266949906945228577e-02,-5.344329401850700378e-02,-4.754883050918579102e-02,7.291205227375030518e-03,-6.297100335359573364e-02,2.348036319017410278e-02,-6.543674319982528687e-02,-1.346436701714992523e-02,4.645011574029922485e-02,3.919354826211929321e-02,-1.220661029219627380e-02,6.751675158739089966e-02,-7.814279757440090179e-03,5.616984143853187561e-02,-3.887091204524040222e-02,-4.134088754653930664e-02,1.113697141408920288e-01,-2.388140559196472168e-02,-3.579986095428466797e-02,7.165671885013580322e-02,1.305643375962972641e-02,-4.836458340287208557e-02,8.494481444358825684e-03,8.916508406400680542e-02,-6.390164047479629517e-02,6.485563516616821289e-02,3.917624801397323608e-02,6.068936362862586975e-02,-6.297924369573593140e-02,-4.001433774828910828e-02,2.321886271238327026e-02,2.294174581766128540e-02,4.739783704280853271e-03,1.992735266685485840e-02,8.927097171545028687e-02,-5.325866490602493286e-02,9.578630328178405762e-03,1.114173233509063721e-02,5.544871091842651367e-04,-5.055748671293258667e-02,2.689244924113154411e-03,4.692116379737854004e-02,4.405021667480468750e-02,3.860848397016525269e-02,4.802975337952375412e-03,1.625331118702888489e-02,6.625066697597503662e-02
4.797311127185821533e-02,-3.252391889691352844e-02,-5.751281976699829102e-02,-5.442948266863822937e-02,-6.204732879996299744e-02,6.335310637950897217e-02,5.877719447016716003e-02,-2.903080731630325317e-02,-1.327426987700164318e-03,1.874267309904098511e-02,1.493227016180753708e-02,-6.455539725720882416e-03,4.756120592355728149e-02,4.827937483787536621e-02,4.982780292630195618e-02,5.158860981464385986e-02,1.102708280086517334e-02,-1.095559448003768921e-02,3.841911628842353821e-02,-4.013396427035331726e-02,3.942547366023063660e-02,1.268038339912891388e-02,-1.919937506318092346e-02,-2.535897679626941681e-02,-2.994585409760475159e-02,-3.958911448717117310e-02,5.220918729901313782e-02,4.519546777009963989e-02,-4.140462353825569153e-02,3.575873374938964844e-02,-5.889197811484336853e-02,2.469226904213428497e-02,-7.687549293041229248e-02,5.903117731213569641e-02,1.629636972211301327e-03,-4.577777534723281860e-02,3.670234233140945435e-02,1.738949492573738098e-02,4.758985340595245361e-02,-1.742992550134658813e-02,-1.577631011605262756e-02,-1.951513625681400299e-02,-6.913649290800094604e-02,-6.584406644105911255e-02,-6.288700550794601440e-02,3.672437742352485657e-02,-2.038483321666717529e-02,1.531914621591567993e-02,-6.243935972452163696e-02,-5.810614675283432007e-02,2.837866358458995819e-02,-3.254047408699989319e-02,2.396073378622531891e-02,-3.785395994782447815e-02,2.518620528280735016e-02,1.378779951483011246e-02,-3.273504972457885742e-02,-4.795693978667259216e-02,-7.329895347356796265e-02,2.996274642646312714e-02,-5.788127705454826355e-02,-3.615259006619453430e-02,4.002287052571773529e-03,-5.053130909800529480e-02,-3.824454918503761292e-02,-5.162981525063514709e-02,1.281386800110340118e-02,-2.940909191966056824e-02,-1.342593878507614136e-02,-1.723566278815269470e-02,3.140019252896308899e-02,-4.867175593972206116e-02,-2.213760465383529663e-02,2.026265859603881836e-02,-6.709727644920349121e-02,-5.069672688841819763e-02,-2.953613549470901489e-02,1.689775101840496063e-02,-1.002931687980890274e-02,-5.809842795133590698e-02,3.798360005021095276e-02,6.592197716236114502e-02,2.362584508955478668e-02,2.106918953359127045e-02,2.697018906474113464e-02,5.649258196353912354e-02,-4.655037820339202881e-02,4.409512877464294434e-02,-3.155472874641418457e-02,9.843750856816768646e-03,-4.659519344568252563e-02,-4.480639100074768066e-02,5.777889490127563477e-02,2.362092584371566772e-02,-6.230000406503677368e-02,-6.891744583845138550e-02,6.952086091041564941e-02,5.397785454988479614e-02,-5.446555558592081070e-03,-6.108271703124046326e-02,4.624404013156890869e-02,-6.077510491013526917e-02,-1.147313788533210754e-02,4.007761552929878235e-02,-1.198280975222587585e-02,-6.079889088869094849e-02,-3.131887316703796387e-02,-4.843218624591827393e-02,4.135664552450180054e-02,5.118162557482719421e-02,2.370988950133323669e-02,1.344518363475799561e-02,-6.461670249700546265e-02,4.872255772352218628e-02,-6.701159477233886719e-02,-5.307026207447052002e-02,-6.724262237548828125e-02,-1.227685436606407166e-02,-5.628298223018646240e-02,2.359099686145782471e-02,-6.000366806983947754e-02,1.907609403133392334e-03,1.849857973866164684e-03,-4.585900902748107910e-02,-6.880260258913040161e-02,3.319509327411651611e-02,-3.755126893520355225e-02,-1.060541719198226929e-02,-5.440375581383705139e-02,-1.841927319765090942e-02,3.431202098727226257e-02,3.876961767673492432e-02,-7.733560353517532349e-02,1.572214066982269287e-03,-1.044834591448307037e-02,-5.138800665736198425e-02,1.101325452327728271e-02,-3.245477378368377686e-02,6.090593338012695312e-02,4.629873484373092651e-02,-5.414519831538200378e-02,-1.876487955451011658e-02,-1.559510827064514160e-03,-6.788602471351623535e-02,-1.408339943736791611e-02,-1.090973764657974243e-01,-2.966543659567832947e-02,4.664397239685058594e-02,-2.204795181751251221e-02,-2.742918580770492554e-02,5.614167451858520508e-02,-1.347344741225242615e-02,-2.284839004278182983e-02,-3.809944912791252136e-02,-2.934078872203826904e-02,2.305101603269577026e-02,5.379747017286717892e-04,-4.858518019318580627e-02,-5.317737348377704620e-03,3.434011340141296387e-02,-4.164081066846847534e-02,-1.746796630322933197e-02,-5.929453298449516296e-02,-7.831367850303649902e-02,-4.732472077012062073e-02,3.303088992834091187e-02,1.647982746362686157e-02,-7.178346067667007446e-02,-1.040587946772575378e-02,-7.089088857173919678e-02,-4.280716180801391602e-03,-4.321283847093582153e-02,-4.221549630165100098e-02,-4.002402350306510925e-02,-3.794349730014801025e-03,2.020884118974208832e-02,-5.577445775270462036e-02,4.907123744487762451e-03,1.291670650243759155e-02,-6.257780641317367554e-02,2.962803095579147339e-02,5.785690248012542725e-02,-3.445616737008094788e-02,-2.513683959841728210e-02,4.224785417318344116e-02,-3.532545641064643860e-02,3.189539164304733276e-02,-3.438011556863784790e-02,2.681063860654830933e-02,-4.329077526926994324e-02,-7.311621308326721191e-02,-3.024758026003837585e-02
