2.043783664703369141e-03,7.531944662332534790e-03,4.019960761070251465e-05,2.386938408017158508e-02,-3.029665537178516388e-02,-2.556175738573074341e-02,-3.134394064545631409e-02,2.186126261949539185e-02,5.910731852054595947e-03,-8.211979642510414124e-03,1.425355672836303711e-02,2.317422628402709961e-02,-6.562191992998123169e-04,-1.235162094235420227e-02,1.142654567956924438e-02,-2.011643350124359131e-02,1.639079675078392029e-02,-2.588060311973094940e-02,-1.043976098299026489e-02,-1.657502166926860809e-02,1.031834259629249573e-02,2.998809516429901123e-02,5.913261324167251587e-03,-2.237960323691368103e-02,1.521671190857887268e-02,-2.501066774129867554e-02,1.972958445549011230e-02,2.816314995288848877e-02,1.423278823494911194e-02,2.955036610364913940e-02,3.725919872522354126e-03,-1.775262877345085144e-02,2.558765932917594910e-02,1.291124522686004639e-02,-6.733844056725502014e-03,-2.857558988034725189e-02,-2.474639378488063812e-02,1.914401352405548096e-02,-1.104819960892200470e-02,2.314683049917221069e-02,3.678314387798309326e-03,-9.455624967813491821e-03,1.077088341116905212e-02,-2.049909345805644989e-02,-2.761198021471500397e-02,-2.064597420394420624e-02,-1.772866398096084595e-02,-1.911572739481925964e-02,-3.148328512907028198e-02,-2.285298705101013184e-02,2.487409859895706177e-03,-9.213330224156379700e-03,1.053329929709434509e-02,-2.432538382709026337e-02,1.246268674731254578e-02,2.470016106963157654e-02,-1.257178001105785370e-02,2.380196005105972290e-02,1.107027009129524231e-02,3.153594583272933960e-02,-1.648940704762935638e-02,-2.682667411863803864e-02,-1.950258016586303711e-02,2.263601496815681458e-02,1.337388530373573303e-02,9.032193571329116821e-03,-2.166815847158432007e-02,-2.654410153627395630e-02,-1.202058978378772736e-02,1.669562235474586487e-02,-2.536903694272041321e-02,-1.372884213924407959e-02,-2.326535806059837341e-02,-2.870049700140953064e-02,-1.314957812428474426e-02,1.616752892732620239e-02,1.495975255966186523e-02,-3.063570521771907806e-02,1.318999752402305603e-02,-1.153698563575744629e-02,-3.025703318417072296e-02,3.157144784927368164e-02,1.587502658367156982e-02,9.936142712831497192e-03,-2.325223945081233978e-02,-2.204668149352073669e-02,-1.306789554655551910e-02,6.837546825408935547e-04,-1.675674691796302795e-03,2.609620243310928345e-02,-1.114735566079616547e-02,-1.293511874973773956e-02,1.726448908448219299e-02,-3.179626539349555969e-03,2.938939630985260010e-02,2.762638404965400696e-02,-2.739472314715385437e-03,3.124600648880004883e-02,-2.207385003566741943e-02,-1.093877479434013367e-03,1.953654363751411438e-02,-2.490751259028911591e-02,-3.549270331859588623e-04,-2.979443781077861786e-02,-2.385043166577816010e-02,-6.766119971871376038e-03,3.178924322128295898e-03,1.719757169485092163e-02,-1.912681385874748230e-02,-2.556647174060344696e-02,-1.146825216710567474e-02,7.060799747705459595e-03,1.108575984835624695e-02,-1.906456053256988525e-02,1.008576527237892151e-02,7.174812257289886475e-03,-2.054542303085327148e-02,1.194533705711364746e-02,1.524042338132858276e-03,8.843384683132171631e-03,-4.446199163794517517e-03,-2.101133950054645538e-02,-5.676906555891036987e-03,2.650960907340049744e-02,-2.120929956436157227e-02,-2.587470412254333496e-02,1.969339698553085327e-02,-1.485483348369598389e-02,8.218526840209960938e-03,-1.629455760121345520e-02,9.540170431137084961e-03,9.152729064226150513e-03,8.473467081785202026e-03,1.597835123538970947e-02,-1.763813197612762451e-04,3.104243427515029907e-03,-1.461397856473922729e-02,-3.425130620598793030e-03,-2.123077958822250366e-02,1.529290154576301575e-02,-1.665519550442695618e-02,1.669556647539138794e-02,-3.076694160699844360e-02,6.136670708656311035e-05,2.224178612232208252e-02,1.003455370664596558e-03,-2.063883095979690552e-02,1.026588305830955505e-02,1.751217246055603027e-02,1.974672079086303711e-02,-2.148023620247840881e-02,-1.890161074697971344e-02,2.433995902538299561e-02,1.560328155755996704e-02,3.074482828378677368e-02,1.712741330265998840e-02,-4.324931651353836060e-04,2.225293964147567749e-02,4.406880587339401245e-03,-2.315395884215831757e-02,-3.560999408364295959e-03,1.055716723203659058e-02,8.819121867418289185e-03,1.604690775275230408e-02,-2.559596672654151917e-03,2.473555132746696472e-02,1.144470274448394775e-02,1.116625964641571045e-03,-2.997188642621040344e-02,1.921673491597175598e-02,-2.762734144926071167e-02,-2.391629293560981750e-02,-8.818004280328750610e-04,-1.585960201919078827e-02,2.363533899188041687e-02,2.395458519458770752e-02,5.706712603569030762e-03,1.322236284613609314e-02,-1.323169842362403870e-02,-9.385816752910614014e-03,1.259564608335494995e-02,1.963342353701591492e-02,-3.231750801205635071e-03,-1.929659210145473480e-02,-2.209316566586494446e-02,-2.296226844191551208e-02,-2.131862938404083252e-02,-1.661066710948944092e-02,-2.183336019515991211e-02,-4.730986431241035461e-03,2.889132499694824219e-02,5.629211664199829102e-04,-3.038447163999080658e-02,2.720125764608383179e-02,7.717639207839965820e-03,-3.482418134808540344e-03,2.366900071501731873e-02,-1.205405220389366150e-03,-1.005987450480461121e-02,-2.133537083864212036e-02,6.662495434284210205e-03,-6.918439641594886780e-03,-3.023149631917476654e-02,-2.692176401615142822e-02,1.051720976829528809e-02,5.801655352115631104e-04,3.100161999464035034e-02,2.607836201786994934e-02,-4.286913201212882996e-03,-2.589512616395950317e-03,-2.712313272058963776e-02,-6.970560178160667419e-03,1.958574354648590088e-02,8.262623101472854614e-03,-5.162289366126060486e-03,-2.821363881230354309e-02,-2.569204196333885193e-02,-2.629919350147247314e-02,4.115622490644454956e-03,1.941954344511032104e-02,-6.561389192938804626e-03,-2.524676546454429626e-02,-2.819290570914745331e-02,7.923237979412078857e-03,-2.052358910441398621e-02,-2.990164794027805328e-02,1.779237389564514160e-02,2.632639929652214050e-02,-2.369944751262664795e-02,-5.349727347493171692e-03,3.074166178703308105e-02,-3.073404543101787567e-02,3.026723861694335938e-02,1.349239051342010498e-02,-1.605904102325439453e-02,2.436031773686408997e-02,-1.148490421473979950e-02,3.112401813268661499e-03,-2.865629643201828003e-02,3.028817847371101379e-02,3.161633759737014771e-02,-3.088814578950405121e-02,1.415398344397544861e-02,-2.699356712400913239e-02,1.818731427192687988e-02,-2.371581830084323883e-02,-2.965847402811050415e-02,-1.857294328510761261e-02,2.439670264720916748e-02,2.422615885734558105e-03,2.447909489274024963e-02,-1.901057548820972443e-02,2.975665032863616943e-03,8.590977638959884644e-03,-1.432108506560325623e-02,-2.464655786752700806e-02,-2.089431509375572205e-03,-9.117031469941139221e-03,-7.577663287520408630e-03,5.610637366771697998e-03,1.318648084998130798e-02,-3.050454147160053253e-02,-1.979687996208667755e-02,-1.139959879219532013e-02,-1.954248920083045959e-02,1.777454093098640442e-02,1.751093938946723938e-02,-2.734159305691719055e-02,9.986761957406997681e-03,-1.703537628054618835e-02,4.056321457028388977e-03,-1.373594440519809723e-02,-2.051515877246856689e-02,-2.544841170310974121e-02,-1.832520239986479282e-03,-3.521125763654708862e-02,-2.313107624650001526e-02,-1.737216487526893616e-02,-1.832087291404604912e-03,-1.654507964849472046e-02,-1.477368175983428955e-03,-2.453541755676269531e-02,1.709042862057685852e-02,4.953457973897457123e-03,-1.400437299162149429e-02,-1.137429731898009777e-03,-1.211203925777226686e-04,-2.070543542504310608e-02,1.725126616656780243e-02,1.630418188869953156e-02,9.266954846680164337e-03,-2.294873818755149841e-02,-7.165983784943819046e-03,3.901628369931131601e-04,-3.416335210204124451e-02,1.853142678737640381e-02,-3.090499341487884521e-02,-6.885827053338289261e-03,-5.725230555981397629e-03,-3.582862764596939087e-02,8.975552394986152649e-03,-1.400556229054927826e-02,1.606739684939384460e-02,-1.152128446847200394e-02,9.570844471454620361e-03,1.761946454644203186e-02,-1.973303034901618958e-02,1.773372176103293896e-03,3.544319886714220047e-03,6.466625491157174110e-04,2.595444396138191223e-02,2.219352498650550842e-02,-1.598016172647476196e-02,2.904016990214586258e-03,-5.052978172898292542e-03,1.767510548233985901e-02,-2.065528929233551025e-02,-1.191620063036680222e-02,-3.438990190625190735e-02,1.322632096707820892e-02,1.178931677713990211e-03,4.223894327878952026e-03,-1.076903287321329117e-02,2.060454338788986206e-02,1.615444943308830261e-02,1.591184362769126892e-02,-1.522970944643020630e-02,-2.283738926053047180e-02,-2.458721771836280823e-02,-7.779161445796489716e-03,-1.488487515598535538e-02,-1.495805941522121429e-02,-2.348973415791988373e-02,1.362516824156045914e-02,-2.812012284994125366e-02,1.719854399561882019e-02,-3.062750026583671570e-02,2.098578400909900665e-02,1.606970094144344330e-02,-1.915857009589672089e-02,-3.481153771281242371e-02,5.736313294619321823e-03,-6.733500398695468903e-03,1.841820921981707215e-04,6.301360204815864563e-03,1.194165088236331940e-02,2.336963079869747162e-02,-1.012195274233818054e-02,7.170369382947683334e-03,7.998349145054817200e-03,-2.412388287484645844e-02,-2.591574192047119141e-02,-6.195649970322847366e-03,1.148561760783195496e-02,8.239028975367546082e-03,-3.389632329344749451e-02,1.381567027419805527e-02,1.695798896253108978e-02,-3.023802302777767181e-03,-2.268038922920823097e-03,1.048506330698728561e-02,6.625676527619361877e-03,-2.897042781114578247e-03,1.416176278144121170e-02,-1.182992011308670044e-02,4.051118623465299606e-03,1.321333553642034531e-02,7.851117406971752644e-04,-1.940319500863552094e-02,5.132416728883981705e-03,2.006839215755462646e-02,8.965506218373775482e-03,2.445182017982006073e-02,1.832976937294006348e-02,6.069849710911512375e-03,-2.987342700362205505e-02,-1.626788056455552578e-03,9.370047599077224731e-03,1.747194491326808929e-02,-1.748592406511306763e-02,-2.548616193234920502e-02,-4.342026542872190475e-03,-2.685640065465122461e-04,-7.447183597832918167e-03,8.526301942765712738e-03,-5.720802117139101028e-03,-3.156073018908500671e-02,-2.820309251546859741e-02,1.698763854801654816e-02,5.776957143098115921e-03,1.148074772208929062e-02,-1.210766751319169998e-02,1.439676433801651001e-02,-1.126094837673008442e-03,9.096128051169216633e-04,-1.029434427618980408e-02,2.537410520017147064e-02,1.368182431906461716e-02,-4.365045111626386642e-03,-8.439929224550724030e-03,-1.422913162969052792e-03,-2.105636708438396454e-02,1.069681439548730850e-02,1.907161809504032135e-02,-1.934033259749412537e-02,2.598205953836441040e-02,-1.507415901869535446e-02,-1.924914307892322540e-02,1.586156152188777924e-02,-1.087886374443769455e-02,-2.838621288537979126e-02,-1.383081777021288872e-03,-7.532992865890264511e-03,-1.506444346159696579e-02,-2.233361452817916870e-02,2.456631325185298920e-02,-2.598235756158828735e-02,-2.487127296626567841e-02,-2.409541048109531403e-02,2.589924819767475128e-02,1.263534370809793472e-02,-3.347535431385040283e-02,8.638865314424037933e-03,1.015465892851352692e-02,1.744424551725387573e-02,2.551719918847084045e-02,2.588499896228313446e-02,-3.451589122414588928e-02,1.883178204298019409e-02,-8.073317818343639374e-03,1.387331727892160416e-02,1.093543716706335545e-03,-2.487307356204837561e-04,-1.692480593919754028e-02,2.489682286977767944e-02,2.511158958077430725e-02,-3.088316321372985840e-02,4.086915869265794754e-03,-1.037845481187105179e-02,-2.640639059245586395e-02,-2.479588612914085388e-02,-1.768056116998195648e-02,2.034164406359195709e-02,-2.988981641829013824e-02,7.810601964592933655e-03,1.715310849249362946e-02,-4.055573605000972748e-03,1.242247689515352249e-02,-2.155271172523498535e-02,-3.018008172512054443e-02,1.424408238381147385e-02,-1.798896491527557373e-02,1.595281250774860382e-02,2.531409822404384613e-02,-1.445508678443729877e-03,-9.978584945201873779e-03,-3.142038360238075256e-02,2.228069119155406952e-03,-2.629783749580383301e-02,-8.121903054416179657e-03,-1.665197312831878662e-02,-2.130500972270965576e-02,-1.591875962913036346e-02,2.389798685908317566e-02,-2.817330323159694672e-02,-2.699549123644828796e-02,9.141351096332073212e-03,-3.254501149058341980e-02,7.614219561219215393e-03,-1.493184827268123627e-02,-2.862236090004444122e-02,-2.019431069493293762e-02,1.755404099822044373e-02,2.187448181211948395e-02,-3.345272690057754517e-02,-1.222220994532108307e-02,1.984319835901260376e-02,5.619591567665338516e-03,5.996821448206901550e-03,-6.405418738722801208e-03,-2.569217048585414886e-02,-9.951047599315643311e-03,4.636867437511682510e-03,-4.596614278852939606e-03,-1.791032031178474426e-02,2.440536767244338989e-02,-2.759928442537784576e-02,-2.332846447825431824e-02,-8.813614957034587860e-03,1.859741634689271450e-03,-2.011134475469589233e-02,-2.021300233900547028e-02,-1.715439371764659882e-02,2.431276813149452209e-02,9.685385521152056754e-06,-3.049667924642562866e-02,3.925091587007045746e-03,-1.974154077470302582e-02,-1.221410930156707764e-02,1.554396562278270721e-02,2.048298344016075134e-02,-3.244570270180702209e-02,-2.395236492156982422e-02,-1.243852172046899796e-02,7.665296550840139389e-03,-2.391064353287220001e-02,-1.972749643027782440e-02,2.058960497379302979e-02,-2.362152328714728355e-03,-1.927079260349273682e-02,2.053071558475494385e-02,-1.341992430388927460e-02,-1.827082131057977676e-03,-3.143099322915077209e-02,4.673410672694444656e-03,5.828846246004104614e-03,2.588029019534587860e-02,-2.056179568171501160e-02,3.782529151067137718e-03,-3.337530419230461121e-02,-2.047430910170078278e-02,-1.506578177213668823e-02,1.920250430703163147e-02,-2.631500363349914551e-02,1.300932466983795166e-02,-4.518148954957723618e-03,-9.029166772961616516e-03,-1.093021593987941742e-03,-1.647609286010265350e-02,-1.976964809000492096e-02,-2.411421155557036400e-03,4.070896655321121216e-03,-2.762740850448608398e-02,-1.216288376599550247e-02,-2.458077296614646912e-02,1.896471157670021057e-02,4.493555985391139984e-03,-3.267860785126686096e-02,1.112616993486881256e-02,-1.813527382910251617e-02,-1.025311090052127838e-02,-2.136940509080886841e-02,-1.100097689777612686e-02,1.057523768395185471e-02,7.520201615989208221e-03,-6.785269943065941334e-04,-1.187006570398807526e-02,3.499979386106133461e-03,-2.158897742629051208e-02,1.915863598696887493e-03,-2.035005949437618256e-02,1.407652162015438080e-02,4.701053258031606674e-03,8.160835132002830505e-04,-5.965421441942453384e-04,6.256083725020289421e-05,-2.051687985658645630e-02,-1.089585013687610626e-02,-3.504320979118347168e-02,-2.388440445065498352e-02,6.619478110224008560e-03,7.739237044006586075e-03,-3.432473540306091309e-02,-2.253845101222395897e-03,-3.491261228919029236e-02,-3.520314022898674011e-02,-9.039894677698612213e-03,4.688684828579425812e-03,-3.456326946616172791e-02,7.761976681649684906e-03,-1.217846572399139404e-02,-3.006308712065219879e-02,-1.969218952581286430e-03,-7.621291093528270721e-03,-2.583254687488079071e-02,1.696468889713287354e-02,5.652276799082756042e-03,-2.386862970888614655e-02,-2.938068006187677383e-03,3.857211442664265633e-03,-2.590931393206119537e-02,1.222037989646196365e-02,-7.442702539265155792e-03,8.206587284803390503e-03,6.843741051852703094e-03,-3.324119746685028076e-02,2.532265894114971161e-02,-2.799294330179691315e-02,8.770438842475414276e-03,-2.901959232985973358e-02,-3.022022917866706848e-02,-1.729905232787132263e-02,2.419970370829105377e-02,-2.964567393064498901e-03,1.041637081652879715e-02,-3.482088446617126465e-02,1.528501603752374649e-02,2.650551497936248779e-03,2.041458152234554291e-02,3.629408543929457664e-03,1.335480436682701111e-02,-1.803065836429595947e-02,-3.432071581482887268e-02,4.973229952156543732e-03,-9.992463514208793640e-03,-3.330852091312408447e-02,-3.690105304121971130e-02,-2.394294179975986481e-02,4.950162954628467560e-03,-3.629387170076370239e-02,-3.661231324076652527e-02,-3.493447229266166687e-02,2.551567181944847107e-02,1.784503087401390076e-02,-2.854548208415508270e-02,-2.575792372226715088e-02,1.617180183529853821e-02,-2.434800378978252411e-02,1.991375721991062164e-02,-1.539045851677656174e-02,8.560615591704845428e-03,1.405928982421755791e-03,1.235927268862724304e-02,2.512264251708984375e-02,8.885672315955162048e-03,1.138078328222036362e-02,1.413012202829122543e-02,-3.452983126044273376e-02,5.515355616807937622e-03,2.896137535572052002e-03,1.697624847292900085e-02,2.223099954426288605e-02,1.348487474024295807e-02,1.909871026873588562e-02,-8.485399186611175537e-03,-2.441607043147087097e-02,-2.476859651505947113e-02,-3.176200669258832932e-03,-1.089575141668319702e-02,-6.250136648304760456e-04,-6.751078180968761444e-03,5.278422497212886810e-03,-1.399980206042528152e-02,-6.439612247049808502e-03,-5.772003903985023499e-03,1.217638608068227768e-02,-2.991697378456592560e-02,-2.492397837340831757e-02,-1.566696912050247192e-02,-2.841392159461975098e-02,7.548486348241567612e-03,3.110353136435151100e-03,1.054663397371768951e-02,-2.894352003931999207e-02,1.341385673731565475e-02,-1.776251383125782013e-02,7.854091003537178040e-03,-2.456833608448505402e-03,-2.598918974399566650e-02,1.588581502437591553e-02,-7.301769685000181198e-03,-1.904960907995700836e-02,-1.045179553329944611e-02,-6.137717980891466141e-03,1.194701716303825378e-02,2.071522921323776245e-02,2.762319054454565048e-03,-2.793433144688606262e-02,-2.928850986063480377e-02,-2.092329785227775574e-02,1.882906630635261536e-02,-1.108577661216259003e-02,-3.478374332189559937e-02,-1.256309635937213898e-02,-1.970750093460083008e-02,-3.445389121770858765e-02,9.707134217023849487e-03,-1.873967051506042480e-02,-5.375599022954702377e-03,1.295611727982759476e-02,-2.288882806897163391e-02,1.857232861220836639e-02,2.830208977684378624e-03,-1.055302657186985016e-02,1.541356369853019714e-02,-2.381606213748455048e-02,1.483811251819133759e-02,1.031294348649680614e-03,-1.560026034712791443e-02,-4.154171794652938843e-03,-1.240533962845802307e-02,1.118709798902273178e-02,-3.691303357481956482e-02,-1.245766691863536835e-02,7.706975564360618591e-03,5.634493194520473480e-03,9.595507755875587463e-03,-7.321522105485200882e-03,1.423883065581321716e-02,-2.922497317194938660e-02,-9.765551425516605377e-03,1.912579685449600220e-02,-2.318515256047248840e-02,-1.516570150852203369e-02,2.742840675637125969e-03,-2.505776099860668182e-02,2.164808101952075958e-03,-2.954000793397426605e-02,-6.068730726838111877e-03,-2.104740403592586517e-02,-1.601611077785491943e-02,-2.316575497388839722e-02,-7.465271744877099991e-03,-2.910119295120239258e-02,-3.689865767955780029e-02,-2.081040665507316589e-02,-3.509759530425071716e-02,-2.328796871006488800e-02,-2.059763856232166290e-02,1.674966327846050262e-02,7.242235820740461349e-03,2.471103146672248840e-02,-2.968632243573665619e-02,9.851275943219661713e-03,7.000575307756662369e-03,-1.896509202197194099e-03,-8.251695893704891205e-03,-1.721228472888469696e-02,-3.101974911987781525e-02,-3.405024856328964233e-02,2.029779925942420959e-02,-2.589802024886012077e-03,3.425286617130041122e-03,1.610089838504791260e-02,-2.967118471860885620e-02,-2.687573060393333435e-02,-3.508526086807250977e-02,-3.092322684824466705e-02,3.641261719167232513e-03,1.407589949667453766e-02,2.196200378239154816e-02,2.349635586142539978e-02,-3.552053868770599365e-02,9.145144373178482056e-03,-6.982533261179924011e-03,1.684895716607570648e-02,8.002651156857609749e-04,-1.959681883454322815e-02,2.356417849659919739e-02,2.008510008454322815e-02,-1.847116462886333466e-02,1.972622983157634735e-02,-1.971434615552425385e-02,2.440779842436313629e-02,-3.315887879580259323e-03,-1.833315566182136536e-02,1.349460892379283905e-02,6.370939314365386963e-03,-1.468933466821908951e-02,1.654710806906223297e-02,1.118640415370464325e-02,-1.694461517035961151e-02,-8.620544336736202240e-03,-2.486959658563137054e-02,6.385164801031351089e-03,1.341129373759031296e-02,1.724845729768276215e-02,-2.245244011282920837e-02,-1.418258529156446457e-02,2.109955996274948120e-02,-3.333735466003417969e-02,-1.292637456208467484e-02,1.567718014121055603e-02,2.557643316686153412e-02,-2.866886556148529053e-02,6.422432605177164078e-03,-3.670138865709304810e-02,2.449742052704095840e-03,-2.795316092669963837e-02,-1.297067850828170776e-02,2.424275316298007965e-02,-3.026049118489027023e-03,-2.259655483067035675e-02,-2.437829226255416870e-02,5.581487435847520828e-03,-9.584073559381067753e-04,1.593443751335144043e-02,1.288886182010173798e-03,-4.146936349570751190e-03,1.010631490498781204e-02,1.903736218810081482e-02,6.908848881721496582e-04,-2.623654715716838837e-02,-1.778837479650974274e-02,-3.093600645661354065e-02,-1.420114934444427490e-02,1.605202094651758671e-03,-1.717460714280605316e-02,-2.273212745785713196e-02,6.268495228141546249e-03,-1.380346249788999557e-02,-8.480167016386985779e-03,-1.840779557824134827e-02,1.301622111350297928e-02,3.042056923732161522e-03,-1.195960119366645813e-02,-3.648043423891067505e-02,-1.174937747418880463e-02,6.614418700337409973e-03,-3.030594065785408020e-02,-2.492130175232887268e-02,-2.394127286970615387e-02,-2.751851826906204224e-02,-2.474504336714744568e-02,-2.215427905321121216e-02,-1.650954969227313995e-02,2.015430666506290436e-02,1.048620603978633881e-02,6.730458233505487442e-03,-3.012482821941375732e-02,-2.046928554773330688e-02,-1.072948332875967026e-02,-2.348255179822444916e-02,-2.393873780965805054e-02,1.783764176070690155e-02,-2.641450427472591400e-02,-7.031789980828762054e-03,2.212094888091087341e-02,-2.680484391748905182e-02,-2.731950394809246063e-02,9.331652108812704682e-06,-7.578727789223194122e-03,2.078347140923142433e-03,-3.600213304162025452e-02,-2.432082220911979675e-02,5.769908893853425980e-03,-2.748834528028964996e-02,1.933589810505509377e-03,-2.095949463546276093e-02,8.662792854011058807e-03,-1.826670020818710327e-02,-1.865170150995254517e-02,-1.732350327074527740e-02,-1.994911581277847290e-02,-3.469568118453025818e-02,-3.156713396310806274e-02,-6.307142321020364761e-03,-1.342704053968191147e-02,-2.300648391246795654e-02,-3.209761530160903931e-02,1.681842841207981110e-02,1.420364249497652054e-02,-3.523046523332595825e-02,5.550151225179433823e-03,-1.317912898957729340e-02,1.270172186195850372e-02,-1.469392236322164536e-02,9.485557675361633301e-03,-3.433628007769584656e-02,-9.966576471924781799e-04,-4.956891643814742565e-04,-7.311995723284780979e-04,-1.203965768218040466e-02,-6.046328344382345676e-04,-2.877393923699855804e-02,6.439087446779012680e-03,-7.169796153903007507e-03,-1.400431524962186813e-02,-5.963815376162528992e-03,-1.359394192695617676e-02,5.456216167658567429e-03,5.027237813919782639e-03,-3.259276598691940308e-02,-1.871397905051708221e-02,5.870786961168050766e-03,-2.593479864299297333e-02,-1.484374282881617546e-03,1.836885884404182434e-02,-1.117320358753204346e-02,-3.311651200056076050e-02,-3.364844620227813721e-02,-1.981247402727603912e-02,-2.487013116478919983e-02,-1.837269589304924011e-02,-1.178912445902824402e-02,1.454428583383560181e-02,-1.761782541871070862e-02,2.662118931766599417e-04,1.495774090290069580e-02,-1.085558906197547913e-02,-3.531614691019058228e-02,1.010059565305709839e-02,-1.887650042772293091e-02,1.876239478588104248e-02,1.936000306159257889e-03,-7.955800741910934448e-03,9.186389070237055421e-05,-1.152645051479339600e-02,-4.857795313000679016e-03,-1.263549434952437878e-03,2.315557375550270081e-02,-1.703654648736119270e-03,5.604764446616172791e-03,7.043056655675172806e-03,1.565833389759063721e-02,-4.805705044418573380e-03,-2.860637381672859192e-02,-3.203963115811347961e-02,-9.649770334362983704e-03,-2.120365621522068977e-03,2.518972754478454590e-02,-1.348267216235399246e-02,1.243292912840843201e-02,-2.367623895406723022e-02,-1.545316074043512344e-02,-1.475374493747949600e-02,-2.055830880999565125e-02,-2.250592410564422607e-02,-1.793607883155345917e-02,-1.913885213434696198e-02,1.638872362673282623e-02,-2.505510346964001656e-03,1.192518975585699081e-02,-7.805592380464076996e-03,-2.398650906980037689e-02,1.084103155881166458e-02,-4.616752732545137405e-03,1.248675584793090820e-02,1.368724368512630463e-02,-5.705642979592084885e-03,-7.943952456116676331e-03,-1.569060608744621277e-02,5.480565596371889114e-03,6.546625401824712753e-03,1.550061907619237900e-02,5.721149136661551893e-05,6.376247853040695190e-03,-1.041931938380002975e-02,-4.094311036169528961e-03,-2.660037018358707428e-02,-3.120988979935646057e-02,4.913909360766410828e-03,1.823449879884719849e-02,-3.554976731538772583e-02,-2.289491519331932068e-02,-1.524699665606021881e-02,-3.604732826352119446e-02,-1.017268840223550797e-02,1.207672432065010071e-02,-1.744165271520614624e-02,1.343329809606075287e-02,-1.900296099483966827e-02,1.175683923065662384e-02,-1.981810107827186584e-02,1.145375519990921021e-02,2.019536495208740234e-02,1.542905997484922409e-02,2.011387795209884644e-02,1.845722645521163940e-02,5.135337822139263153e-03,1.858761161565780640e-02,-2.771571162156760693e-04,-3.281187638640403748e-02,-3.288208693265914917e-02,-6.136693991720676422e-03,-1.015084702521562576e-02,1.049842685461044312e-02,-1.966726407408714294e-02,-2.193101122975349426e-02,-1.232420373708009720e-02,1.968944817781448364e-02,-1.125998888164758682e-02,7.883332669734954834e-03,3.153715515509247780e-03,-4.217018838971853256e-03,-1.029938831925392151e-02,-8.132040500640869141e-03,-9.881584905087947845e-03,-8.108219131827354431e-03,-6.495582405477762222e-03,-1.685454510152339935e-02,1.152250077575445175e-02,2.367959171533584595e-02,9.457026608288288116e-03,1.070908922702074051e-02,-1.508525572717189789e-02,1.638984866440296173e-02,-1.804186776280403137e-02,-2.758187800645828247e-02,1.803782582283020020e-02,-9.470134042203426361e-03,-3.431894630193710327e-02,-3.286743536591529846e-02,-5.590392742305994034e-03,-5.908594932407140732e-03,2.304577827453613281e-02,2.242001704871654510e-02,-1.383416913449764252e-02,-2.501104772090911865e-02,-5.673628300428390503e-03
-2.441063523292541504e-02,2.736176922917366028e-02,-1.687762886285781860e-02,1.554515585303306580e-02,-5.230065435171127319e-03,-2.158945053815841675e-02,-2.758862636983394623e-02,-1.126653142273426056e-02,-2.547123283147811890e-02,3.759916871786117554e-03,2.693362534046173096e-03,-1.719957962632179260e-02,2.368262037634849548e-02,-5.588693544268608093e-03,-1.899718865752220154e-02,-1.677802205085754395e-02,1.231225579977035522e-02,-8.408389985561370850e-03,-2.000581845641136169e-02,-2.120941877365112305e-02,-1.217858307063579559e-02,2.086343616247177124e-02,4.270724952220916748e-03,-2.485921047627925873e-02,2.829365432262420654e-03,-3.032010421156883240e-02,-4.579201340675354004e-04,-1.987411826848983765e-02,-8.446931838989257812e-03,-2.724115177989006042e-02,-1.625073701143264771e-02,3.074817359447479248e-02,2.997636422514915466e-02,-2.860248275101184845e-02,1.456323638558387756e-02,-2.922495268285274506e-02,1.342475414276123047e-03,7.381003350019454956e-03,2.135839313268661499e-03,3.116432577371597290e-02,-1.701150089502334595e-03,-2.338977530598640442e-03,2.960742264986038208e-02,1.313489302992820740e-02,1.659281924366950989e-02,3.157684952020645142e-02,-1.688025146722793579e-02,4.299532622098922729e-03,1.625129953026771545e-02,-4.141854122281074524e-03,-2.236729115247726440e-02,-2.200476452708244324e-02,1.852790638804435730e-02,2.304776012897491455e-02,2.488866820931434631e-02,3.187149763107299805e-03,-4.399163648486137390e-03,-2.479030378162860870e-02,-1.908396556973457336e-02,1.531526073813438416e-02,3.085733577609062195e-02,-2.118706516921520233e-02,1.552257686853408813e-03,1.779652386903762817e-02,-1.092704012989997864e-02,5.396705120801925659e-03,-2.328150719404220581e-02,-3.069749847054481506e-02,7.617790251970291138e-03,-3.094872459769248962e-02,5.942512303590774536e-03,2.270026504993438721e-02,1.530503481626510620e-02,-9.560750797390937805e-03,-9.787715971469879150e-04,-2.452279627323150635e-02,2.766427397727966309e-02,-1.677411980926990509e-02,-7.576091215014457703e-03,-2.596233412623405457e-02,-2.288828417658805847e-02,-2.681185118854045868e-02,-4.234867170453071594e-03,-1.606538519263267517e-02,5.056835711002349854e-03,3.542363643646240234e-03,-1.035436615347862244e-02,2.522623166441917419e-02,-3.008505702018737793e-02,-5.632117390632629395e-03,1.307601854205131531e-02,1.599813997745513916e-02,-1.395709626376628876e-02,2.271393686532974243e-02,1.518095657229423523e-02,6.746429949998855591e-03,-2.491658553481101990e-02,-2.072710543870925903e-03,-4.840062931180000305e-03,-8.900566026568412781e-03,1.853942871093750000e-03,2.356643974781036377e-02,-2.839578501880168915e-02,-6.734207272529602051e-05,3.084451332688331604e-02,1.677047461271286011e-03,-2.701385132968425751e-02,-2.915750443935394287e-02,8.452400565147399902e-03,-8.085506036877632141e-03,-1.351775601506233215e-02,-2.136572450399398804e-02,-1.006005518138408661e-02,8.290324360132217407e-03,-6.848737597465515137e-03,-2.353914268314838409e-02,2.260927483439445496e-02,-1.040233671665191650e-02,1.132712513208389282e-02,3.059995546936988831e-02,9.250286966562271118e-03,-1.256828941404819489e-02,8.690483868122100830e-03,1.707477122545242310e-02,2.487138286232948303e-02,2.147386968135833740e-02,-1.575125381350517273e-03,-2.609540708363056183e-02,-2.637078985571861267e-03,-1.126209273934364319e-03,-1.503790728747844696e-02,8.906420320272445679e-03,-1.791533827781677246e-02,-2.347134053707122803e-02,2.529840916395187378e-02,-3.310672938823699951e-03,-8.188486099243164062e-04,-6.624400615692138672e-03,1.860043779015541077e-02,2.658541500568389893e-02,1.246495544910430908e-02,-2.596259489655494690e-02,9.298447519540786743e-03,1.795898750424385071e-02,1.643201336264610291e-02,6.485655903816223145e-03,1.657031476497650146e-03,1.704499498009681702e-02,-2.970567904412746429e-02,4.487603902816772461e-03,2.410307526588439941e-02,1.327455043792724609e-03,-5.205603316426277161e-03,3.115966916084289551e-02,-1.656134054064750671e-02,-2.585107833147048950e-02,1.373440027236938477e-04,-1.360915694385766983e-02,1.717700064182281494e-02,-2.298405766487121582e-02,1.108715310692787170e-02,2.566345036029815674e-02,-1.918313093483448029e-02,1.364192273467779160e-02,3.005532920360565186e-02,-2.565680257976055145e-02,2.007202059030532837e-02,-3.056648373603820801e-02,-2.962304092943668365e-02,-3.367925435304641724e-02,-5.376707995310425758e-04,-1.696447469294071198e-02,-5.932068917900323868e-03,-3.413783758878707886e-02,-9.382809512317180634e-03,2.199419401586055756e-02,-1.283400412648916245e-02,-2.345362119376659393e-02,-3.758335253223776817e-03,5.298868287354707718e-03,-1.057834248058497906e-03,7.133082952350378036e-03,-3.691122308373451233e-02,1.953896321356296539e-02,-3.112523257732391357e-02,1.648224890232086182e-02,-3.539336100220680237e-02,2.220172062516212463e-02,8.343796245753765106e-03,-1.685640960931777954e-02,-1.278469245880842209e-02,4.413698334246873856e-03,-3.186955675482749939e-02,1.272108126431703568e-02,-3.206242108717560768e-03,1.091102720238268375e-03,-1.449862029403448105e-02,-9.609146974980831146e-03,-3.466583043336868286e-02,-2.223847061395645142e-02,-3.020392544567584991e-02,-3.299883753061294556e-02,-2.338734269142150879e-02,-2.307413145899772644e-02,-1.463159336708486080e-03,1.724338345229625702e-02,-1.696074567735195160e-02,-3.465975448489189148e-02,4.234565887600183487e-03,2.190745063126087189e-02,-2.492096647620201111e-02,-1.782990805804729462e-02,2.472160267643630505e-04,-1.494895666837692261e-02,-3.119082562625408173e-02,2.020908147096633911e-02,8.045678026974201202e-03,4.033767152577638626e-03,-3.046861616894602776e-03,-9.038604912348091602e-04,-3.599810600280761719e-02,6.202846299856901169e-03,-8.405131287872791290e-03,2.007253281772136688e-02,-3.396793454885482788e-02,-2.377588674426078796e-02,-1.165827270597219467e-02,-1.176860835403203964e-02,-2.577967382967472076e-02,-1.514278259128332138e-02,5.897054448723793030e-03,-7.201829459518194199e-03,-9.018959477543830872e-03,7.146851625293493271e-03,1.414702087640762329e-02,-2.676379494369029999e-02,-1.656915433704853058e-02,-2.503871172666549683e-02,-1.511337142437696457e-02,-1.360968034714460373e-02,1.107118465006351471e-02,7.943219505250453949e-03,-6.117155775427818298e-03,8.055630140006542206e-03,-5.924929864704608917e-03,5.228887777775526047e-03,-2.045368775725364685e-02,-1.186184305697679520e-02,-4.804135300219058990e-03,-5.991900339722633362e-03,3.598601091653108597e-03,3.899668343365192413e-03,1.132142264395952225e-02,1.369790732860565186e-02,1.008874271064996719e-02,-9.191254153847694397e-03,-1.424737740308046341e-02,1.017607189714908600e-02,1.602537557482719421e-02,1.695877686142921448e-02,-1.316896057687699795e-03,-1.403728593140840530e-02,-3.026764094829559326e-02,1.321927551180124283e-02,6.400041747838258743e-03,-1.225342694669961929e-02,1.952623203396797180e-02,7.935930974781513214e-03,-2.669467031955718994e-02,4.637337115127593279e-04,1.351847965270280838e-02,-2.728557400405406952e-02,-1.603460311889648438e-02,4.328962881118059158e-03,-2.058987272903323174e-03,-3.505894541740417480e-02,-1.310769747942686081e-02,-1.210484374314546585e-02,-5.163277965039014816e-03,1.310385204851627350e-02,-1.190602127462625504e-02,-2.984819933772087097e-02,-1.908026449382305145e-02,-2.721743099391460419e-02,-3.496450558304786682e-02,-2.137478440999984741e-02,-9.426083415746688843e-03,-1.732349582016468048e-02,-2.414971217513084412e-02,-8.073425851762294769e-04,-3.370925411581993103e-02,1.256532594561576843e-02,1.656399294734001160e-02,1.914752088487148285e-02,-2.272226475179195404e-02,-3.093723580241203308e-02,-1.964213699102401733e-02,-6.042542401701211929e-03,2.255133353173732758e-02,-3.333128616213798523e-02,-4.043107852339744568e-03,9.037730284035205841e-03,-1.696263812482357025e-02,-4.708354361355304718e-03,1.412814250215888023e-03,-3.674068301916122437e-02,7.653428707271814346e-03,-1.393168792128562927e-02,-3.507905453443527222e-02,1.150236651301383972e-02,-1.923281885683536530e-02,-1.162139419466257095e-02,-1.206537336111068726e-02,-2.769819274544715881e-02,-3.556511655915528536e-04,6.177711184136569500e-04,-1.524209883064031601e-02,-3.615808486938476562e-02,2.523069828748703003e-02,-3.275388479232788086e-02,2.447377191856503487e-03,-3.170853853225708008e-02,-3.687195852398872375e-02,-3.332235664129257202e-02,2.032241225242614746e-02,-1.288245152682065964e-02,-3.341560810804367065e-02,-3.294396400451660156e-02,2.471023239195346832e-02,-1.098181772977113724e-02,1.714146509766578674e-02,-3.694003447890281677e-02,1.678163767792284489e-03,6.437363103032112122e-03,-3.042457625269889832e-02,-2.748099900782108307e-02,1.329034380614757538e-02,5.280116572976112366e-03,-1.511257048696279526e-02,2.077815867960453033e-02,2.169130370020866394e-02,-2.361319772899150848e-02,-1.793548651039600372e-02,-1.352156326174736023e-02,1.888822205364704132e-02,1.423280127346515656e-02,1.498028635978698730e-02,-2.716174162924289703e-02,1.881807227618992329e-03,-1.540811825543642044e-02,-1.444478286430239677e-03,2.263512648642063141e-02,2.332399599254131317e-02,-8.654652163386344910e-03,-3.504949621856212616e-03,-1.782264560461044312e-03,-1.017747819423675537e-02,-3.005999512970447540e-02,2.031990140676498413e-02,2.251959033310413361e-02,-3.393676131963729858e-02,-1.551143731921911240e-02,-3.496821504086256027e-03,-3.423381596803665161e-02,-3.200087323784828186e-02,-1.727490127086639404e-02,-1.056246925145387650e-02,-5.149170174263417721e-04,-6.171923596411943436e-03,8.010006509721279144e-03,-2.174673043191432953e-02,1.495606079697608948e-02,-7.834678515791893005e-03,-7.173631340265274048e-03,1.188504789024591446e-02,-1.436264533549547195e-02,-2.853540889918804169e-02,-7.040315773338079453e-03,9.965566918253898621e-03,5.003874655812978745e-03,-1.357963774353265762e-02,-3.106842003762722015e-02,1.224829349666833878e-02,-2.547432854771614075e-02,-9.097851812839508057e-03,-3.409067541360855103e-02,-3.184156864881515503e-02,1.507487520575523376e-02,-3.388659283518791199e-02,-3.164165094494819641e-02,3.890546970069408417e-03,-5.723912036046385765e-04,1.720187999308109283e-02,1.800830475986003876e-02,-1.201129332184791565e-02,-2.755794115364551544e-02,-2.491785772144794464e-02,1.649519242346286774e-02,-3.983504604548215866e-03,7.747370284050703049e-03,-5.787390284240245819e-03,-1.781128579750657082e-03,-1.982693746685981750e-02,2.327171526849269867e-02,-3.168401494622230530e-02,2.011628635227680206e-02,-2.503106184303760529e-02,-1.589344255626201630e-02,5.864840466529130936e-03,1.692534238100051880e-02,1.073537208139896393e-02,-1.816049963235855103e-02,1.367616653442382812e-02,4.219150636345148087e-03,1.031061913818120956e-02,1.462688203901052475e-02,1.748936437070369720e-02,-3.497717157006263733e-02,2.298797853291034698e-02,4.466744139790534973e-03,1.642925478518009186e-02,1.855745352804660797e-02,2.113134600222110748e-02,1.592907495796680450e-02,-3.196785924956202507e-03,-3.365447279065847397e-03,1.531159941805526614e-04,1.874429057352244854e-03,1.581325940787792206e-02,9.678910486400127411e-03,-7.418811321258544922e-03,8.684507571160793304e-03,-1.757897250354290009e-02,-3.230351023375988007e-03,5.529947578907012939e-03,-3.138677030801773071e-02,-1.463428139686584473e-02,1.610516197979450226e-02,1.291867066174745560e-02,-2.956289611756801605e-02,1.967992074787616730e-02,-2.339447475969791412e-02,-1.408899016678333282e-02,1.723590679466724396e-02,3.035777015611529350e-03,-1.609217934310436249e-02,-1.921481080353260040e-02,1.895121671259403229e-02,-3.019394353032112122e-02,-8.924009278416633606e-03,-8.930742740631103516e-03,-2.533710747957229614e-02,-1.324110291898250580e-02,7.075676228851079941e-03,-1.489617396146059036e-02,-3.411858901381492615e-02,-1.032388396561145782e-02,-2.624157629907131195e-02,-3.100950457155704498e-02,-3.733463119715452194e-03,2.031869813799858093e-02,2.093313634395599365e-02,-2.601646445691585541e-02,7.932862266898155212e-03,-4.067299421876668930e-03,-3.547106310725212097e-02,-1.837497763335704803e-02,4.630643408745527267e-03,-2.779460977762937546e-03,-8.473958820104598999e-03,-3.320030169561505318e-03,-1.847299933433532715e-02,1.133610401302576065e-02,-3.602717444300651550e-02,1.580205163918435574e-03,-3.265450149774551392e-02,9.867606684565544128e-03,-4.271888174116611481e-03,-2.536074258387088776e-02,1.966693438589572906e-02,6.462012883275747299e-03,2.280336618423461914e-02,-3.080549649894237518e-02,2.324840612709522247e-02,-1.889713481068611145e-02,9.696563705801963806e-03,-2.448280341923236847e-02,-3.618542104959487915e-02,4.689791705459356308e-03,-2.558041550219058990e-02,-2.639086730778217316e-02,-5.699264816939830780e-03,7.291952148079872131e-03,-3.515395522117614746e-02,-8.222942240536212921e-03,-2.187207713723182678e-02,-4.878622479736804962e-03,-2.101326920092105865e-02,2.101935213431715965e-03,-2.708572521805763245e-02,-1.497813034802675247e-02,-1.176004111766815186e-02,8.155377581715583801e-03,-3.436287119984626770e-02,1.464158389717340469e-02,-3.269179910421371460e-02,-2.021381631493568420e-02,-3.741370514035224915e-02,1.299117878079414368e-02,-3.086143545806407928e-02,1.050418941304087639e-03,-1.348696090281009674e-02,-1.607345230877399445e-02,2.176615409553050995e-02,-2.991606481373310089e-02,-1.144307572394609451e-02,-3.697617724537849426e-02,4.459324292838573456e-03,-2.982689999043941498e-03,-5.575844086706638336e-03,1.642608828842639923e-02,2.137083560228347778e-03,-7.854957133531570435e-03,-3.545603528618812561e-02,-1.469838246703147888e-02,-1.470772456377744675e-02,-1.006432436406612396e-02,-2.545015886425971985e-02,1.008764747530221939e-02,-2.375151030719280243e-03,-3.461180627346038818e-02,-3.066555783152580261e-02,9.370082989335060120e-03,2.022050134837627411e-02,5.605764221400022507e-03,-3.524692356586456299e-02,-5.651789717376232147e-03,4.813415464013814926e-03,-2.836241945624351501e-02,-3.270494192838668823e-02,-1.715381257236003876e-02,-3.123618476092815399e-02,-2.687330916523933411e-02,-4.261442925781011581e-03,-3.047941997647285461e-02,1.802306994795799255e-02,1.007009390741586685e-02,-2.956521138548851013e-02,-3.179256245493888855e-02,-7.567721419036388397e-03,2.279250137507915497e-02,-9.081023745238780975e-03,1.646398752927780151e-02,-1.527608023025095463e-03,4.055278375744819641e-03,-3.532030805945396423e-02,-1.015548873692750931e-02,-4.507710225880146027e-03,2.263405174016952515e-02,1.429244223982095718e-02,1.590141281485557556e-02,2.428220212459564209e-02,6.781149655580520630e-03,-1.100402884185314178e-02,2.530504763126373291e-02,-1.318652927875518799e-02,-2.320375666022300720e-02,2.114302851259708405e-02,7.453370373696088791e-03,-1.779243536293506622e-02,-1.930573210120201111e-02,1.921917125582695007e-02,-3.404775261878967285e-02,7.355905836448073387e-05,-1.853959634900093079e-02,1.797415688633918762e-02,-2.263905666768550873e-02,1.625930704176425934e-02,5.204300396144390106e-03,3.504630876705050468e-03,-2.611960284411907196e-03,1.957519166171550751e-02,-2.889074152335524559e-03,-2.494310960173606873e-02,-4.962173290550708771e-03,-2.826304733753204346e-02,1.046971790492534637e-02,2.542671747505664825e-02,-3.246970009058713913e-04,1.283362694084644318e-02,-6.629578769207000732e-03,2.318430878221988678e-02,-1.021791622042655945e-02,1.958680711686611176e-02,-5.360383074730634689e-03,1.215377077460289001e-02,-9.991671890020370483e-03,1.055146194994449615e-02,-2.079129964113235474e-02,1.377432886511087418e-02,9.214861318469047546e-03,-3.319758921861648560e-02,-2.700917236506938934e-02,1.867446489632129669e-02,-3.194493427872657776e-02,2.521195448935031891e-02,1.657007448375225067e-02,-1.531698741018772125e-02,-4.321331158280372620e-03,6.117160897701978683e-03,-2.690691128373146057e-02,-8.391389623284339905e-03,-3.001789562404155731e-02,-2.254234626889228821e-02,1.814550347626209259e-02,-2.622516080737113953e-02,2.199531160295009613e-02,-1.725836656987667084e-02,-1.494955644011497498e-02,-1.070985291153192520e-02,-8.054273203015327454e-03,2.376544661819934845e-02,-1.357672456651926041e-02,1.858039386570453644e-02,1.119713881053030491e-03,-1.200297381728887558e-02,-2.663710527122020721e-02,-3.637921437621116638e-02,-1.681692781858146191e-03,2.324971603229641914e-03,-3.687590360641479492e-02,-2.262892574071884155e-02,1.411868538707494736e-02,1.208687294274568558e-02,-3.524553403258323669e-02,1.986407488584518433e-02,-3.471472114324569702e-02,-2.205722406506538391e-02,-1.230821013450622559e-03,-1.010624691843986511e-02,-8.837806060910224915e-03,1.511965692043304443e-02,2.385730110108852386e-02,-1.666852273046970367e-02,-2.982219122350215912e-02,7.831776514649391174e-03,2.659031888470053673e-04,-8.019541390240192413e-03,-6.602956913411617279e-03,1.301966980099678040e-02,-1.966853439807891846e-02,-8.704484440386295319e-03,-1.330675370991230011e-02,-1.634392142295837402e-02,-8.672663941979408264e-03,-2.663433365523815155e-02,2.023198828101158142e-02,-2.554886788129806519e-02,-1.782723516225814819e-02,5.758608691394329071e-03,1.777249760925769806e-02,6.770889158360660076e-04,1.307531446218490601e-02,-1.099731866270303726e-02,-1.469238102436065674e-02,-2.585213072597980499e-02,-3.151779621839523315e-02,1.730219833552837372e-02,-2.062099613249301910e-02,-2.842952869832515717e-02,1.241713762283325195e-02,1.278460398316383362e-02,2.502661384642124176e-02,-1.160995289683341980e-02,-1.117984298616647720e-02,-8.442006073892116547e-03,-8.924273774027824402e-03,-8.917120285332202911e-04,2.204708196222782135e-02,-1.388765987940132618e-03,1.230139378458261490e-02,-1.350280363112688065e-02,3.459008410573005676e-03,9.665661491453647614e-03,2.154245413839817047e-02,1.316076144576072693e-02,2.174846827983856201e-02,2.397063188254833221e-02,2.354698814451694489e-02,-2.417347766458988190e-02,-3.019641712307929993e-02,-3.147387132048606873e-02,1.252799853682518005e-02,-7.615795824676752090e-03,4.182450938969850540e-03,1.423428393900394440e-02,-3.178830072283744812e-02,-1.349063217639923096e-02,-9.105890057981014252e-03,-1.225274056196212769e-02,7.738614920526742935e-03,2.170350588858127594e-02,-7.345216348767280579e-03,2.025555260479450226e-02,1.600528322160243988e-02,-1.104901079088449478e-02,1.981819607317447662e-02,1.306409854441881180e-02,9.871611837297677994e-05,-1.421908475458621979e-02,-1.837683096528053284e-02,1.641303487122058868e-02,9.667160920798778534e-03,6.384857464581727982e-03,1.357412058860063553e-02,-1.258662156760692596e-02,2.392025850713253021e-02,-3.758815675973892212e-02,-3.317535668611526489e-02,-1.022826472762972116e-04,-7.266311906278133392e-03,2.207670919597148895e-02,2.443884685635566711e-02,-1.846846379339694977e-02,6.514989305287599564e-03,-2.717158012092113495e-02,-1.438821572810411453e-02,-3.538227174431085587e-03,5.391873884946107864e-03,-1.682524569332599640e-02,-1.848857104778289795e-02,2.387165836989879608e-02,-1.582361012697219849e-02,-9.739056229591369629e-03,-3.061711229383945465e-02,6.554343272000551224e-03,-2.364253811538219452e-02,-5.972661543637514114e-03,-3.463865816593170166e-02,3.003634745255112648e-03,-8.968497626483440399e-03,2.477878518402576447e-02,-1.140527613461017609e-02,-2.972254902124404907e-02,-8.385191671550273895e-03,9.567772038280963898e-03,-5.383197683840990067e-03,1.553664915263652802e-02,-1.992528326809406281e-02,-2.935075573623180389e-02,-1.807177998125553131e-02,-2.545326761901378632e-02,4.912186879664659500e-03,-1.901079434901475906e-03,2.297025360167026520e-02,-3.113709390163421631e-02,-6.253353785723447800e-04,-1.260948181152343750e-02,2.080726437270641327e-02,-1.987933181226253510e-03,-2.792985551059246063e-02,-7.023615296930074692e-03,1.751435361802577972e-02,1.011548750102519989e-02,2.413336001336574554e-02,1.803843304514884949e-02,2.781988121569156647e-03,-1.739041879773139954e-02,7.897267118096351624e-03,8.500197902321815491e-03,-1.031038630753755569e-02,-1.342931669205427170e-02,4.220617935061454773e-03,-5.595389287918806076e-03,-2.801284193992614746e-02,2.442075125873088837e-02,-1.831183210015296936e-02,1.332517713308334351e-02,1.592770032584667206e-02,-2.551477774977684021e-02,-6.920668762177228928e-03,8.338248357176780701e-03,1.275877095758914948e-02,-9.440131485462188721e-03,-2.129521220922470093e-03,4.937425721436738968e-03,-1.306829508394002914e-02,-2.851818315684795380e-02,1.120056398212909698e-02,-2.450302802026271820e-02,-1.461329497396945953e-02,-3.240129724144935608e-02,-3.099078312516212463e-02,-3.177867829799652100e-02,1.603299193084239960e-02,5.324718076735734940e-03,-1.061477884650230408e-02,-2.432309463620185852e-02,-1.516995672136545181e-02,7.950430735945701599e-03,1.856417395174503326e-02,-5.193356890231370926e-03,-2.930938499048352242e-03,5.617498420178890228e-03,-1.518328767269849777e-02,-1.976347761228680611e-03,-2.869681268930435181e-02,-1.854261942207813263e-02,-3.379377350211143494e-02,6.048165727406740189e-03,1.360028400085866451e-03,1.794677227735519409e-02,-9.919174946844577789e-03,-1.070911251008510590e-02,-1.017884723842144012e-02,-2.456604875624179840e-02,-2.466285787522792816e-02,6.187975872308015823e-03,1.570657012052834034e-03,-3.363847360014915466e-02,1.153516862541437149e-02,1.659629307687282562e-02,-3.335844259709119797e-03,4.327162168920040131e-03,-7.716070860624313354e-03,-2.557267434895038605e-02,2.109981514513492584e-02,-3.140474110841751099e-02,1.771811768412590027e-02,1.932178996503353119e-02,-1.359868445433676243e-03,-1.072865561582148075e-03,-1.314182020723819733e-02,7.932970300316810608e-03,-3.196286410093307495e-02,-1.201404817402362823e-02,7.668416947126388550e-03,2.047439105808734894e-02,-2.677603811025619507e-02,-1.501546613872051239e-02,-2.086216397583484650e-02,1.017944794148206711e-02,2.064345218241214752e-02,8.691957220435142517e-03,9.760444983839988708e-03,3.638165770098567009e-03,-1.675178855657577515e-02,6.483485922217369080e-03,-2.895716950297355652e-02,1.022212766110897064e-02,-1.405114680528640747e-02,-2.710575051605701447e-02,1.731116324663162231e-02,1.913633756339550018e-02,-1.678127236664295197e-02,-2.501953567843884230e-04,-3.560368344187736511e-02,-3.037446923553943634e-02,1.353634707629680634e-02,1.693671755492687225e-02,-2.875637821853160858e-02,-1.417760644108057022e-02,-3.145797550678253174e-02,-3.356914222240447998e-02,-3.224791213870048523e-02,-1.062674447894096375e-02,-2.817238308489322662e-02,2.469940669834613800e-02,-5.059030372649431229e-03,1.041605509817600250e-02,9.989069774746894836e-03,-6.074563600122928619e-03,1.480617467314004898e-02,-2.582799270749092102e-02,-3.216576948761940002e-02,-3.668807819485664368e-02,2.347515709698200226e-02,-1.135747134685516357e-02,-1.887050271034240723e-02,-3.445819392800331116e-02,-3.194827586412429810e-02,-3.550861403346061707e-02,2.850730903446674347e-03,-4.011766053736209869e-03,2.075226046144962311e-02,-3.337457776069641113e-03,1.051500719040632248e-02,8.748194202780723572e-03,-1.961760967969894409e-02,-1.245271787047386169e-02,8.050991222262382507e-03,2.048627473413944244e-02,-1.763900183141231537e-02,-3.623441234230995178e-02,-1.176875201053917408e-03,1.328297890722751617e-02,-2.894046716392040253e-03,-1.269356906414031982e-02,-1.523913443088531494e-02,1.864549703896045685e-02,2.559109218418598175e-02,2.389732934534549713e-02,1.498207636177539825e-02,-1.242461800575256348e-02,-5.837730597704648972e-03,8.066920563578605652e-03,2.422136068344116211e-02,1.772491820156574249e-02,-2.525175921618938446e-02,1.239941734820604324e-02,-2.416231669485569000e-02,4.916551988571882248e-03,-1.239360496401786804e-02,-1.672982983291149139e-02,1.789562217891216278e-02,-3.089373186230659485e-02,-2.796731889247894287e-03,8.704328909516334534e-03,-1.861464977264404297e-02,1.255167275667190552e-02,-1.161132566630840302e-02,1.321086101233959198e-02,-1.921683317050337791e-03,-2.746466174721717834e-02,1.931217149831354618e-03,-6.782875396311283112e-03,8.812827058136463165e-03,9.893117472529411316e-03,-2.493980340659618378e-02,-2.620216086506843567e-02,-2.269129082560539246e-02,-2.401303872466087341e-02,-2.977420017123222351e-02,-1.964373700320720673e-02,-1.299229823052883148e-02,-8.702656254172325134e-03,6.370407994836568832e-03,1.706258393824100494e-02,-1.203779131174087524e-02,8.914391510188579559e-04,5.636196117848157883e-03,2.452975697815418243e-02,-3.484803438186645508e-02,1.389209064655005932e-03,3.285211045295000076e-03,-2.006423287093639374e-02,1.058660261332988739e-02,-3.262499347329139709e-02,-2.129202894866466522e-02,-1.599116064608097076e-02,3.579132258892059326e-03,1.590373925864696503e-03,-2.893088571727275848e-02,6.555753760039806366e-03,1.834951527416706085e-02,-2.025729417800903320e-02,3.025524318218231201e-03,2.425530739128589630e-02,-1.100240461528301239e-02,9.773590601980686188e-03,-7.665627170354127884e-03,-2.615134604275226593e-02,1.357783935964107513e-02,4.888844210654497147e-03,8.513414300978183746e-03,2.017735131084918976e-02,-1.774094067513942719e-02,-3.508624807000160217e-02,1.919983141124248505e-02,1.311586517840623856e-02,-9.366584010422229767e-03,2.174862660467624664e-02,6.849497556686401367e-03,-7.904209196567535400e-03,-2.495698630809783936e-02,-7.929922430776059628e-04,9.375916793942451477e-03,-6.717175245285034180e-03,-3.127496317028999329e-02,-2.495846338570117950e-02,8.851690217852592468e-03,-1.502206921577453613e-02,-2.417772077023983002e-03,-3.651666268706321716e-02,1.514886599034070969e-02,1.021621935069561005e-02,8.717994205653667450e-03,1.479186769574880600e-02,-8.878004737198352814e-03,-3.022585995495319366e-02,-1.840591989457607269e-02,-2.121397666633129120e-02,-9.673990309238433838e-03,-9.578125551342964172e-03,6.486457306891679764e-03,2.455112896859645844e-02,-2.823964320123195648e-02,-3.326932340860366821e-02,2.556818164885044098e-02,-1.075801718980073929e-02
-2.806608192622661591e-02,-2.315553463995456696e-02,-1.570696569979190826e-02,-1.152431592345237732e-02,-2.843658998608589172e-02,2.386528998613357544e-02,-1.149395108222961426e-02,-1.361008547246456146e-02,1.464228332042694092e-02,1.411077380180358887e-02,-8.555091917514801025e-04,-2.630075812339782715e-02,-2.344898506999015808e-02,1.092278957366943359e-02,2.436353638768196106e-02,-2.293963916599750519e-02,1.587870344519615173e-02,-1.440165564417839050e-02,-7.128473371267318726e-03,-4.909720271825790405e-03,-1.950575411319732666e-02,3.193289041519165039e-03,2.538828179240226746e-02,1.760574430227279663e-02,-2.243934199213981628e-03,1.431454718112945557e-02,3.612410277128219604e-03,1.454912871122360229e-02,-8.333658799529075623e-03,-2.754245512187480927e-02,2.799177169799804688e-02,-3.337871283292770386e-03,-2.646287158131599426e-02,-1.906648278236389160e-02,-1.401076465845108032e-02,2.430432289838790894e-02,1.127245649695396423e-02,-2.986125275492668152e-02,1.043781265616416931e-02,2.816965803503990173e-02,-1.308172009885311127e-02,-2.964000403881072998e-02,1.232557743787765503e-02,6.255552172660827637e-03,1.215000450611114502e-02,1.694101840257644653e-03,1.493729650974273682e-04,5.355134606361389160e-03,-2.527992799878120422e-02,-2.319503761827945709e-02,-5.055224522948265076e-03,7.602304220199584961e-03,-2.298376709222793579e-02,-9.355459362268447876e-03,-1.379667781293392181e-02,-7.617302238941192627e-03,5.773305892944335938e-04,-1.558015681803226471e-02,4.632901400327682495e-03,2.852378040552139282e-02,8.761547505855560303e-04,8.429888635873794556e-03,-2.906676381826400757e-03,-1.399567164480686188e-02,1.213600113987922668e-02,-1.380402222275733948e-02,5.155317485332489014e-04,2.733701840043067932e-02,1.096263155341148376e-02,2.279005572199821472e-02,-1.575171947479248047e-02,-2.964332140982151031e-02,-2.649869211018085480e-02,1.573534682393074036e-02,-8.754603564739227295e-03,-2.888090908527374268e-02,-3.765635192394256592e-03,-9.282473474740982056e-03,-1.497573591768741608e-02,-3.606602549552917480e-04,-1.017913036048412323e-02,-2.275390177965164185e-02,-3.906084224581718445e-03,-5.578463897109031677e-03,2.527535706758499146e-02,1.969909667968750000e-02,-1.821897923946380615e-03,-2.597835659980773926e-02,-2.532666549086570740e-02,-1.701627299189567566e-02,2.545630931854248047e-02,2.862215042114257812e-04,-3.108910284936428070e-02,-1.007473841309547424e-02,8.943531662225723267e-03,1.161113381385803223e-02,-2.317691221833229065e-02,2.562919631600379944e-02,-2.937931194901466370e-02,-3.097402304410934448e-02,8.549664169549942017e-03,-4.201652482151985168e-03,-2.474703826010227203e-02,-1.580689102411270142e-03,8.165176957845687866e-03,1.921989768743515015e-02,-2.330770716071128845e-03,5.423642694950103760e-03,4.456162452697753906e-03,1.980877667665481567e-02,-2.754946239292621613e-02,2.069855108857154846e-02,-2.240982651710510254e-02,2.892509102821350098e-03,-6.979230791330337524e-03,1.986869424581527710e-02,2.084073051810264587e-02,-2.081403508782386780e-02,1.530401408672332764e-03,1.549642905592918396e-02,-1.931258663535118103e-02,-6.177574396133422852e-04,1.993059366941452026e-02,-6.095847114920616150e-03,2.968240901827812195e-02,-1.222224719822406769e-02,-1.823681965470314026e-02,-1.868978515267372131e-02,-1.469413749873638153e-02,2.261726930737495422e-02,1.766755431890487671e-02,2.018357440829277039e-02,3.285098820924758911e-03,2.172884345054626465e-02,1.756941527128219604e-02,-7.930804044008255005e-03,1.362265273928642273e-02,1.188363507390022278e-02,2.597861364483833313e-02,2.998382598161697388e-02,-5.999628454446792603e-03,1.612443104386329651e-02,-4.328787326812744141e-05,-2.676327899098396301e-02,-5.388991907238960266e-03,-2.460414730012416840e-02,2.197289839386940002e-02,-2.228381112217903137e-03,-1.860347390174865723e-02,-1.313869096338748932e-02,1.821941509842872620e-02,-2.416659519076347351e-02,1.197009533643722534e-02,-1.295170560479164124e-02,1.832917332649230957e-04,2.441626787185668945e-02,9.652618318796157837e-03,9.858761914074420929e-03,1.723967865109443665e-02,-1.866059005260467529e-02,-3.396367281675338745e-02,2.374085411429405212e-02,-3.793740877881646156e-03,1.185579411685466766e-02,1.379667595028877258e-02,-9.716079570353031158e-03,-1.945027895271778107e-02,1.376311574131250381e-02,1.926420256495475769e-02,2.752399770542979240e-03,1.327697560191154480e-02,1.200264506042003632e-02,-3.467881307005882263e-02,1.309591345489025116e-02,-2.490763179957866669e-02,3.423723159357905388e-03,-2.520373789593577385e-03,-1.209530513733625412e-02,-2.898781793192028999e-03,-1.114307530224323273e-02,-1.290493365377187729e-02,1.806998066604137421e-02,-1.007598079741001129e-02,-3.223365172743797302e-02,1.589846797287464142e-02,-3.741447255015373230e-02,-5.390227215684717521e-06,1.302592549473047256e-02,3.588257590308785439e-03,6.206279620528221130e-03,8.565563708543777466e-03,4.563224501907825470e-03,-2.597642689943313599e-02,-2.356349304318428040e-02,1.691259443759918213e-02,-2.005517482757568359e-03,2.074250020086765289e-02,1.455174759030342102e-02,-1.746797561645507812e-02,-2.370827831327915192e-02,-3.118317387998104095e-02,-3.400919213891029358e-02,-5.030465312302112579e-03,-5.647230893373489380e-03,-8.291918784379959106e-03,1.036819256842136383e-02,-3.421217203140258789e-02,-1.236285548657178879e-03,2.109406888484954834e-02,-3.001884557306766510e-02,-1.701634749770164490e-02,-1.381597947329282761e-02,-6.153387948870658875e-03,-2.861604839563369751e-02,2.205503406003117561e-03,-2.314195781946182251e-02,-1.703841798007488251e-02,-3.280695155262947083e-02,-2.601278573274612427e-02,8.679684251546859741e-03,-4.363981075584888458e-03,1.989223435521125793e-02,-3.281408548355102539e-02,1.364329736679792404e-02,-4.118625074625015259e-03,6.798312067985534668e-03,1.609252952039241791e-02,-1.398125849664211273e-02,-1.020688650896772742e-04,2.235501073300838470e-02,-3.425670415163040161e-02,6.141007361293304712e-06,-2.180277137085795403e-03,-2.971289679408073425e-02,2.274053730070590973e-02,-2.434414252638816833e-02,-1.442779693752527237e-02,-1.530615147203207016e-02,-8.539999835193157196e-03,2.920341212302446365e-03,1.417471654713153839e-02,2.399487188085913658e-03,-7.700469344854354858e-03,-8.784220553934574127e-03,1.139019895344972610e-02,-6.703271996229887009e-03,1.154058147221803665e-02,2.462169714272022247e-02,-2.456857357174158096e-03,-3.341814503073692322e-02,-1.113586407154798508e-02,-1.635625399649143219e-02,-5.660032853484153748e-03,6.210944615304470062e-03,-3.481065854430198669e-02,-7.643388584256172180e-03,4.748917650431394577e-03,-1.979495771229267120e-02,4.844692535698413849e-03,1.977315731346607208e-02,-2.799373678863048553e-02,-3.265261650085449219e-02,1.338861603289842606e-02,-1.856148941442370415e-03,-2.518182434141635895e-02,-1.507846917957067490e-02,-1.269416976720094681e-02,-5.468715913593769073e-03,1.215943321585655212e-02,1.299480628222227097e-02,-2.299127914011478424e-02,-1.186085585504770279e-02,6.658895872533321381e-03,-1.041322387754917145e-02,-1.130094751715660095e-02,1.310811843723058701e-03,-9.944311343133449554e-03,-2.867075987160205841e-02,4.271125944796949625e-04,-1.798840053379535675e-02,2.006409503519535065e-02,2.038655430078506470e-02,-2.872761897742748260e-02,-1.918812654912471771e-02,-4.420785699039697647e-03,-7.052263710647821426e-03,-8.944348432123661041e-03,-3.502328321337699890e-02,-3.146543726325035095e-02,-2.643831819295883179e-02,2.572411904111504555e-03,1.903893426060676575e-03,-5.607351195067167282e-03,1.194070931524038315e-02,-9.366909042000770569e-03,1.961968094110488892e-02,6.260131020098924637e-03,-3.382188826799392700e-02,-1.066332496702671051e-02,-9.441504254937171936e-03,1.396202482283115387e-02,1.293803378939628601e-02,-2.376174181699752808e-02,2.273794962093234062e-03,-2.387650869786739349e-02,8.645058609545230865e-03,-2.736343815922737122e-02,-1.339632365852594376e-02,-3.483013808727264404e-02,-1.725084334611892700e-02,-2.741614356637001038e-02,-2.193390205502510071e-02,-1.235814299434423447e-02,2.668141853064298630e-03,2.539702691137790680e-02,-1.108967047184705734e-02,-1.302184257656335831e-02,8.713689632713794708e-03,-3.358034417033195496e-02,-3.439240157604217529e-03,8.124434389173984528e-04,-2.583520114421844482e-02,2.113525988534092903e-03,-2.235066518187522888e-02,-8.544580079615116119e-03,1.180442515760660172e-02,1.030791737139225006e-02,-3.291865810751914978e-02,-1.332838833332061768e-02,-3.067339956760406494e-02,-2.933519147336483002e-02,-3.011092171072959900e-02,-1.064714603126049042e-02,2.042253734543919563e-03,2.391871623694896698e-02,-1.230231137014925480e-03,4.515127744525671005e-03,2.203836775152012706e-04,2.581376116722822189e-03,-1.780860684812068939e-02,-6.495560519397258759e-03,-2.876970358192920685e-02,-1.267553493380546570e-02,-5.058861337602138519e-03,-2.897982113063335419e-02,-1.728897914290428162e-02,2.306209318339824677e-02,-1.168907899409532547e-02,-1.341607980430126190e-02,-6.101379985921084881e-04,1.929068751633167267e-02,-2.514606527984142303e-02,-3.671415522694587708e-02,-1.927597448229789734e-03,2.377371117472648621e-02,1.329719461500644684e-02,2.320892177522182465e-02,2.448846213519573212e-02,-2.462692745029926300e-02,-6.665026769042015076e-03,5.945587065070867538e-03,1.079163886606693268e-02,3.982224501669406891e-03,2.269729785621166229e-02,-1.533923903480172157e-03,2.225918695330619812e-03,-1.027863007038831711e-02,-9.584258310496807098e-03,-2.573209069669246674e-02,-4.192120861262083054e-03,4.781374707818031311e-03,1.053976174443960190e-02,-2.062097750604152679e-02,6.859628017991781235e-03,-2.932039555162191391e-03,1.007044594734907150e-02,2.002802677452564240e-03,1.215281803160905838e-02,-2.377265319228172302e-02,-2.335996925830841064e-02,-2.886439487338066101e-02,4.914385732263326645e-03,5.927004851400852203e-03,2.177683264017105103e-02,-2.875035069882869720e-02,-3.359422087669372559e-02,-1.379269175231456757e-02,4.019942134618759155e-03,-2.339810319244861603e-02,-1.087136566638946533e-03,5.578228272497653961e-03,1.906053721904754639e-02,4.344989079982042313e-03,-1.639576628804206848e-02,-1.041884627193212509e-02,-2.730473875999450684e-03,-3.038817457854747772e-02,-1.307109743356704712e-02,-1.948419399559497833e-02,-5.418197833932936192e-04,4.572174046188592911e-03,-3.631950914859771729e-02,-2.517288550734519958e-02,1.164845936000347137e-02,-3.684744611382484436e-02,1.715089194476604462e-02,1.575101912021636963e-02,-3.784102573990821838e-02,-3.891265392303466797e-02,1.410123705863952637e-02,3.729670075699687004e-03,3.101217327639460564e-03,-3.193221241235733032e-02,2.303074300289154053e-02,3.962510265409946442e-03,-3.037090413272380829e-02,-3.657723218202590942e-02,1.422677002847194672e-02,-3.525776788592338562e-02,2.215934917330741882e-02,-2.611456252634525299e-02,-1.012849714607000351e-02,-2.360873110592365265e-02,-3.220973163843154907e-02,-8.395990356802940369e-03,-8.510818704962730408e-03,-1.476012263447046280e-02,-2.986593544483184814e-02,-3.610525280237197876e-02,-1.104861777275800705e-02,-1.734206080436706543e-02,-2.506256289780139923e-02,1.508338376879692078e-02,-1.665166020393371582e-02,-2.715035155415534973e-02,1.891327649354934692e-02,1.585461571812629700e-02,8.277649991214275360e-03,-2.835031971335411072e-02,-2.343592792749404907e-02,2.260281518101692200e-02,-3.866893704980611801e-03,1.700538396835327148e-02,-3.271353244781494141e-02,1.835093274712562561e-02,-6.229939870536327362e-03,-1.371173840016126633e-02,-2.128626033663749695e-02,1.858563744463026524e-03,-1.512172631919384003e-03,-1.558643486350774765e-02,1.288890780415385962e-04,-4.055182915180921555e-03,-2.808563038706779480e-02,-9.013720788061618805e-03,-3.440783172845840454e-02,4.482054151594638824e-03,-3.516612201929092407e-02,-8.966846391558647156e-03,1.765169762074947357e-02,-1.078512519598007202e-02,2.902082167565822601e-03,-1.792751438915729523e-02,-1.761530712246894836e-02,-1.290493737906217575e-02,-1.064711064100265503e-02,-1.560047361999750137e-02,-2.562184818089008331e-02,3.866821352858096361e-04,1.920228078961372375e-02,9.516275487840175629e-03,-3.481419757008552551e-03,-2.570919319987297058e-02,-1.231819018721580505e-02,-2.110899798572063446e-02,1.450935006141662598e-02,-3.009460866451263428e-03,-4.113650415092706680e-03,-1.129228505305945873e-03,3.145347116515040398e-03,1.682579889893531799e-02,2.510495297610759735e-02,-2.693154662847518921e-02,1.614080742001533508e-02,4.583984147757291794e-03,1.827059499919414520e-02,-1.594919152557849884e-02,-1.194813568145036697e-02,-2.353992545977234840e-03,1.988622359931468964e-03,2.689306158572435379e-03,-1.153136231005191803e-02,-2.758665755391120911e-02,-4.470255691558122635e-03,-1.639342866837978363e-02,-2.558340132236480713e-02,2.163833752274513245e-02,-3.250547498464584351e-02,-1.205103006213903427e-02,-3.393081575632095337e-02,3.009540261700749397e-03,1.170368399471044540e-02,7.519851904362440109e-03,-2.947561675682663918e-03,-2.300589159131050110e-02,-2.827652543783187866e-02,1.781365089118480682e-02,-6.507691927254199982e-03,8.523970842361450195e-03,-1.359216310083866119e-02,2.289785631000995636e-02,1.142575591802597046e-02,-2.449747361242771149e-02,-1.452790759503841400e-02,2.446825616061687469e-02,-2.670705504715442657e-02,7.826643995940685272e-03,3.670923179015517235e-03,6.350925192236900330e-03,-9.185817092657089233e-03,1.391245052218437195e-02,-2.540619485080242157e-02,-2.748643979430198669e-02,-6.477444432675838470e-03,-5.983102601021528244e-03,2.223306708037853241e-02,-3.029225766658782959e-02,1.300100237131118774e-03,-5.815479438751935959e-03,-2.328343316912651062e-02,-2.535702893510460854e-03,-3.405733965337276459e-03,1.692616264335811138e-03,1.216637436300516129e-02,7.793876342475414276e-03,-2.202333137392997742e-02,1.045504491776227951e-02,-1.533861737698316574e-02,1.505045592784881592e-02,-2.924937568604946136e-02,7.513855583965778351e-03,-2.192311547696590424e-02,-2.413515932857990265e-02,-2.938665077090263367e-02,-2.893101982772350311e-02,-3.266882523894309998e-02,2.425939403474330902e-02,-2.990430407226085663e-02,-2.355193719267845154e-02,1.719716191291809082e-02,-7.833476178348064423e-03,-1.582255400717258453e-02,-1.566013693809509277e-02,1.083948276937007904e-02,-2.721063420176506042e-02,-3.118382394313812256e-02,5.191084928810596466e-03,-3.192332386970520020e-02,1.272193994373083115e-02,2.318548969924449921e-02,-2.701684646308422089e-02,1.550172641873359680e-02,2.249377779662609100e-03,1.596428453922271729e-02,-3.317990154027938843e-02,1.483358629047870636e-02,5.173755809664726257e-03,1.415870897471904755e-02,-5.734497215598821640e-03,-1.641579903662204742e-02,1.243458408862352371e-02,1.992008276283740997e-02,-8.825689554214477539e-03,-1.297375652939081192e-02,-3.595984727144241333e-02,-3.022898221388459206e-03,3.168314869981259108e-04,-1.367997936904430389e-02,-3.232543170452117920e-02,-2.336702123284339905e-02,-1.637843251228332520e-02,1.454228442162275314e-02,1.959200948476791382e-02,-2.260258607566356659e-02,2.332352288067340851e-02,2.201553620398044586e-02,-2.698848955333232880e-02,-5.500733386725187302e-03,9.569172747433185577e-03,1.421286351978778839e-02,-3.090878599323332310e-04,-1.144054927863180637e-03,1.626209542155265808e-02,-1.792456954717636108e-03,-3.686715662479400635e-02,-1.393688935786485672e-02,-2.900373376905918121e-02,-2.123213931918144226e-02,5.515934433788061142e-03,-3.025661036372184753e-02,5.014428868889808655e-03,1.476772129535675049e-02,-2.756107039749622345e-02,-1.203837804496288300e-02,9.608536027371883392e-03,-3.186495602130889893e-02,-1.488561742007732391e-03,2.530985511839389801e-03,-2.502655424177646637e-02,-3.604009374976158142e-02,2.277292869985103607e-02,-3.128939133603125811e-04,2.515058033168315887e-03,-1.712021604180335999e-02,2.441995777189731598e-02,-4.674124997109174728e-03,1.369751337915658951e-02,2.065829746425151825e-02,-2.652183920145034790e-02,-2.125073038041591644e-02,4.308015108108520508e-03,1.135922223329544067e-02,-1.074432075256481767e-04,1.402689795941114426e-02,-3.052923269569873810e-02,2.466849237680435181e-02,-3.640962392091751099e-02,-5.247671157121658325e-03,2.063513919711112976e-02,2.183913812041282654e-02,1.949801668524742126e-02,-1.853849180042743683e-02,9.565903805196285248e-03,-9.168719872832298279e-03,-3.895345702767372131e-02,-2.208340726792812347e-02,2.059263922274112701e-02,-7.275733165442943573e-03,-3.169605135917663574e-02,2.169116958975791931e-02,1.016325131058692932e-02,-1.148640923202037811e-02,-1.336635556071996689e-02,-1.470992341637611389e-02,5.805022083222866058e-03,1.517944224178791046e-02,2.005433477461338043e-02,3.144194139167666435e-03,1.038306299597024918e-02,-2.718238346278667450e-02,-8.904849179089069366e-03,1.833197777159512043e-03,-8.111299830488860607e-04,-3.757918998599052429e-02,-1.052012853324413300e-02,-4.535342566668987274e-03,1.588406041264533997e-02,-1.326886378228664398e-02,-2.776937931776046753e-02,-1.003357116132974625e-02,1.462148409336805344e-02,1.205121818929910660e-02,5.333544220775365829e-03,-2.157644927501678467e-02,-1.607066579163074493e-02,-3.575365990400314331e-02,5.647604353725910187e-03,-3.482928499579429626e-02,-1.269922032952308655e-02,7.145315874367952347e-03,5.417210049927234650e-03,2.472871169447898865e-02,-3.180465847253799438e-02,-1.263988018035888672e-02,-1.489924173802137375e-02,-1.149514969438314438e-02,-5.608789157122373581e-03,-3.023580648005008698e-02,-6.359448656439781189e-03,-1.487935055047273636e-02,-1.667233183979988098e-02,-6.274850573390722275e-03,5.138243523106211796e-06,-3.471820801496505737e-02,4.605238791555166245e-03,-2.337640710175037384e-02,-7.409366313368082047e-03,-9.028785862028598785e-03,-1.137958839535713196e-02,-3.748706728219985962e-02,-8.693577721714973450e-03,1.439081318676471710e-02,-3.071847930550575256e-02,1.314975414425134659e-02,-1.402560807764530182e-02,-1.472835708409547806e-02,2.190359681844711304e-02,2.205912582576274872e-02,4.886477254331111908e-03,1.269713416695594788e-02,-3.577877581119537354e-02,-1.774157746694982052e-03,-1.633385382592678070e-02,1.239710021764039993e-02,-2.247591502964496613e-03,-2.922616712749004364e-02,1.918515423312783241e-03,2.280835434794425964e-02,1.877298578619956970e-02,-3.061008639633655548e-02,-1.990727148950099945e-02,-9.768645279109477997e-03,1.499555353075265884e-02,-1.651472225785255432e-02,1.332258526235818863e-02,5.441530607640743256e-03,-7.912197150290012360e-03,2.313005365431308746e-02,-3.139055147767066956e-02,2.551349438726902008e-02,1.873864419758319855e-02,1.048406586050987244e-02,2.296288125216960907e-02,-1.347323413938283920e-02,-3.546605259180068970e-02,-2.096253447234630585e-02,2.297301217913627625e-02,1.132206711918115616e-02,-2.206648327410221100e-02,-1.256872341036796570e-02,2.342648617923259735e-02,-3.050675382837653160e-03,-1.689287461340427399e-02,2.328921295702457428e-02,2.232553064823150635e-02,-3.111862763762474060e-02,-2.674330025911331177e-02,-1.040111389011144638e-02,2.481143176555633545e-02,-4.975080024451017380e-03,-1.903468742966651917e-02,-2.030316926538944244e-02,1.368193048983812332e-02,2.769452985376119614e-03,-3.468032553791999817e-02,-1.323675969615578651e-03,1.820587180554866791e-02,1.652825810015201569e-02,-2.450424619019031525e-02,2.349951863288879395e-02,1.385654509067535400e-02,-2.010743133723735809e-02,1.373836863785982132e-02,-3.615935891866683960e-02,-3.532497212290763855e-02,2.414164505898952484e-02,9.055568836629390717e-03,7.299262564629316330e-03,-2.340719848871231079e-02,1.907761022448539734e-02,-2.992807887494564056e-02,2.411680668592453003e-02,-1.764904148876667023e-02,2.137965150177478790e-02,-2.694637700915336609e-02,-9.187982068397104740e-04,-1.650104066357016563e-03,-1.040657889097929001e-02,8.393604075536131859e-04,-1.312810834497213364e-02,1.242328528314828873e-02,-2.853948064148426056e-02,2.557522244751453400e-02,2.494796551764011383e-02,-2.307579852640628815e-02,-1.389530114829540253e-02,-1.952416636049747467e-02,-1.541045587509870529e-02,-2.119228616356849670e-02,-2.247829735279083252e-02,-6.355652585625648499e-03,-1.247010380029678345e-02,3.462219377979636192e-03,3.644827520474791527e-03,-2.000509528443217278e-03,2.125838957726955414e-02,-2.619715221226215363e-02,5.844556726515293121e-03,-3.575351834297180176e-02,2.446125261485576630e-02,1.393425464630126953e-02,-9.790270589292049408e-03,6.490041967481374741e-03,-1.619404740631580353e-02,-3.291689231991767883e-02,-1.587482984177768230e-03,-1.817328296601772308e-02,1.204701326787471771e-02,-2.808603458106517792e-02,2.117107622325420380e-02,5.593327339738607407e-03,-3.792118653655052185e-02,-1.745380833745002747e-02,1.563414372503757477e-02,1.694049313664436340e-02,2.118972316384315491e-02,-2.771608904004096985e-02,7.484831847250461578e-03,-3.729178011417388916e-02,-1.557131111621856689e-02,-1.634061336517333984e-02,-7.023153360933065414e-03,-1.390224508941173553e-02,-1.010699477046728134e-02,1.569132693111896515e-02,-1.049644965678453445e-02,-2.956187166273593903e-02,-3.307953849434852600e-02,1.296030636876821518e-02,2.323660627007484436e-02,-2.679399028420448303e-02,1.120082568377256393e-02,2.109881490468978882e-02,1.526286918669939041e-02,-1.732420735061168671e-02,-1.532322447746992111e-02,-6.766810547560453415e-03,-3.307035937905311584e-02,2.047733217477798462e-02,2.577663864940404892e-03,-1.258460059762001038e-02,1.112831197679042816e-02,-3.629589080810546875e-02,-1.351492758840322495e-02,-3.136497363448143005e-02,3.094131592661142349e-03,-2.945391088724136353e-02,1.706520654261112213e-02,-2.661601081490516663e-02,-9.182560257613658905e-03,-5.826271139085292816e-03,-2.357731945812702179e-02,1.207492314279079437e-02,-4.160837270319461823e-03,-3.182943537831306458e-02,-1.234472170472145081e-02,-3.667091019451618195e-03,-1.902426779270172119e-02,-3.725691884756088257e-02,-9.296678006649017334e-03,5.923050921410322189e-03,9.684109129011631012e-03,-1.626978442072868347e-02,-3.796412795782089233e-02,2.147612906992435455e-02,2.146240323781967163e-02,2.039523981511592865e-02,-3.942754864692687988e-02,-1.129159331321716309e-02,4.983745049685239792e-03,2.291299775242805481e-02,-1.911641471087932587e-02,-1.604902185499668121e-02,-3.771794587373733521e-02,-1.333518233150243759e-02,-3.170131705701351166e-03,-3.765147924423217773e-02,-3.838431090116500854e-02,1.140801142901182175e-02,-3.288136050105094910e-02,4.111382644623517990e-03,-1.125797163695096970e-03,1.779030822217464447e-02,-7.417609915137290955e-03,-2.813873253762722015e-02,-2.145008556544780731e-02,5.212256684899330139e-03,-6.256354507058858871e-03,2.091370709240436554e-02,-2.357050217688083649e-02,5.879002623260021210e-03,-1.910850591957569122e-02,-3.718545660376548767e-03,-1.757729053497314453e-02,-2.694445289671421051e-02,-8.255583234131336212e-03,1.475278870202600956e-03,-1.634049601852893829e-02,-2.943259431049227715e-03,2.341379038989543915e-02,1.108209043741226196e-02,-1.830434054136276245e-02,-3.022428788244724274e-02,-2.127371542155742645e-02,1.398539356887340546e-02,1.216062158346176147e-02,-2.767985872924327850e-02,2.230362966656684875e-02,-1.795525848865509033e-02,-4.628485534340143204e-03,-1.734879799187183380e-02,-4.482390359044075012e-03,1.752450875937938690e-02,2.088658511638641357e-02,-3.449769318103790283e-02,1.112536806613206863e-02,-1.269425917416810989e-02,3.576837480068206787e-03,-2.447409182786941528e-02,-2.569384314119815826e-02,1.324407756328582764e-02,-3.193777054548263550e-02,-5.464248359203338623e-03,-2.135514840483665466e-02,-3.716136142611503601e-02,1.771335303783416748e-02,2.082149125635623932e-02,-3.112320229411125183e-02,7.563080638647079468e-03,7.838999852538108826e-03,-2.916394500061869621e-03,-6.672563962638378143e-03,-2.420691959559917450e-02,-1.600638777017593384e-02,-2.885892428457736969e-02,2.607655944302678108e-03,-9.838215075433254242e-03,4.988092929124832153e-03,2.076408639550209045e-02,-2.551284153014421463e-03,1.235640235245227814e-02,-2.931161597371101379e-02,1.804920961149036884e-03,-1.029288768768310547e-02,1.673186430707573891e-03,-2.167884074151515961e-02,2.491699531674385071e-03,-6.329976953566074371e-03,6.405802909284830093e-03,1.016479916870594025e-02,1.269715372473001480e-02,3.840163582935929298e-03,-9.558277204632759094e-03,-1.132753398269414902e-02,-1.868151687085628510e-02,-1.873268047347664833e-03,7.628614082932472229e-03,-1.405604835599660873e-02,-2.992327511310577393e-02,8.660027757287025452e-03,1.641336269676685333e-02,-2.339971065521240234e-02,-1.810643821954727173e-02,1.168872602283954620e-02,-2.365978201851248741e-03,-5.149753997102379799e-05,-2.664748206734657288e-02,7.155366707593202591e-03,1.230676192790269852e-02,-3.421117365360260010e-02,1.593031175434589386e-02,1.562830992043018341e-02,1.609328901395201683e-04,-2.373472228646278381e-02,-2.325166203081607819e-02,1.511856261640787125e-02,-2.018469944596290588e-02,-1.456489227712154388e-02,-3.616869077086448669e-02,1.965613802894949913e-03,2.651843475177884102e-03,-3.373437002301216125e-02,-8.712452254258096218e-04,-5.595040973275899887e-03,-2.892137132585048676e-02,2.095508761703968048e-02,1.346504967659711838e-02,1.021357066929340363e-02,-2.810268662869930267e-03,2.162159793078899384e-02,2.240703627467155457e-02,1.704551838338375092e-02,2.056459523737430573e-02,-2.750413957983255386e-03,-1.271754782646894455e-02,2.389827743172645569e-02,1.215750724077224731e-02,9.842597879469394684e-03,1.686469465494155884e-02,-2.175246551632881165e-02,-5.668959580361843109e-03,-1.001295261085033417e-02,-3.138185292482376099e-02,-8.421904407441616058e-03,-3.464795276522636414e-02,-2.463900856673717499e-02,2.136820182204246521e-02,1.327813230454921722e-02,1.712447218596935272e-02,-3.559016436338424683e-02
-8.759692311286926270e-03,-1.367921009659767151e-03,2.497822046279907227e-03,2.080471068620681763e-02,4.675958305597305298e-03,1.367552205920219421e-02,-2.873255498707294464e-02,-2.980641089379787445e-02,8.626896888017654419e-03,-2.342591062188148499e-02,-2.962452545762062073e-02,-1.359409652650356293e-02,-6.651580333709716797e-03,1.724480092525482178e-02,2.722702547907829285e-02,-1.841414719820022583e-02,-1.359981670975685120e-02,-8.624795824289321899e-03,2.790266647934913635e-02,-4.968959838151931763e-04,1.785227656364440918e-02,-2.795678190886974335e-02,8.258771151304244995e-03,-2.706633508205413818e-02,2.039664238691329956e-02,-9.084763005375862122e-03,-2.144364081323146820e-02,2.388255670666694641e-02,-2.439047954976558685e-02,-1.477761566638946533e-02,1.544509455561637878e-02,-1.817380078136920929e-02,-2.842283993959426880e-02,1.218467950820922852e-04,-3.300506621599197388e-03,2.831239998340606689e-02,-2.436208538711071014e-02,1.929424703121185303e-02,-1.940781809389591217e-02,7.867578417062759399e-03,-2.239091321825981140e-02,-2.676675841212272644e-02,3.594614565372467041e-03,2.291537821292877197e-04,-1.199435256421566010e-02,-2.089997380971908569e-02,1.212954521179199219e-03,9.105663746595382690e-03,-2.776926755905151367e-02,-2.232198417186737061e-02,1.192044839262962341e-02,8.453283458948135376e-03,-1.297036930918693542e-02,-8.642856031656265259e-03,-2.622551470994949341e-02,-2.741506695747375488e-02,3.367207944393157959e-03,2.381499484181404114e-02,2.024022117257118225e-02,1.089967787265777588e-02,-1.927229948341846466e-02,-1.692866347730159760e-02,-1.792747527360916138e-02,2.606298774480819702e-03,-1.779157668352127075e-02,1.950779929757118225e-02,1.149843260645866394e-02,-9.814549237489700317e-03,-2.192434668540954590e-02,-2.143127098679542542e-02,-2.281691879034042358e-02,-3.038197942078113556e-02,2.881086990237236023e-02,-1.755748316645622253e-02,-7.550902664661407471e-03,7.450759410858154297e-03,-2.155530080199241638e-02,-8.904067799448966980e-03,7.264096289873123169e-03,-3.077765926718711853e-02,-8.608065545558929443e-03,-5.279436707496643066e-03,-2.055675908923149109e-02,1.532113924622535706e-02,1.658333837985992432e-02,2.657502889633178711e-02,-1.792837306857109070e-02,1.039180904626846313e-02,2.458686381578445435e-02,2.084929868578910828e-02,2.108470723032951355e-02,-2.205205336213111877e-02,-2.600494772195816040e-02,2.938688173890113831e-02,1.588445529341697693e-02,1.813707873225212097e-02,-6.409130990505218506e-03,-2.643346041440963745e-02,1.147879660129547119e-02,-3.050810471177101135e-02,-1.313271559774875641e-02,2.868378162384033203e-02,-1.263501495122909546e-02,1.974414288997650146e-02,2.442551776766777039e-02,3.140032291412353516e-02,1.409496366977691650e-02,-2.021570131182670593e-02,-8.477792143821716309e-03,3.142740577459335327e-02,2.459406852722167969e-03,-1.396316103637218475e-02,-1.189092919230461121e-02,-1.558495685458183289e-03,2.537324652075767517e-02,1.164387166500091553e-02,2.485093474388122559e-02,2.268794551491737366e-02,-3.715794533491134644e-03,1.331131905317306519e-02,1.872410997748374939e-02,9.905558079481124878e-03,6.807137280702590942e-03,8.426725864410400391e-03,-2.715416997671127319e-02,-2.353359386324882507e-02,2.438851073384284973e-02,-2.186733856797218323e-02,-2.872228622436523438e-03,-2.055278979241847992e-02,5.202103406190872192e-03,-2.298113703727722168e-02,4.493542015552520752e-03,-6.541300565004348755e-03,-2.984294667840003967e-02,1.643992960453033447e-02,-2.898708730936050415e-02,-2.018276974558830261e-02,1.763680949807167053e-02,-1.516770943999290466e-02,2.066837251186370850e-02,1.589938998222351074e-03,5.158521234989166260e-04,5.817737430334091187e-03,-2.856492251157760620e-02,-2.350818365812301636e-03,2.477036044001579285e-02,-2.404930256307125092e-02,7.455721497535705566e-03,-1.618757843971252441e-02,-2.050735615193843842e-02,2.686597406864166260e-02,-8.678888902068138123e-03,1.954936236143112183e-02,-1.981806568801403046e-02,-1.854958571493625641e-02,-1.263224706053733826e-02,-3.722586482763290405e-02,-1.654014922678470612e-02,-2.793202735483646393e-02,1.330807432532310486e-02,-2.132245898246765137e-02,-1.301473192870616913e-02,-7.683625910431146622e-03,-1.919549517333507538e-02,-1.724001392722129822e-02,1.057500019669532776e-02,1.113232574425637722e-03,2.174822799861431122e-02,2.895756391808390617e-03,1.461032684892416000e-02,-2.932201884686946869e-02,-1.160725764930248260e-02,-2.631576731801033020e-02,2.073217742145061493e-02,1.104785245843231678e-03,-1.377149485051631927e-02,-3.821220248937606812e-02,-3.902090014889836311e-03,-3.067078068852424622e-02,-3.553516045212745667e-02,1.586953178048133850e-02,7.844842039048671722e-03,9.405473247170448303e-03,1.218084804713726044e-02,1.531793270260095596e-02,2.813353436067700386e-03,-1.844552718102931976e-02,-1.325906906276941299e-02,-1.703333691693842411e-03,-3.853777796030044556e-02,-7.068082224577665329e-03,-3.954966738820075989e-02,-5.226762965321540833e-03,2.133185602724552155e-02,1.784707233309745789e-02,1.822650618851184845e-02,-2.046350156888365746e-03,-6.706011947244405746e-03,-2.343791164457798004e-02,-3.632571920752525330e-02,-6.745787104591727257e-04,1.507352758198976517e-02,-2.758209407329559326e-02,-1.270334795117378235e-02,-3.415850549936294556e-02,2.157271653413772583e-02,-2.383564040064811707e-02,-2.905757725238800049e-02,1.228907331824302673e-02,8.348519913852214813e-03,-2.752852253615856171e-02,2.997294068336486816e-03,1.796584762632846832e-02,-1.424448750913143158e-02,-2.333218231797218323e-02,1.505893468856811523e-02,6.411490030586719513e-04,-2.776402793824672699e-02,-2.088777348399162292e-02,1.475030183792114258e-02,-3.529818728566169739e-02,-2.320700511336326599e-02,-1.828831061720848083e-02,-2.617801167070865631e-02,-2.188248373568058014e-02,2.462937962263822556e-03,1.063406281173229218e-02,-5.611090455204248428e-03,-2.490992099046707153e-02,1.398559287190437317e-02,-3.127317130565643311e-02,-2.440293319523334503e-02,-3.555281832814216614e-02,-1.218371093273162842e-02,2.885034075006842613e-03,2.537237852811813354e-02,-1.869564875960350037e-02,9.989201091229915619e-03,1.954760588705539703e-02,-5.241342354565858841e-03,-1.454201061278581619e-02,-2.186089009046554565e-02,-1.948702894151210785e-02,2.494084462523460388e-02,-3.226634860038757324e-02,-1.550332549959421158e-02,2.251306362450122833e-02,-2.322731725871562958e-02,2.006012573838233948e-02,-1.673024892807006836e-02,1.439258735626935959e-02,7.491241558454930782e-04,1.118501555174589157e-02,-3.540637344121932983e-02,4.655474796891212463e-03,1.474321726709604263e-02,7.672209292650222778e-03,-2.408962137997150421e-02,3.881381126120686531e-03,-4.363240208476781845e-03,1.350429560989141464e-02,-1.786479726433753967e-02,-1.666221581399440765e-02,1.238226983696222305e-02,5.723981303162872791e-04,1.510817743837833405e-02,-3.536505252122879028e-02,6.499041337519884109e-03,2.583417575806379318e-03,1.779793947935104370e-02,-1.432766113430261612e-02,-2.172494679689407349e-02,2.355759404599666595e-02,-3.446469083428382874e-02,1.085869129747152328e-02,9.849982336163520813e-03,-1.437425147742033005e-02,4.851877747569233179e-04,-5.189701332710683346e-04,-3.142823651432991028e-02,7.922895252704620361e-03,-6.424325052648782730e-03,9.328243322670459747e-03,6.834485568106174469e-03,2.262443676590919495e-02,3.624520264565944672e-03,-1.491761580109596252e-02,2.362010814249515533e-02,-3.125486150383949280e-02,2.056879363954067230e-02,2.549089305102825165e-02,-2.624016813933849335e-02,-7.819001562893390656e-03,-1.994541846215724945e-02,1.126278098672628403e-02,-6.380610633641481400e-03,2.062204107642173767e-02,-2.439711801707744598e-02,1.324296090751886368e-02,-3.718548920005559921e-03,-1.544158719480037689e-02,-2.856149524450302124e-02,2.611907757818698883e-02,-1.468255999498069286e-03,5.379491019994020462e-03,-2.479006163775920868e-02,-3.192069008946418762e-02,-1.015409547835588455e-02,9.668506681919097900e-03,-3.156565502285957336e-02,-1.572385430335998535e-02,-2.663385868072509766e-02,-2.604674361646175385e-02,2.091264165937900543e-02,1.423205062747001648e-02,1.904997415840625763e-02,-1.329909777268767357e-03,1.142317708581686020e-02,-2.365256287157535553e-02,-1.235624961555004120e-02,-2.867204509675502777e-02,9.514668025076389313e-03,-2.559348568320274353e-02,1.766146905720233917e-02,1.490783691406250000e-02,1.779017038643360138e-03,2.566650509834289551e-02,1.615156419575214386e-02,-1.096012908965349197e-02,1.344019453972578049e-02,2.783512510359287262e-02,1.819249801337718964e-02,2.319944836199283600e-02,-2.246570587158203125e-02,-3.284863382577896118e-02,1.422653160989284515e-02,1.403399836272001266e-02,-3.385116532444953918e-02,1.073338091373443604e-02,2.143637090921401978e-02,1.751402206718921661e-02,2.643760107457637787e-02,-2.005674876272678375e-02,-1.582325249910354614e-02,1.428130548447370529e-02,-1.351900864392518997e-02,1.063804235309362411e-02,-3.372059203684329987e-03,2.722066827118396759e-02,-2.107698842883110046e-02,-1.526035834103822708e-03,-1.378728449344635010e-02,-1.829233579337596893e-02,-1.021966151893138885e-02,-1.635110378265380859e-02,2.737402543425559998e-02,5.675026215612888336e-03,-5.590610206127166748e-03,-4.927962552756071091e-03,-1.522824820131063461e-02,-1.630044542253017426e-03,-2.885525114834308624e-02,-1.322923135012388229e-02,-2.960238233208656311e-02,5.895729409530758858e-04,-4.486032761633396149e-03,-3.473870456218719482e-02,-1.121796853840351105e-02,-1.908886618912220001e-02,-1.417498290538787842e-02,-1.444997731596231461e-02,-1.670689904130995274e-03,-1.929911039769649506e-02,2.328748349100351334e-03,-1.479271054267883301e-02,-2.093330025672912598e-02,-2.861853688955307007e-02,1.382288988679647446e-03,-2.331946417689323425e-02,1.424319297075271606e-02,-2.100577019155025482e-02,-2.522939071059226990e-02,-2.366060577332973480e-02,-3.014017827808856964e-02,1.250686589628458023e-02,8.527287282049655914e-03,-1.155353989452123642e-02,-3.473641350865364075e-02,7.585821207612752914e-03,2.334604598581790924e-02,1.396309677511453629e-02,5.819600075483322144e-03,-1.964476704597473145e-02,-2.128658257424831390e-02,5.852464586496353149e-03,-1.832824491430073977e-04,-2.758282795548439026e-02,-7.848891429603099823e-03,-4.553055390715599060e-03,1.350090466439723969e-02,-2.319943346083164215e-02,-2.815420366823673248e-02,-1.809314638376235962e-02,-3.173442184925079346e-02,-3.498739749193191528e-02,1.519589964300394058e-02,-1.906076632440090179e-02,-5.163467954844236374e-03,-2.606862410902976990e-02,5.516247358173131943e-03,-3.546900302171707153e-02,8.469850756227970123e-03,2.412564679980278015e-02,-1.331361941993236542e-02,1.218155305832624435e-02,1.544186845421791077e-02,-5.074360873550176620e-03,1.298849657177925110e-02,3.996351733803749084e-03,-1.046658027917146683e-02,-3.673639521002769470e-02,2.174117229878902435e-02,1.287622284144163132e-02,2.357888501137495041e-03,-4.013182187918573618e-04,-3.002811595797538757e-02,-1.045442279428243637e-02,1.787461899220943451e-02,1.540178060531616211e-02,2.375055290758609772e-02,1.088096643798053265e-03,-9.042358957231044769e-03,-2.987858094274997711e-02,1.848974823951721191e-02,2.553987316787242889e-02,2.473887428641319275e-02,-1.459151413291692734e-02,-3.225354850292205811e-02,-1.634294353425502777e-02,1.588619500398635864e-02,2.508661150932312012e-02,1.584813813678920269e-03,-3.609299659729003906e-02,1.636360026895999908e-02,-3.605091571807861328e-02,2.484914474189281464e-02,-3.887049620971083641e-03,-3.307726606726646423e-02,-2.396707609295845032e-02,5.317982751876115799e-03,2.332739159464836121e-02,1.747801341116428375e-02,2.540776878595352173e-02,-3.139512985944747925e-02,-3.474814118817448616e-03,-1.373276486992835999e-02,7.363507524132728577e-03,1.796337403357028961e-02,-1.648997887969017029e-02,-3.835261566564440727e-03,7.365883328020572662e-03,-3.302742913365364075e-02,-1.216444000601768494e-02,-1.914317719638347626e-02,-1.394615042954683304e-03,1.679190807044506073e-02,2.642853558063507080e-02,-3.124554455280303955e-02,2.133266814053058624e-02,1.629687845706939697e-02,-6.347288843244314194e-03,-6.746714352630078793e-04,2.294854819774627686e-02,1.187438890337944031e-02,-5.112757906317710876e-03,-6.947475485503673553e-03,-4.184084478765726089e-03,-1.326641719788312912e-02,-1.674285717308521271e-02,2.089377306401729584e-02,-3.481931239366531372e-02,1.966224424540996552e-02,-2.694416791200637817e-02,8.386780507862567902e-03,2.312617748975753784e-02,1.312628202140331268e-02,1.885318011045455933e-02,-3.632062673568725586e-02,-2.704834565520286560e-02,-1.828659139573574066e-02,-6.957381032407283783e-03,1.575954258441925049e-02,1.182392612099647522e-02,1.724119298160076141e-03,-2.963859820738434792e-03,-6.873636972159147263e-03,2.414818294346332550e-02,8.491113781929016113e-03,-2.104103378951549530e-02,-3.136432915925979614e-02,-2.917481027543544769e-02,1.031923759728670120e-02,-2.485617436468601227e-02,-1.447136886417865753e-02,-1.649473980069160461e-02,1.587541401386260986e-02,1.260326523333787918e-02,1.055022515356540680e-02,-2.418242581188678741e-02,1.732758432626724243e-02,-9.962359443306922913e-03,-1.274492312222719193e-02,1.832469180226325989e-02,9.036726318299770355e-03,1.811211742460727692e-02,2.503429353237152100e-02,1.754273474216461182e-02,2.144082821905612946e-02,2.608992718160152435e-02,-1.723269815556704998e-03,2.642923407256603241e-02,-3.311567381024360657e-02,1.288770465180277824e-03,-8.370899595320224762e-03,-1.819872413761913776e-03,5.871939938515424728e-03,2.311064675450325012e-02,7.726251613348722458e-03,-2.141482383012771606e-02,-2.644511684775352478e-02,2.161515876650810242e-02,6.637954153120517731e-03,-1.831978186964988708e-02,-4.953402560204267502e-03,-3.091511316597461700e-02,-1.761849410831928253e-02,-9.480720385909080505e-03,-9.660558775067329407e-03,1.337707135826349258e-02,1.270783599466085434e-02,4.139778204262256622e-03,2.037820778787136078e-02,2.693833038210868835e-02,1.580551266670227051e-02,2.288983389735221863e-02,-2.132760547101497650e-02,-2.167678996920585632e-02,-3.134564682841300964e-02,4.390569403767585754e-03,-2.967046014964580536e-02,-1.640420593321323395e-02,-3.750236006453633308e-03,1.508571207523345947e-02,1.087712775915861130e-02,1.775887608528137207e-02,6.046246737241744995e-03,-2.223982941359281540e-03,-1.127617526799440384e-02,1.137379184365272522e-02,-1.510694436728954315e-02,-2.187323756515979767e-02,1.588944531977176666e-02,1.175303757190704346e-02,-9.656520560383796692e-03,3.869248321279883385e-03,1.612780243158340454e-02,-3.018239699304103851e-02,1.404304336756467819e-02,-9.769027819857001305e-04,-9.147619828581809998e-03,1.000935677438974380e-02,-3.370072692632675171e-03,6.195469293743371964e-03,-1.155031099915504456e-02,-2.707493677735328674e-02,-1.743745431303977966e-02,-7.117809727787971497e-03,-4.589367657899856567e-03,1.552731357514858246e-02,1.447940524667501450e-02,1.181361963972449303e-03,-3.570608329027891159e-03,3.132543060928583145e-03,-3.387982770800590515e-02,-2.077706903219223022e-02,-8.820583112537860870e-03,1.858022809028625488e-02,-2.694147080183029175e-02,2.402744069695472717e-02,8.966264314949512482e-03,-1.376396417617797852e-02,1.541471225209534168e-03,-2.413299493491649628e-02,-3.199840197339653969e-03,2.201770432293415070e-02,2.076644822955131531e-02,-3.026466257870197296e-02,-4.919353872537612915e-03,2.212931029498577118e-02,-1.357599906623363495e-02,-3.499845042824745178e-03,-2.691678702831268311e-02,-2.574579976499080658e-02,2.052020095288753510e-02,2.275035157799720764e-02,-1.843320764601230621e-02,2.332359179854393005e-02,2.262655831873416901e-02,-1.645606569945812225e-02,-2.833192981779575348e-02,-4.451217595487833023e-03,-2.415063977241516113e-02,-5.704449489712715149e-03,4.891795571893453598e-03,2.277017943561077118e-02,-6.510839331895112991e-03,-8.853866718709468842e-03,-2.017030678689479828e-02,1.532459631562232971e-02,1.114007271826267242e-02,-3.074735216796398163e-02,-1.251303404569625854e-02,-3.549534827470779419e-02,1.193727646023035049e-02,7.995408959686756134e-03,-8.421232923865318298e-03,9.679966751718893647e-05,5.193335469812154770e-03,2.030001394450664520e-02,1.593545824289321899e-02,-2.600977756083011627e-02,1.467146351933479309e-02,1.880638115108013153e-02,8.071368560194969177e-03,-3.646963508799672127e-03,6.027175579220056534e-03,1.158450543880462646e-02,1.839357800781726837e-02,2.038135379552841187e-02,9.762913919985294342e-03,1.934217475354671478e-02,-3.103900514543056488e-02,-1.747793331742286682e-02,1.394288148730993271e-02,-1.402628404321148992e-04,-2.411209605634212494e-02,-3.204770013689994812e-02,5.137026775628328323e-03,2.159370295703411102e-02,-2.902438864111900330e-02,-2.889087982475757599e-02,1.989482343196868896e-02,-2.027750574052333832e-02,-5.416901316493749619e-03,-1.500042714178562164e-02,2.624428831040859222e-02,-3.422040119767189026e-02,-9.516500867903232574e-03,2.538139931857585907e-02,2.450131066143512726e-02,4.802898969501256943e-03,-6.034962367266416550e-03,7.742013782262802124e-03,-6.159274373203516006e-03,-4.154031630605459213e-03,-2.986205741763114929e-02,-3.129020705819129944e-02,-2.735958434641361237e-02,-2.459102310240268707e-03,-4.016345832496881485e-03,-3.045534715056419373e-02,-1.693182624876499176e-02,1.536713633686304092e-02,2.683007530868053436e-02,-1.873158477246761322e-02,1.726107671856880188e-02,-2.480841800570487976e-02,-2.371612377464771271e-02,-2.442968450486660004e-02,2.605286240577697754e-02,2.516609383746981621e-03,2.661188365891575813e-03,-8.855993859469890594e-03,-3.041607886552810669e-02,9.981001727283000946e-03,1.864765211939811707e-02,-5.574361239268910140e-06,1.458820886909961700e-02,-1.670456491410732269e-02,-2.630581520497798920e-02,-1.135853864252567291e-02,-3.178357705473899841e-02,-2.752674557268619537e-02,-2.957120910286903381e-02,-2.514423429965972900e-02,-1.448497176170349121e-02,1.968657039105892181e-02,-1.920702867209911346e-03,2.578883431851863861e-03,-2.792381308972835541e-02,-2.783593535423278809e-02,1.335177477449178696e-02,5.002436228096485138e-03,1.712178066372871399e-02,-1.295769959688186646e-02,-2.547513134777545929e-02,-1.487994682975113392e-03,-2.029669657349586487e-02,1.567149348556995392e-02,-1.596426777541637421e-02,-6.381083279848098755e-03,8.829951286315917969e-03,1.749854162335395813e-02,1.981443352997303009e-02,2.058533020317554474e-02,9.446336189284920692e-04,-1.249655894935131073e-02,-5.234309006482362747e-03,-2.297683060169219971e-02,-2.362765837460756302e-03,-3.446746990084648132e-02,-1.524740085005760193e-02,-2.911925688385963440e-02,2.409487403929233551e-02,-5.420190747827291489e-03,-2.765970304608345032e-03,-9.405214339494705200e-03,-2.644014544785022736e-02,2.509907446801662445e-02,-3.515196498483419418e-03,1.540727447718381882e-02,-2.736284583806991577e-02,-2.984305471181869507e-02,-1.474189199507236481e-02,-1.293605752289295197e-02,1.477078348398208618e-02,6.723126862198114395e-03,-2.356326021254062653e-02,1.939984038472175598e-02,1.657780259847640991e-02,-9.599053300917148590e-03,6.242375820875167847e-03,2.376528270542621613e-02,3.440095752011984587e-04,2.628685161471366882e-02,-5.379067733883857727e-03,-3.092814050614833832e-02,-2.905089780688285828e-02,-4.151426721364259720e-03,-1.267666835337877274e-02,-9.936685673892498016e-03,-3.096314147114753723e-02,-8.456763811409473419e-03,1.966282539069652557e-02,-3.122580051422119141e-02,2.398533187806606293e-02,8.841600269079208374e-03,1.918216794729232788e-02,2.131344377994537354e-02,2.622197940945625305e-02,-2.459807321429252625e-02,1.781280501745641232e-03,-1.923666149377822876e-02,-2.821691893041133881e-02,-3.328375145792961121e-02,2.448990941047668457e-02,7.556518539786338806e-03,-2.418509311974048615e-02,-4.024146124720573425e-03,1.585787907242774963e-02,9.565592743456363678e-03,1.244585681706666946e-02,-3.185215964913368225e-02,6.670976523309946060e-03,9.693941101431846619e-04,-2.493624202907085419e-02,2.268881723284721375e-02,-8.186501450836658478e-03,2.220297465100884438e-03,-3.528039669618010521e-03,-7.121063303202390671e-03,-3.294429183006286621e-02,2.398851141333580017e-02,-5.531373899430036545e-03,-1.592144556343555450e-02,1.364108454436063766e-02,6.652381736785173416e-03,-1.679298095405101776e-02,-4.637334495782852173e-04,1.394699234515428543e-02,1.070108846761286259e-03,-2.781840600073337555e-02,-3.338469192385673523e-02,-1.847966574132442474e-02,1.965736970305442810e-02,-3.404908254742622375e-02,-3.442919114604592323e-03,2.015507780015468597e-04,2.158164232969284058e-02,7.266105152666568756e-03,-2.010364457964897156e-02,-3.224810212850570679e-02,-2.000193111598491669e-02,1.375338621437549591e-02,-3.529421519488096237e-03,2.413649111986160278e-02,-2.863652445375919342e-02,-3.386582434177398682e-02,-5.953887943178415298e-03,1.049844431690871716e-03,-1.554331509396433830e-03,9.197885810863226652e-05,2.024408662691712379e-03,4.676182288676500320e-03,3.581109922379255295e-03,1.336508896201848984e-03,1.549106650054454803e-02,2.129344735294580460e-03,1.996950618922710419e-02,-3.516503050923347473e-02,-3.057239390909671783e-02,-8.834601379930973053e-03,1.702771335840225220e-02,2.119277417659759521e-02,-2.923623844981193542e-02,-2.270467206835746765e-02,2.165411785244941711e-02,-3.434589877724647522e-02,-2.069819346070289612e-02,9.126171353273093700e-04,-8.115535601973533630e-03,2.612822689116001129e-02,-2.998734125867486000e-03,1.781070418655872345e-02,-2.729460410773754120e-02,-2.349209785461425781e-02,9.667996317148208618e-03,-1.252454612404108047e-02,-2.950864098966121674e-02,-3.071683458983898163e-02,2.505403710529208183e-03,-3.189552575349807739e-02,-3.000687807798385620e-02,1.411591842770576477e-02,4.197002388536930084e-03,-4.837028100155293941e-04,-1.181083451956510544e-02,2.926987828686833382e-03,8.588646538555622101e-03,7.547149900346994400e-03,2.213697507977485657e-02,-9.285016916692256927e-03,-7.163985632359981537e-03,-8.259880356490612030e-03,-1.412699837237596512e-02,7.276589982211589813e-03,2.143830992281436920e-02,-2.463900856673717499e-02,-2.321813814342021942e-02,2.841131936293095350e-04,-3.337473422288894653e-02,-2.094198018312454224e-02,1.969768479466438293e-02,-1.343445945531129837e-02,-1.202906109392642975e-02,-6.237733177840709686e-03,-1.669358275830745697e-02,1.265400089323520660e-02,-1.771811395883560181e-02,-6.596905877813696861e-04,1.063055079430341721e-02,-5.246054381132125854e-03,8.242582902312278748e-03,-2.700904756784439087e-02,-1.315044052898883820e-02,2.263786457479000092e-02,2.378369122743606567e-02,2.107956260442733765e-02,-1.654329895973205566e-02,2.509613335132598877e-02,2.179214730858802795e-02,7.169760297983884811e-03,-4.614402540028095245e-03,2.471550181508064270e-02,4.720195196568965912e-03,1.702357456088066101e-02,1.696739532053470612e-02,-1.664960011839866638e-02,-2.002812363207340240e-02,-1.476720441132783890e-02,-1.131390314549207687e-02,3.009070875123143196e-03,-3.212856873869895935e-02,-5.102236755192279816e-03,2.774835797026753426e-03,4.860789515078067780e-03,2.579748071730136871e-02,-1.616715267300605774e-02,-2.967776963487267494e-03,4.002743400633335114e-03,1.725507527589797974e-02,-1.854399777948856354e-02,1.735399477183818817e-02,-1.915396563708782196e-02,-2.119644079357385635e-03,2.492260886356234550e-03,-1.500190584920346737e-03,-3.038729913532733917e-02,1.060809753835201263e-02,