-1.235460489988327026e-01,-5.918693542480468750e-02,-3.105427324771881104e-02,7.137656211853027344e-06,-6.503078341484069824e-02,-1.025947928428649902e-02,-9.750755131244659424e-02,1.067738234996795654e-02,-5.998490750789642334e-02,7.109515368938446045e-02,4.607382416725158691e-02,6.836110353469848633e-02,-3.498332202434539795e-02,4.711365699768066406e-02,-3.563222289085388184e-02,-1.163203418254852295e-01,-6.202033162117004395e-02,-3.618612885475158691e-02,-4.130898416042327881e-02,-6.539122760295867920e-02,-5.213700234889984131e-02,-1.211332231760025024e-01,-5.164243280887603760e-02,-3.896076977252960205e-02,-8.852234482765197754e-02,-5.939313769340515137e-02,7.711377739906311035e-02,3.637824952602386475e-02,-1.798169314861297607e-02,2.177767455577850342e-02,1.034602969884872437e-01,-5.936270952224731445e-02,8.706527948379516602e-02,1.122690886259078979e-01,-1.260524988174438477e-02,1.019860208034515381e-01,-5.715467035770416260e-02,6.658545136451721191e-02,6.040973961353302002e-02,6.355954706668853760e-02,6.202633678913116455e-02,-1.079933345317840576e-02,6.798602640628814697e-02,-3.302672505378723145e-02,1.116859912872314453e-01,-8.814163506031036377e-02,4.803594946861267090e-02,1.992245018482208252e-02,-8.128499984741210938e-02,-6.330446898937225342e-02,7.265456020832061768e-02,1.154335141181945801e-01,7.235378026962280273e-03,7.823638617992401123e-02,-6.788091361522674561e-02,8.206114172935485840e-03,1.007325351238250732e-01,6.798635423183441162e-02,-9.085911512374877930e-02,3.994676470756530762e-02,1.500789821147918701e-02,-8.451598882675170898e-02,1.149287670850753784e-01,1.441740989685058594e-02
-1.959112286567687988e-02,5.928136408329010010e-02,7.302150130271911621e-03,-1.435226202011108398e-02,5.935691297054290771e-02,1.656210422515869141e-02,-8.742196857929229736e-02,-1.167107820510864258e-01,5.237442255020141602e-02,-1.775564253330230713e-02,-1.202733963727951050e-01,1.055060327053070068e-02,-2.554233372211456299e-02,-5.131055414676666260e-02,1.138210743665695190e-01,2.574665844440460205e-02,4.369488358497619629e-02,-1.884022355079650879e-02,2.018350362777709961e-02,1.010402143001556396e-01,6.812103092670440674e-02,-7.584472000598907471e-02,-8.597369492053985596e-02,-9.940701723098754883e-02,7.056735455989837646e-02,-8.644659817218780518e-02,1.105117499828338623e-01,-1.012025922536849976e-01,-1.787714660167694092e-02,1.620560884475708008e-03,-1.490336656570434570e-02,3.662289679050445557e-02,4.060697555541992188e-02,8.476370573043823242e-02,4.936361312866210938e-02,9.117370843887329102e-02,-5.221422016620635986e-02,1.631295680999755859e-02,5.869643390178680420e-02,-2.635562419891357422e-02,9.719054400920867920e-02,1.134352982044219971e-01,-5.179554224014282227e-02,3.216713666915893555e-02,4.709094762802124023e-02,3.852644562721252441e-02,-6.564727425575256348e-02,6.082296371459960938e-02,-8.718520402908325195e-04,-2.066992223262786865e-02,-3.556637465953826904e-02,-1.175243109464645386e-01,-9.315457940101623535e-02,2.851876616477966309e-02,-1.027569174766540527e-01,-8.181798458099365234e-02,-4.540036618709564209e-02,-5.715353786945343018e-02,-1.005511730909347534e-01,-9.699031710624694824e-03,4.517346620559692383e-03,9.370866417884826660e-02,-2.702975273132324219e-02,8.068683743476867676e-02
6.114683672785758972e-02,8.660064637660980225e-02,-3.289765119552612305e-02,-1.075653582811355591e-01,1.051108464598655701e-01,-3.015647642314434052e-02,1.578439585864543915e-02,-3.306123614311218262e-02,2.966435626149177551e-02,-1.388250291347503662e-02,-8.027540147304534912e-02,1.248270273208618164e-01,-5.523017048835754395e-02,1.040537878870964050e-01,-1.097507774829864502e-02,7.217039167881011963e-02,1.067972779273986816e-01,1.051551550626754761e-01,-2.163491398096084595e-02,-8.882515877485275269e-02,-1.151633113622665405e-01,-5.955500155687332153e-02,7.254123687744140625e-02,4.220432136207818985e-03,9.082249552011489868e-02,1.026485711336135864e-01,2.599737606942653656e-02,-1.124656014144420624e-02,2.451176941394805908e-02,-8.535207808017730713e-02,-4.946018382906913757e-02,1.053867787122726440e-01,-5.962625145912170410e-02,3.669673949480056763e-02,-7.702656090259552002e-02,-7.239628583192825317e-02,7.653212547302246094e-02,-1.286399960517883301e-01,-1.327129006385803223e-01,4.104917868971824646e-02,-6.062209606170654297e-03,1.094329208135604858e-01,3.639240562915802002e-02,-7.643318176269531250e-02,3.147943690419197083e-02,3.668387234210968018e-02,-5.277387797832489014e-02,1.786524057388305664e-02,4.495573416352272034e-02,-2.593865990638732910e-02,1.467873924411833286e-03,-9.839440137147903442e-02,1.104232221841812134e-01,-1.298186928033828735e-01,9.595678001642227173e-02,5.909001827239990234e-02,-1.181460022926330566e-01,1.435860712081193924e-02,7.473158836364746094e-02,-1.164457052946090698e-01,-6.470600608736276627e-03,-3.190497308969497681e-02,-9.689962863922119141e-02,-1.638141274452209473e-02
8.640807867050170898e-02,-6.225535273551940918e-02,3.458194434642791748e-02,1.149569451808929443e-01,-2.438008636236190796e-01,9.884735336527228355e-04,7.305144798010587692e-03,1.024267002940177917e-01,2.574119865894317627e-01,8.713360130786895752e-02,-1.203408315777778625e-01,6.932285428047180176e-02,2.947719395160675049e-02,1.347459107637405396e-01,7.103276252746582031e-02,-6.821829080581665039e-02,-1.036458760499954224e-01,-1.114487927407026291e-02,1.130996048450469971e-01,1.298786550760269165e-01,-4.049047529697418213e-01,8.118518441915512085e-02,5.284368991851806641e-02,3.400282263755798340e-01,3.075478076934814453e-01,-1.505197733640670776e-01,-4.496708046644926071e-03,-1.836864203214645386e-01,1.792703568935394287e-02,3.006334602832794189e-02,1.792962402105331421e-01,3.370653092861175537e-02,6.203667819499969482e-02,3.436638042330741882e-02,-1.494659483432769775e-02,3.316382318735122681e-02,9.241455793380737305e-02,2.936597764492034912e-01,2.318106591701507568e-02,-2.302701473236083984e-01,-9.100475907325744629e-02,-6.550399959087371826e-02,1.039506494998931885e-01,-3.416725993156433105e-01,1.058026328682899475e-01,1.296487450599670410e-02,-2.185982465744018555e-02,-3.049122355878353119e-02,8.687037043273448944e-03,3.143096268177032471e-01,2.142165303230285645e-01,-4.437263607978820801e-01,1.958952099084854126e-01,1.983596533536911011e-01,6.757170706987380981e-02,8.614702522754669189e-02,-9.456604719161987305e-03,-3.735818564891815186e-01,2.236777842044830322e-01,8.217339217662811279e-02,1.551185101270675659e-01,-3.681911155581474304e-02,8.491265773773193359e-02,3.952947258949279785e-02
2.090456523001194000e-02,7.832445204257965088e-02,-1.054572314023971558e-01,3.067322261631488800e-02,-4.011106491088867188e-02,-8.377075195312500000e-02,-8.350846916437149048e-02,6.875672191381454468e-02,5.809648707509040833e-02,2.624179422855377197e-02,-1.080845296382904053e-01,-5.752828717231750488e-02,-5.393881723284721375e-02,-9.814702719449996948e-02,-3.454872965812683105e-02,-1.962466537952423096e-02,-1.123496592044830322e-01,-4.574516415596008301e-02,-8.519241958856582642e-02,-5.366752669215202332e-02,3.123632818460464478e-02,1.755835674703121185e-02,-8.042030036449432373e-02,1.311907358467578888e-02,-2.152070589363574982e-02,7.688769698143005371e-02,1.127704977989196777e-01,1.133123785257339478e-01,2.313072979450225830e-02,3.284828364849090576e-02,9.138882905244827271e-02,1.144161075353622437e-01,-2.055270969867706299e-02,-1.909118704497814178e-02,-7.893985509872436523e-02,4.371882602572441101e-02,-1.188224405050277710e-01,2.026846632361412048e-02,9.683201089501380920e-03,-7.932514697313308716e-02,-5.687843263149261475e-02,9.196215867996215820e-02,-1.348868012428283691e-03,-9.187126904726028442e-02,8.540078997611999512e-02,-9.429232776165008545e-02,7.781639695167541504e-03,-1.041264161467552185e-01,8.393985033035278320e-02,5.460534989833831787e-02,-9.706562012434005737e-02,-5.535411834716796875e-02,3.928674384951591492e-03,4.176440834999084473e-02,1.183635219931602478e-01,3.905780380591750145e-03,2.672098577022552490e-02,2.735106460750102997e-02,-1.030595600605010986e-01,-1.130384802818298340e-01,7.495123893022537231e-02,7.723301649093627930e-02,-1.110439673066139221e-01,-8.608773350715637207e-03
8.456960320472717285e-02,-1.134681999683380127e-01,4.310768842697143555e-02,-8.476081490516662598e-02,8.101241290569305420e-02,6.499654054641723633e-02,-3.600722551345825195e-02,8.224657177925109863e-02,7.667204737663269043e-02,3.909814357757568359e-02,-7.096111774444580078e-03,8.691655099391937256e-02,-1.890388131141662598e-02,7.529158890247344971e-02,-4.358097910881042480e-03,-1.086222380399703979e-01,-5.650512874126434326e-02,-5.811373889446258545e-02,-1.179588586091995239e-01,-2.369886636734008789e-02,5.438700318336486816e-03,9.411026537418365479e-02,-9.908741712570190430e-02,2.700728178024291992e-02,4.110725224018096924e-02,1.371107995510101318e-02,-8.163730800151824951e-02,5.422624945640563965e-02,-3.229066729545593262e-03,5.092163383960723877e-02,-8.454102277755737305e-02,1.169072240591049194e-01,-8.246049284934997559e-03,-4.510901868343353271e-02,1.176402270793914795e-01,9.509924054145812988e-02,2.242960035800933838e-02,-2.752994000911712646e-02,-1.199137270450592041e-01,6.698377430438995361e-02,-4.116529226303100586e-02,1.098103821277618408e-01,3.551629185676574707e-02,-6.610937416553497314e-02,4.768429696559906006e-02,1.059767603874206543e-01,3.946138918399810791e-02,-1.170124113559722900e-02,5.421207845211029053e-02,1.547364890575408936e-02,7.785676419734954834e-02,1.113213598728179932e-01,1.785579323768615723e-02,4.343001544475555420e-02,-5.202363431453704834e-02,-2.690501511096954346e-02,7.186117768287658691e-02,-1.008373945951461792e-01,-3.325010836124420166e-02,2.237638831138610840e-02,-1.223523914813995361e-02,5.751153826713562012e-02,-1.099242866039276123e-01,3.527452051639556885e-02
-1.597735136747360229e-01,-1.060646921396255493e-01,1.769523322582244873e-02,2.767915651202201843e-02,-1.002111807465553284e-01,-5.973077192902565002e-02,-6.236999854445457458e-02,7.575455307960510254e-02,-6.668860465288162231e-02,9.601886570453643799e-02,3.989945352077484131e-02,-1.685570180416107178e-02,-7.747819274663925171e-02,1.908418349921703339e-02,1.088993698358535767e-01,-1.079881787300109863e-01,7.104554772377014160e-02,-8.277370594441890717e-03,-8.777042478322982788e-02,-1.458273082971572876e-02,-8.026257157325744629e-02,-5.617736373096704483e-03,7.681691646575927734e-02,-4.221208859235048294e-03,-6.449887156486511230e-02,7.942900806665420532e-02,-6.892871856689453125e-02,1.041562631726264954e-01,-8.132477104663848877e-02,7.865697145462036133e-03,-2.339485660195350647e-02,-2.051730453968048096e-02,-6.484642624855041504e-02,-7.614803325850516558e-05,2.948190271854400635e-02,-7.644933462142944336e-02,9.427447617053985596e-02,-1.729307882487773895e-02,8.650778979063034058e-02,7.469780743122100830e-03,8.758796751499176025e-02,-7.357457280158996582e-02,-3.088288009166717529e-02,1.719157397747039795e-02,2.846454828977584839e-02,-1.057615280151367188e-01,-7.302257418632507324e-02,1.129007264971733093e-01,-1.141213253140449524e-01,1.423873659223318100e-02,-1.468534767627716064e-01,6.065482646226882935e-02,4.173385724425315857e-02,-1.247004345059394836e-01,-1.368443369865417480e-01,1.005982086062431335e-01,5.335375666618347168e-03,6.271468102931976318e-02,-1.906189024448394775e-01,5.598673224449157715e-02,-1.655864417552947998e-01,3.328562900424003601e-02,-8.233382552862167358e-02,-1.016246974468231201e-01
-1.908865815494209528e-04,-2.994909882545471191e-03,1.017082482576370239e-01,7.592535018920898438e-02,4.477585852146148682e-02,1.131416261196136475e-01,8.781823515892028809e-02,9.556667506694793701e-02,-5.902323499321937561e-02,-2.799332141876220703e-03,8.387805521488189697e-02,2.480930089950561523e-02,-5.216580629348754883e-02,-7.274401187896728516e-02,-1.108410954475402832e-01,-5.658775568008422852e-03,8.499664068222045898e-02,1.372975856065750122e-01,1.006259694695472717e-01,3.122343681752681732e-02,3.350150585174560547e-01,1.011440008878707886e-01,1.051207631826400757e-01,-1.765075773000717163e-01,-2.017621695995330811e-01,-2.245130203664302826e-02,-2.282325550913810730e-02,-6.137563660740852356e-02,-6.788425147533416748e-02,2.505005896091461182e-02,-1.266053617000579834e-01,-1.619155704975128174e-02,9.168298542499542236e-02,3.696104278787970543e-03,3.210654854774475098e-02,4.003262147307395935e-02,-1.072527915239334106e-01,-1.706304848194122314e-01,2.788449078798294067e-02,2.498880028724670410e-01,-3.067657351493835449e-03,2.797874808311462402e-02,1.715540885925292969e-03,1.021698266267776489e-01,2.213366888463497162e-02,-9.820859134197235107e-02,1.112591326236724854e-01,8.534981310367584229e-02,2.574112266302108765e-02,-3.040809333324432373e-01,4.203915596008300781e-02,2.231913954019546509e-01,-7.818585634231567383e-02,-7.897815853357315063e-02,-6.282351166009902954e-02,-1.758667267858982086e-02,-1.327055692672729492e-02,3.015255630016326904e-01,-5.167235806584358215e-02,-7.946491241455078125e-02,-6.230290047824382782e-03,-5.886528640985488892e-02,-1.503532826900482178e-01,8.973720669746398926e-02
8.961269259452819824e-02,-5.911611020565032959e-02,3.687418997287750244e-02,-5.716496706008911133e-02,-1.048220098018646240e-01,-2.064245939254760742e-02,9.485521912574768066e-02,-7.729148864746093750e-02,-4.692211747169494629e-02,9.466448426246643066e-02,1.234325766563415527e-01,-7.972416281700134277e-02,-2.229915559291839600e-02,1.026673018932342529e-01,-1.086034625768661499e-01,-2.892787754535675049e-02,-1.065178513526916504e-01,-3.254367411136627197e-02,-7.705332338809967041e-02,6.962287425994873047e-02,-9.405356645584106445e-02,1.873978972434997559e-02,-3.168888390064239502e-02,-9.812819957733154297e-02,-3.970226645469665527e-02,-2.276916801929473877e-02,-2.037152647972106934e-02,-8.382308483123779297e-02,1.996457576751708984e-02,-1.046834737062454224e-01,-3.149648010730743408e-02,5.146861076354980469e-05,-3.507436811923980713e-02,-8.141320943832397461e-02,-8.831109106540679932e-02,9.453873336315155029e-02,5.772855877876281738e-02,-1.058324426412582397e-01,6.513987481594085693e-02,-3.969396650791168213e-02,-8.876933157444000244e-02,2.468752861022949219e-02,9.336760640144348145e-02,-7.407824695110321045e-02,1.057548522949218750e-01,-5.166937410831451416e-02,-1.287475228309631348e-02,-1.365239918231964111e-02,7.467135787010192871e-02,-1.207522600889205933e-01,-3.528521955013275146e-02,-7.450629770755767822e-02,-1.124251186847686768e-01,-9.364862740039825439e-02,-7.727588713169097900e-02,-2.767366170883178711e-02,-7.225103676319122314e-02,4.435531795024871826e-02,-8.914664387702941895e-02,-4.794219136238098145e-02,-8.660234510898590088e-02,2.210153639316558838e-02,1.019038259983062744e-01,9.334391355514526367e-02
6.898549199104309082e-02,-9.168510138988494873e-02,-2.210181951522827148e-02,-8.400410413742065430e-02,-2.361203730106353760e-02,-7.438570261001586914e-02,4.645043611526489258e-02,-1.096959263086318970e-01,5.222611129283905029e-02,-6.265170872211456299e-02,-5.390435457229614258e-02,1.004261970520019531e-01,-6.723368167877197266e-02,-2.338439226150512695e-04,-6.341397762298583984e-03,-9.276662766933441162e-02,-1.211026012897491455e-01,-1.224372088909149170e-01,5.086991190910339355e-02,-1.220469176769256592e-01,5.374103784561157227e-04,4.128141701221466064e-02,-2.240940928459167480e-03,-5.265022814273834229e-02,1.188021153211593628e-01,2.631664276123046875e-03,-6.055383384227752686e-02,-5.366198718547821045e-02,2.061602473258972168e-02,-5.934141576290130615e-02,7.839362323284149170e-02,1.084480136632919312e-01,9.160776436328887939e-02,-1.184591799974441528e-01,9.229928255081176758e-03,-6.763297319412231445e-02,-1.152848154306411743e-01,9.929370880126953125e-02,-1.190155148506164551e-01,-6.017664074897766113e-02,1.163252890110015869e-01,-2.731205523014068604e-02,9.073503315448760986e-02,9.432955086231231689e-02,-8.453246951103210449e-02,-1.158088892698287964e-01,-4.109431803226470947e-02,-1.802738010883331299e-02,2.043263614177703857e-02,-8.874987065792083740e-02,-1.186877787113189697e-01,8.702421188354492188e-02,1.078973412513732910e-01,5.698053538799285889e-02,-1.757514476776123047e-02,-9.311293065547943115e-02,1.228137314319610596e-01,-1.100368499755859375e-01,1.181808114051818848e-01,-1.231127530336380005e-01,5.140382051467895508e-02,1.067031174898147583e-01,2.148203551769256592e-02,-1.540336012840270996e-02
-9.840920567512512207e-02,1.099631786346435547e-01,2.329623699188232422e-02,-5.548876523971557617e-02,-1.754161715507507324e-02,4.157534241676330566e-02,1.037509441375732422e-01,-1.140801906585693359e-01,1.164135634899139404e-01,2.910621464252471924e-02,-1.181938052177429199e-01,1.205413043498992920e-02,1.250162720680236816e-03,3.141173720359802246e-02,1.163142919540405273e-01,1.239103078842163086e-01,6.040430068969726562e-02,3.222987055778503418e-02,-1.167730540037155151e-01,7.749100029468536377e-02,1.110458374023437500e-01,-9.182569384574890137e-02,7.887950539588928223e-02,8.057695627212524414e-02,3.695544600486755371e-02,-5.972929298877716064e-02,-4.287987947463989258e-03,1.197329014539718628e-01,6.981302797794342041e-02,-1.198877245187759399e-01,9.708720445632934570e-02,1.012974083423614502e-01,-3.714895248413085938e-02,-6.071999669075012207e-02,-3.109753131866455078e-03,2.406238019466400146e-02,-4.660597443580627441e-02,5.373649299144744873e-02,-4.585431516170501709e-02,4.427415132522583008e-02,4.200950264930725098e-03,1.057668328285217285e-01,9.745067358016967773e-02,7.533912360668182373e-02,-6.980833411216735840e-02,-1.019279211759567261e-01,4.724071919918060303e-02,-1.212217658758163452e-01,-3.885090351104736328e-03,6.184437870979309082e-02,1.125531345605850220e-01,-8.897505700588226318e-02,-1.225835382938385010e-01,8.371651172637939453e-02,-3.765739500522613525e-02,4.085966944694519043e-02,-1.840649545192718506e-02,8.643074333667755127e-02,9.894077479839324951e-02,4.726918041706085205e-02,-6.427034735679626465e-02,9.302756190299987793e-02,-3.848592936992645264e-02,9.391646087169647217e-02
-1.065487116575241089e-01,1.718266308307647705e-02,-5.455523729324340820e-02,-9.607210755348205566e-02,-2.730874717235565186e-02,1.183308511972427368e-01,8.615717291831970215e-02,-6.110964715480804443e-02,6.411820650100708008e-04,8.047416806221008301e-03,-8.380147814750671387e-02,1.862449944019317627e-02,-1.225842237472534180e-01,3.689827024936676025e-02,1.009500771760940552e-01,1.125157177448272705e-01,1.209434270858764648e-01,4.515960812568664551e-02,-1.178539693355560303e-01,1.074919104576110840e-02,-3.820835053920745850e-02,5.428314208984375000e-03,8.758082985877990723e-02,9.066289663314819336e-02,-5.270779132843017578e-02,-1.906953752040863037e-02,2.672250568866729736e-02,1.961977779865264893e-02,-5.087554454803466797e-04,-2.410593628883361816e-02,8.383005857467651367e-03,6.124204397201538086e-02,8.648036420345306396e-02,8.193783462047576904e-02,-5.554606020450592041e-02,-1.239762604236602783e-01,-8.025893568992614746e-02,-7.139949500560760498e-02,-1.047153472900390625e-01,-7.101345062255859375e-02,2.956253290176391602e-02,-7.436223328113555908e-02,1.988393068313598633e-02,-5.316093564033508301e-02,4.108342528343200684e-02,7.967892289161682129e-02,3.520576655864715576e-02,1.567766070365905762e-03,3.208763897418975830e-02,-4.914774000644683838e-02,4.142278432846069336e-02,7.214008271694183350e-02,-1.188558638095855713e-01,1.170803755521774292e-01,7.063694298267364502e-02,-5.561730265617370605e-02,-9.859265387058258057e-02,-7.167018949985504150e-02,-9.670813381671905518e-02,-6.571736931800842285e-02,-8.054913580417633057e-02,5.448226630687713623e-02,3.393493592739105225e-02,3.882758319377899170e-02
8.191979676485061646e-02,3.105011582374572754e-02,9.170246124267578125e-02,-4.229007661342620850e-02,-2.907418608665466309e-01,-2.033804953098297119e-01,3.617116482928395271e-03,1.090485826134681702e-01,3.819348812103271484e-01,5.465552210807800293e-03,-2.724051177501678467e-01,4.123330116271972656e-02,-5.539971590042114258e-02,1.530027836561203003e-01,1.175463646650314331e-01,-1.206146329641342163e-01,2.923329174518585205e-02,6.035147607326507568e-02,3.584802616387605667e-03,-1.272307708859443665e-02,-3.463101685047149658e-01,1.699789762496948242e-01,9.522196650505065918e-02,3.767925202846527100e-01,2.703109085559844971e-01,-1.128190606832504272e-01,1.031228229403495789e-01,-2.504213340580463409e-02,-1.046690344810485840e-02,1.068752855062484741e-01,5.714523196220397949e-01,-3.999920189380645752e-02,-1.429897546768188477e-02,2.417093366384506226e-01,-1.068653613328933716e-01,2.366155572235584259e-02,-8.148558437824249268e-02,2.083544731140136719e-01,1.691733449697494507e-01,-2.271378785371780396e-01,-1.216619759798049927e-01,-8.779264986515045166e-02,-4.029390215873718262e-02,-4.127934575080871582e-01,3.161422610282897949e-01,5.146317183971405029e-02,-2.370263636112213135e-02,7.147014141082763672e-02,1.238764729350805283e-02,4.944666624069213867e-01,3.125496208667755127e-01,-3.113375306129455566e-01,1.447251141071319580e-01,7.951699942350387573e-02,5.406594648957252502e-02,1.517898142337799072e-01,-6.516796350479125977e-02,-2.980968058109283447e-01,2.937765717506408691e-01,1.736013591289520264e-02,6.716785579919815063e-02,-2.962766587734222412e-02,1.909056305885314941e-01,-3.852507472038269043e-02
-9.228751063346862793e-02,-8.968639373779296875e-02,9.420275688171386719e-03,-7.576178014278411865e-02,-9.019583463668823242e-02,-6.117007136344909668e-02,5.841578543186187744e-02,1.078415364027023315e-01,6.967493891716003418e-02,-1.098413765430450439e-02,-4.196667671203613281e-02,-6.039717793464660645e-02,8.927352726459503174e-02,2.313092350959777832e-02,-2.234254777431488037e-02,9.936408698558807373e-02,-9.930703043937683105e-02,-9.589707851409912109e-02,-7.698956131935119629e-02,-8.583974838256835938e-02,2.246971428394317627e-02,-6.766721606254577637e-03,-8.117760717868804932e-02,-8.406288921833038330e-02,9.994138777256011963e-02,-1.119455099105834961e-01,-4.618421196937561035e-02,5.174474418163299561e-02,-5.863632261753082275e-02,-7.476961612701416016e-02,-8.262349665164947510e-02,-8.561949431896209717e-02,1.052434444427490234e-01,4.918833076953887939e-02,1.770813763141632080e-02,-1.439344882965087891e-02,7.532860338687896729e-02,-8.284042775630950928e-02,-3.601671755313873291e-02,2.358579635620117188e-02,-1.245754808187484741e-01,1.025955677032470703e-01,4.540112614631652832e-02,1.246367394924163818e-01,3.312303125858306885e-02,1.781396567821502686e-02,1.012047529220581055e-01,4.383431375026702881e-02,1.086656302213668823e-01,-4.779210686683654785e-02,1.228195428848266602e-01,5.724769830703735352e-02,6.030586361885070801e-02,1.174267530441284180e-01,-1.125418543815612793e-01,-1.223331540822982788e-01,-9.927192330360412598e-02,-2.146956324577331543e-02,-7.747229933738708496e-02,3.429651260375976562e-04,-9.936499595642089844e-02,-2.249813079833984375e-02,-2.830062806606292725e-02,8.994121849536895752e-02
9.139308333396911621e-02,6.987136602401733398e-02,-1.065634340047836304e-01,1.160249114036560059e-03,5.056807398796081543e-02,-1.217911243438720703e-01,-6.157523393630981445e-02,-8.511021733283996582e-02,2.242277562618255615e-02,7.987111806869506836e-02,7.599471509456634521e-02,-1.988074183464050293e-02,-3.197896480560302734e-02,-9.384498000144958496e-02,1.229195296764373779e-01,-8.819632232189178467e-02,-8.763435482978820801e-02,6.911309063434600830e-02,-6.002281606197357178e-02,-4.150649905204772949e-02,6.233784556388854980e-02,6.653653085231781006e-02,-1.691916584968566895e-02,2.245686948299407959e-02,-9.747445583343505859e-04,-5.448296666145324707e-03,-7.619118690490722656e-02,6.462535262107849121e-02,-7.702973484992980957e-02,-8.904005587100982666e-02,-8.485680818557739258e-02,7.808224856853485107e-02,-1.129297912120819092e-01,7.150986790657043457e-02,1.018419265747070312e-01,-1.140015572309494019e-01,2.640582621097564697e-02,1.337923109531402588e-02,-3.742717206478118896e-02,-9.590961039066314697e-02,6.153324246406555176e-02,-5.101920664310455322e-02,-6.686930358409881592e-02,-1.092581003904342651e-01,1.122957915067672729e-01,1.707974076271057129e-02,1.091904193162918091e-01,-1.053886115550994873e-01,2.085964381694793701e-02,-8.090093731880187988e-03,-5.753028392791748047e-02,-4.680746793746948242e-02,-1.910972595214843750e-02,6.558202207088470459e-02,2.009257674217224121e-03,-9.816303849220275879e-02,8.020684123039245605e-03,-1.030756086111068726e-01,-6.851953268051147461e-02,-4.980064928531646729e-02,-6.078045070171356201e-02,8.859676122665405273e-02,-1.169382035732269287e-01,8.905698359012603760e-02
9.926666319370269775e-02,-5.911312997341156006e-02,6.232738494873046875e-03,5.149753764271736145e-03,4.126137867569923401e-02,-7.831726968288421631e-02,-8.088456094264984131e-02,-1.116244867444038391e-01,-4.387331381440162659e-02,9.554854035377502441e-02,1.469003222882747650e-02,8.172063529491424561e-02,-6.076285615563392639e-02,-3.566413372755050659e-02,-3.511968255043029785e-02,-8.654239773750305176e-02,6.788545846939086914e-02,6.417097896337509155e-02,4.952588304877281189e-02,-2.255781926214694977e-02,-1.380010508000850677e-02,9.156978875398635864e-02,-1.003837585449218750e-01,-1.098079793155193329e-02,1.123694032430648804e-01,-4.092271998524665833e-02,-1.371719688177108765e-02,6.663024425506591797e-03,-9.361195564270019531e-02,1.888555288314819336e-02,6.457675248384475708e-02,5.260159075260162354e-02,-5.832685530185699463e-02,9.179070591926574707e-02,3.850102424621582031e-03,-1.204166561365127563e-01,-1.978911459445953369e-02,-9.868644177913665771e-02,-5.116176605224609375e-02,7.969250530004501343e-02,9.858523309230804443e-02,9.932909905910491943e-02,1.119875609874725342e-01,-8.384617418050765991e-02,1.026948392391204834e-01,-5.390265583992004395e-02,7.263511419296264648e-02,-8.466631174087524414e-02,-5.354390293359756470e-02,1.011344790458679199e-01,2.036368846893310547e-02,-5.888282507658004761e-02,-8.061138540506362915e-02,4.309336468577384949e-02,3.681785240769386292e-02,-6.759940087795257568e-02,2.472934126853942871e-02,-9.821716230362653732e-04,4.731490090489387512e-02,6.312154233455657959e-02,1.017559766769409180e-01,8.600328862667083740e-02,8.158605545759201050e-02,3.853300213813781738e-02
-8.969861268997192383e-02,4.196035861968994141e-02,-1.335069537162780762e-02,7.719498127698898315e-02,-1.049351990222930908e-01,-1.177413910627365112e-01,1.024456229060888290e-02,-3.470436111092567444e-02,2.300086244940757751e-02,-4.570366442203521729e-02,1.081561595201492310e-01,-1.026402264833450317e-01,-2.805088460445404053e-02,-2.699623070657253265e-02,6.310994923114776611e-02,1.104469597339630127e-01,4.186946153640747070e-02,-6.731016933917999268e-02,8.655600249767303467e-02,-3.459570556879043579e-02,7.719754427671432495e-02,-3.883730992674827576e-02,-5.803972482681274414e-02,-1.044135726988315582e-02,1.000068783760070801e-01,-7.934090495109558105e-02,-9.994409233331680298e-02,-1.094755902886390686e-01,-1.208141446113586426e-02,-6.381255388259887695e-02,1.115856096148490906e-01,7.425189018249511719e-03,5.264478921890258789e-02,-5.329766124486923218e-02,-5.120842158794403076e-02,8.824054151773452759e-02,-1.846012473106384277e-02,-3.821126371622085571e-02,1.103331819176673889e-01,-8.466298133134841919e-02,2.803008258342742920e-02,-1.928478479385375977e-02,-7.944275438785552979e-02,-8.295945823192596436e-02,-3.182964026927947998e-02,9.921351075172424316e-02,4.981112480163574219e-02,6.721641123294830322e-02,-1.268917471170425415e-01,-3.361530601978302002e-02,-2.664072625339031219e-02,1.079539489001035690e-02,2.852756343781948090e-02,5.465262383222579956e-02,-7.274972740560770035e-03,5.747043341398239136e-02,-8.407628536224365234e-02,9.126022458076477051e-02,-2.711457433179020882e-03,-8.425511419773101807e-02,6.984968204051256180e-03,-8.749424479901790619e-03,-9.438861161470413208e-02,4.485966265201568604e-02
4.782105982303619385e-02,1.005568802356719971e-01,-1.768729090690612793e-02,5.040419101715087891e-02,9.145384281873703003e-02,1.149885952472686768e-01,-1.024091914296150208e-01,8.542574942111968994e-02,-8.197126537561416626e-02,-7.244792580604553223e-02,1.211453899741172791e-01,-3.971008956432342529e-02,9.215068817138671875e-02,8.459470421075820923e-02,6.988121569156646729e-02,4.817408323287963867e-02,3.860716521739959717e-02,-5.789704993367195129e-02,6.310445815324783325e-02,3.833108022809028625e-02,1.164505332708358765e-01,9.080262482166290283e-02,-7.713608443737030029e-02,8.696427941322326660e-02,-1.272789686918258667e-01,9.352508187294006348e-02,2.654236555099487305e-02,-4.040766134858131409e-02,2.702151238918304443e-02,2.413681149482727051e-02,-1.786531694233417511e-02,6.277891993522644043e-02,-4.782408475875854492e-02,-5.604163557291030884e-02,-3.302350640296936035e-03,-7.848469167947769165e-02,-1.659676432609558105e-03,1.879135263152420521e-03,-1.245860233902931213e-01,-8.652376383543014526e-02,-3.882914781570434570e-02,-1.541334390640258789e-02,9.582281112670898438e-02,1.065366268157958984e-01,2.704089134931564331e-02,-1.181303709745407104e-01,2.595479786396026611e-02,-8.856704831123352051e-02,-9.470327943563461304e-02,1.861496642231941223e-02,-1.295621395111083984e-01,-3.720632940530776978e-02,-1.433029621839523315e-01,6.833039969205856323e-02,-4.122342169284820557e-02,-1.009716168045997620e-01,-2.193349599838256836e-02,7.555050402879714966e-02,-2.246899716556072235e-02,5.491439998149871826e-02,-2.502368018031120300e-02,1.163228601217269897e-02,-1.601461917161941528e-01,-6.433390080928802490e-02
5.319728050380945206e-03,7.996325194835662842e-02,4.837836325168609619e-02,-3.744566114619374275e-03,1.794403195381164551e-01,1.559284329414367676e-01,-3.354524448513984680e-02,1.019570529460906982e-01,-7.943161576986312866e-02,-1.711255311965942383e-02,1.001498699188232422e-01,-4.136563837528228760e-02,2.632315829396247864e-02,2.505668997764587402e-02,-8.660687506198883057e-02,9.862276911735534668e-02,8.179336786270141602e-02,-7.179191708564758301e-02,-9.306064248085021973e-02,1.343334168195724487e-01,1.526680439710617065e-01,1.091201901435852051e-01,3.279580175876617432e-02,-1.580650806427001953e-01,-5.100667104125022888e-02,5.944428965449333191e-02,-1.360128223896026611e-01,-2.566750049591064453e-01,2.040158212184906006e-02,-4.153199493885040283e-02,-2.902230322360992432e-01,-1.120244711637496948e-01,1.128762364387512207e-01,-6.773316115140914917e-02,-1.107101887464523315e-01,-2.113127894699573517e-02,1.311407983303070068e-02,-2.274097315967082977e-02,-1.082131192088127136e-01,8.520561456680297852e-02,-4.032692313194274902e-02,9.025356173515319824e-02,1.009361445903778076e-02,2.163346558809280396e-01,1.806317269802093506e-02,9.497882425785064697e-02,-4.101935029029846191e-02,1.108298078179359436e-01,-4.315252974629402161e-02,-1.641910225152969360e-01,6.345088779926300049e-02,1.113633066415786743e-01,5.439231917262077332e-02,3.731753444299101830e-03,9.768693149089813232e-02,9.864658862352371216e-02,1.008853614330291748e-01,2.830963432788848877e-01,-1.950141973793506622e-02,4.093945026397705078e-04,2.217114530503749847e-02,5.975054576992988586e-02,-1.437608748674392700e-01,1.166476458311080933e-01
-9.308159351348876953e-03,-1.275621354579925537e-02,9.526532888412475586e-02,-1.206730753183364868e-01,-2.945275604724884033e-02,1.140993386507034302e-01,3.218358755111694336e-02,-7.068480551242828369e-02,-3.555107116699218750e-02,-5.481742322444915771e-02,-1.102383881807327271e-01,-3.949405252933502197e-02,-4.664847254753112793e-02,8.555018901824951172e-02,-4.852034151554107666e-02,1.096711605787277222e-01,4.133060574531555176e-03,4.000610113143920898e-02,-2.406907081604003906e-02,-5.399447679519653320e-02,-6.533724069595336914e-02,5.575996637344360352e-02,-8.390282094478607178e-02,1.870715618133544922e-02,-7.268935441970825195e-04,-1.110909581184387207e-01,-6.991158425807952881e-02,-6.437239050865173340e-02,6.856556236743927002e-02,-3.271844983100891113e-02,1.128734648227691650e-01,-2.330131828784942627e-02,-8.914723992347717285e-03,6.336539983749389648e-03,-6.354571878910064697e-02,2.191722393035888672e-02,9.283217787742614746e-02,-7.174487411975860596e-02,-4.293487966060638428e-02,1.211934089660644531e-01,1.191784888505935669e-01,-7.850547134876251221e-02,5.667605996131896973e-02,9.024153649806976318e-02,-4.800654947757720947e-02,-2.144017815589904785e-02,-6.025785207748413086e-02,7.033957540988922119e-02,-7.209669053554534912e-02,-6.847721338272094727e-02,-4.094338417053222656e-02,-8.363686501979827881e-02,-1.121364980936050415e-01,-2.374397218227386475e-02,5.024221539497375488e-02,-5.762508511543273926e-02,1.011316329240798950e-01,7.745428383350372314e-02,1.006743460893630981e-01,-7.592548429965972900e-02,-9.698802232742309570e-02,-3.640843927860260010e-02,6.182521581649780273e-03,-1.157605648040771484e-02
1.665252447128295898e-02,-7.776997983455657959e-02,4.173190891742706299e-02,-4.664511978626251221e-02,-1.044562160968780518e-01,-1.234774291515350342e-02,-1.012956202030181885e-01,1.124644726514816284e-01,-7.981353998184204102e-02,-9.942620992660522461e-03,-1.897405087947845459e-02,9.892375767230987549e-02,-8.618216216564178467e-02,-4.537226259708404541e-02,-8.346684277057647705e-02,-1.205573230981826782e-01,-6.419403851032257080e-02,-2.210117876529693604e-02,-1.144320964813232422e-01,1.211324334144592285e-01,1.224443465471267700e-01,-4.003918170928955078e-02,4.440604150295257568e-02,-6.124594807624816895e-02,7.603965699672698975e-02,-1.184727251529693604e-02,3.398403525352478027e-02,1.422300934791564941e-03,1.108525246381759644e-01,4.955339431762695312e-02,2.715578675270080566e-02,9.718143939971923828e-02,-6.246848404407501221e-02,-2.857439219951629639e-02,3.534606099128723145e-02,-9.694576263427734375e-02,4.802240431308746338e-02,-6.105791032314300537e-02,-3.938631713390350342e-02,6.125648319721221924e-02,9.877398610115051270e-02,-1.029391884803771973e-01,-8.004401624202728271e-02,1.065286099910736084e-01,1.229247003793716431e-01,-6.652365624904632568e-02,-2.467601001262664795e-02,9.785898029804229736e-02,1.512473821640014648e-02,-1.029568612575531006e-01,6.224702298641204834e-02,-1.065723299980163574e-01,-4.641474783420562744e-02,-1.101603955030441284e-01,-8.210413157939910889e-02,3.174276649951934814e-02,8.587482571601867676e-02,-9.936745464801788330e-02,-1.194028258323669434e-01,4.210567474365234375e-02,-7.296849787235260010e-02,-2.186478674411773682e-02,3.779032826423645020e-02,-6.786219775676727295e-02
-4.532295465469360352e-02,7.477483153343200684e-02,-6.764945387840270996e-02,-8.421619236469268799e-02,5.022656917572021484e-02,-1.010179370641708374e-01,-1.054597347974777222e-01,-1.203496605157852173e-01,-1.742099225521087646e-02,-8.873470127582550049e-02,-1.417119801044464111e-02,-4.954722523689270020e-02,4.021662473678588867e-02,-9.891794621944427490e-02,-5.630090832710266113e-03,-8.718080818653106689e-02,3.532156348228454590e-03,7.423089444637298584e-02,6.395357847213745117e-02,-1.063562631607055664e-01,-9.390462934970855713e-02,6.142994761466979980e-02,8.803118765354156494e-02,5.454872548580169678e-02,-1.025160104036331177e-01,3.102408349514007568e-02,1.666247844696044922e-02,-1.069654673337936401e-01,-4.448808729648590088e-02,-7.844722270965576172e-02,1.441709697246551514e-02,-5.378146469593048096e-02,3.031651675701141357e-02,8.995741605758666992e-03,1.207351982593536377e-01,-1.146642863750457764e-02,7.115755975246429443e-02,-8.340358734130859375e-02,-9.210258722305297852e-02,-5.972921848297119141e-02,-1.111390739679336548e-01,7.560378313064575195e-02,-1.332925260066986084e-02,-9.998716413974761963e-02,7.124391198158264160e-02,1.003584712743759155e-01,-2.767238020896911621e-02,-8.792810142040252686e-02,-4.340787231922149658e-02,-8.136656880378723145e-02,-1.240142285823822021e-01,-9.906576573848724365e-02,9.268265962600708008e-02,6.488421559333801270e-02,-2.227844297885894775e-02,1.947359740734100342e-02,-5.292986333370208740e-02,3.775487840175628662e-02,4.568758606910705566e-02,-4.259322583675384521e-02,2.664798498153686523e-02,-3.159850835800170898e-02,4.840524494647979736e-02,2.758449316024780273e-02
-9.990391135215759277e-02,9.535938501358032227e-03,9.141549468040466309e-03,-3.797183930873870850e-02,1.153827309608459473e-01,-1.042832136154174805e-01,6.783196330070495605e-02,1.016653627157211304e-01,7.191839814186096191e-02,-5.248844623565673828e-02,9.847801923751831055e-02,1.447650790214538574e-02,-1.033436805009841919e-01,-9.236921370029449463e-02,-1.439173519611358643e-02,4.045006632804870605e-02,-1.059342622756958008e-01,2.912150323390960693e-02,-7.953643798828125000e-04,1.133490800857543945e-01,-1.695999503135681152e-02,1.051345616579055786e-01,-1.191320568323135376e-01,-1.174934059381484985e-01,8.771687746047973633e-02,5.628079175949096680e-03,8.889384567737579346e-02,7.127785682678222656e-02,-1.890021562576293945e-02,7.078900933265686035e-03,3.651914000511169434e-02,-5.635890364646911621e-02,-1.100177615880966187e-01,-1.244628429412841797e-01,4.360592365264892578e-02,8.930118381977081299e-02,-8.203129470348358154e-02,-3.292171657085418701e-02,-1.158786416053771973e-01,-7.697775959968566895e-02,4.715472459793090820e-04,-7.378365099430084229e-02,-1.113720089197158813e-01,1.085085868835449219e-01,-6.163212656974792480e-02,-9.803926944732666016e-02,-1.237480342388153076e-02,4.921600222587585449e-03,-7.658988237380981445e-03,1.082049906253814697e-01,-1.900345087051391602e-04,-8.875307440757751465e-02,1.190823316574096680e-01,-3.359262645244598389e-02,-1.055296957492828369e-01,-8.834104239940643311e-02,1.174667328596115112e-01,-1.210572570562362671e-01,6.587640941143035889e-02,-5.156543850898742676e-02,-1.126411110162734985e-01,-3.833663463592529297e-02,-9.715880453586578369e-02,8.043304085731506348e-02
9.408175945281982422e-03,-6.359021365642547607e-02,2.725534141063690186e-02,-9.287585318088531494e-02,1.080534607172012329e-01,-1.130748391151428223e-01,-1.179002970457077026e-01,-9.607638418674468994e-02,1.194535046815872192e-01,1.149222254753112793e-02,-4.346483945846557617e-02,-1.043182015419006348e-01,-8.290994167327880859e-02,1.849356293678283691e-02,-9.887570142745971680e-02,1.082591265439987183e-01,-1.217678189277648926e-01,-6.750090420246124268e-02,6.641508638858795166e-02,-8.506037294864654541e-02,1.155304014682769775e-01,-1.364976167678833008e-02,-6.780113279819488525e-02,-8.523149788379669189e-02,9.675069153308868408e-02,-4.324242472648620605e-03,-9.319493174552917480e-02,4.956300556659698486e-02,7.492397725582122803e-02,-1.139221340417861938e-01,7.121762633323669434e-02,9.431126713752746582e-02,1.109904944896697998e-01,3.860409557819366455e-02,1.203205287456512451e-01,8.881926536560058594e-02,-8.507923781871795654e-02,-4.067862033843994141e-02,-5.376338958740234375e-02,-1.130983829498291016e-01,-6.218223273754119873e-02,8.508369326591491699e-02,-1.205188781023025513e-01,1.153540760278701782e-01,4.127706587314605713e-02,-1.682853698730468750e-02,8.649250864982604980e-02,-4.741074144840240479e-02,4.824401438236236572e-02,4.606874287128448486e-02,5.545607209205627441e-02,-1.112729460000991821e-01,-2.235844731330871582e-02,8.025273680686950684e-03,9.108647704124450684e-02,-6.045033037662506104e-02,-7.220882177352905273e-02,-1.083637773990631104e-02,1.144057214260101318e-01,-6.743246316909790039e-02,9.509713947772979736e-02,-2.974940836429595947e-02,4.528790712356567383e-03,-6.608542799949645996e-02
-3.410822153091430664e-02,6.816461682319641113e-03,-7.591249048709869385e-02,-1.348810344934463501e-01,8.067136257886886597e-02,1.976079680025577545e-02,-5.372348707169294357e-03,-1.125285681337118149e-02,-6.408762931823730469e-02,-1.352438330650329590e-02,-1.044143065810203552e-01,-9.539610147476196289e-02,-6.825467944145202637e-02,-3.046713396906852722e-02,5.170005559921264648e-02,8.445277810096740723e-02,-3.778253495693206787e-02,6.153297051787376404e-02,-8.210776373744010925e-03,2.167624607682228088e-02,9.933975525200366974e-03,5.465025082230567932e-02,7.708370685577392578e-03,-7.546909153461456299e-02,-1.339007616043090820e-01,7.818473130464553833e-02,-9.994699060916900635e-02,7.259953767061233521e-02,7.360741496086120605e-03,-7.503709197044372559e-02,-2.496211230754852295e-02,2.407257258892059326e-02,-6.927156448364257812e-02,2.790539897978305817e-02,-9.118647873401641846e-02,2.164944820106029510e-02,-3.933754563331604004e-02,4.295168817043304443e-02,-1.115409135818481445e-01,6.353326141834259033e-02,5.908593535423278809e-02,1.099434047937393188e-01,-9.446705877780914307e-02,-2.282261103391647339e-02,-1.048978492617607117e-01,1.140665858983993530e-01,-2.218589186668395996e-03,-3.818478807806968689e-02,3.214377537369728088e-02,-1.283788532018661499e-01,8.516844362020492554e-02,-8.481065183877944946e-02,9.070050902664661407e-03,-8.399981260299682617e-02,-7.492648810148239136e-02,6.847785413265228271e-02,4.079703986644744873e-02,-1.237526908516883850e-02,7.955319248139858246e-03,-8.573889732360839844e-03,5.580965057015419006e-02,-1.177236288785934448e-01,7.165958732366561890e-02,-1.114984452724456787e-01
-1.143569871783256531e-01,1.674005389213562012e-02,-7.008245587348937988e-02,-5.544809624552726746e-02,1.561458557844161987e-01,7.966542989015579224e-02,1.278923749923706055e-01,-4.071295633912086487e-02,-9.369388222694396973e-02,1.905080676078796387e-02,4.046449437737464905e-02,-1.172200441360473633e-01,6.774735450744628906e-02,-1.241181343793869019e-01,-5.072909593582153320e-02,2.188740670680999756e-02,3.122724592685699463e-02,4.945119470357894897e-02,1.320714801549911499e-01,1.341395378112792969e-01,1.484804302453994751e-01,-3.694918472319841385e-03,1.993708312511444092e-02,-6.106799468398094177e-02,-1.648926287889480591e-01,1.347041279077529907e-01,-3.823907300829887390e-02,-4.122617468237876892e-02,-9.566107392311096191e-02,1.642563939094543457e-02,-1.290961652994155884e-01,-1.237020939588546753e-01,-3.029792010784149170e-02,-5.799202620983123779e-02,4.277192056179046631e-02,8.336668461561203003e-02,-1.140234470367431641e-01,-1.961636841297149658e-01,-4.501768387854099274e-03,4.306356236338615417e-02,-7.103183865547180176e-02,-1.078088879585266113e-01,6.975869834423065186e-02,2.838198840618133545e-01,7.325752079486846924e-02,2.373506128787994385e-02,6.473183631896972656e-03,3.131263330578804016e-02,-1.162625774741172791e-01,-2.847202122211456299e-01,2.400565333664417267e-02,2.089425623416900635e-01,-7.737871259450912476e-02,2.835020981729030609e-02,2.224869560450315475e-03,4.946958273649215698e-02,2.509519457817077637e-03,5.161904543638229370e-02,-8.488735184073448181e-03,-7.769107818603515625e-02,3.470600768923759460e-02,8.356069028377532959e-02,6.928872317075729370e-02,6.705655157566070557e-02
-8.272355794906616211e-02,1.218843907117843628e-01,2.860918641090393066e-02,1.687324047088623047e-02,3.119796514511108398e-02,2.368059754371643066e-02,3.251853585243225098e-02,3.224447369575500488e-03,8.115781843662261963e-02,-3.880226612091064453e-02,-8.252395689487457275e-02,1.069578975439071655e-01,-9.037390351295471191e-03,-8.472584187984466553e-02,3.980155289173126221e-02,-7.809337973594665527e-02,-2.552950382232666016e-02,4.260241985321044922e-02,6.452976167201995850e-02,8.874270319938659668e-02,-1.172663867473602295e-01,-3.040441870689392090e-02,-1.122290045022964478e-01,-7.710020244121551514e-02,3.390778601169586182e-02,5.502520501613616943e-02,3.991204500198364258e-02,7.805579900741577148e-02,-8.479139208793640137e-02,-1.226099133491516113e-01,-5.186885595321655273e-02,1.168628931045532227e-01,-4.891595244407653809e-02,-4.791283607482910156e-02,-5.717185139656066895e-02,4.900498688220977783e-02,-1.216711103916168213e-01,-4.924036562442779541e-02,-6.349302828311920166e-02,-1.148854345083236694e-01,1.242110133171081543e-02,-6.028576195240020752e-02,2.131858468055725098e-02,2.158722281455993652e-02,-4.869292676448822021e-02,-1.107491999864578247e-01,-7.052098214626312256e-02,-4.972478747367858887e-02,-8.358645439147949219e-02,2.903938293457031250e-02,-3.113400936126708984e-02,-8.517231047153472900e-02,-1.185334026813507080e-01,-6.074512004852294922e-02,-8.004604279994964600e-02,-7.239763438701629639e-02,-7.329750061035156250e-02,-6.346923112869262695e-02,-1.080268472433090210e-01,5.306568741798400879e-02,1.193639934062957764e-01,-2.236819267272949219e-02,-5.452854931354522705e-02,-2.866327762603759766e-02
-7.461296766996383667e-02,8.880712091922760010e-02,-1.210471987724304199e-02,-2.639347687363624573e-02,1.039717122912406921e-01,-4.174004122614860535e-02,-1.252899169921875000e-01,-6.429478526115417480e-02,-6.508299708366394043e-02,1.179541349411010742e-01,-1.285935342311859131e-01,-1.011857688426971436e-01,-1.006799340248107910e-01,5.940509214997291565e-02,-3.810375928878784180e-02,-5.331404507160186768e-02,-3.725869953632354736e-02,-5.245184898376464844e-02,-6.632315367460250854e-02,-5.740627273917198181e-02,-3.175082092639058828e-04,8.522136509418487549e-02,1.074981093406677246e-01,1.970889233052730560e-02,4.646928980946540833e-02,-7.317532598972320557e-02,-9.261584281921386719e-02,-1.227485090494155884e-01,-6.234347820281982422e-02,1.175852417945861816e-01,-6.676526367664337158e-02,-4.769635200500488281e-02,-6.763678789138793945e-02,-5.355828627943992615e-02,4.041235148906707764e-02,-8.141781389713287354e-02,9.583759307861328125e-02,-1.034093797206878662e-01,9.320216625928878784e-02,2.678677439689636230e-02,6.327554583549499512e-02,-8.015958964824676514e-02,-5.355349183082580566e-02,-2.533690817654132843e-02,6.327398866415023804e-02,1.106953322887420654e-01,-4.135608673095703125e-02,-2.597144059836864471e-02,-1.233212836086750031e-02,-5.831273645162582397e-02,9.980496019124984741e-02,-1.111878976225852966e-01,4.607811570167541504e-02,5.271539557725191116e-03,1.115079224109649658e-01,2.797793783247470856e-02,-9.166216850280761719e-02,-8.908228576183319092e-02,1.145246252417564392e-01,-1.217672824859619141e-01,-1.268450468778610229e-01,1.066048964858055115e-01,5.683480575680732727e-02,9.571221470832824707e-02
-3.114653564989566803e-02,1.979900896549224854e-02,8.668509125709533691e-02,-4.605070501565933228e-02,-1.694968156516551971e-02,1.711358577013015747e-01,1.227282136678695679e-01,-6.623544543981552124e-02,-1.814162880182266235e-01,-1.114620566368103027e-01,2.607253491878509521e-01,4.020182788372039795e-02,6.116903200745582581e-02,8.161155879497528076e-02,-9.396903216838836670e-02,-5.860134959220886230e-03,-7.786060869693756104e-02,-7.824923843145370483e-02,7.120845466852188110e-02,9.221430867910385132e-02,1.336897760629653931e-01,2.057763189077377319e-02,4.475001990795135498e-02,-2.113196700811386108e-01,-2.547753043472766876e-02,1.266446113586425781e-01,-9.384029358625411987e-02,7.493117451667785645e-02,-5.481681227684020996e-02,-2.178308367729187012e-02,-1.084139943122863770e-01,8.487969636917114258e-02,-9.948514401912689209e-02,-1.961938105523586273e-02,8.913129568099975586e-02,-6.686794757843017578e-02,-7.462143898010253906e-03,-1.370790600776672363e-02,5.098173394799232483e-02,2.419813871383666992e-01,8.014748990535736084e-02,-3.803990781307220459e-02,5.222739279270172119e-02,8.632133156061172485e-02,2.506940811872482300e-02,-1.138091385364532471e-01,-7.547618448734283447e-02,9.070339053869247437e-02,3.222982957959175110e-02,-1.593434214591979980e-01,-1.226875483989715576e-01,2.566423416137695312e-01,7.712814211845397949e-02,-1.091290786862373352e-01,-6.479748338460922241e-02,5.997037142515182495e-02,7.406917214393615723e-02,1.928461343050003052e-01,-2.097778618335723877e-01,5.565822124481201172e-02,-1.547265946865081787e-01,1.567375808954238892e-01,7.164367288351058960e-02,-1.170679926872253418e-03
-1.477546840906143188e-01,-5.167421698570251465e-02,9.919384121894836426e-02,4.239912703633308411e-02,1.035545915365219116e-01,2.152919322252273560e-01,7.037714123725891113e-02,6.629199534654617310e-02,-1.149609908461570740e-01,4.025854170322418213e-02,2.430492937564849854e-01,1.028071492910385132e-01,6.799637526273727417e-02,8.497268706560134888e-02,6.773827970027923584e-02,-8.361861109733581543e-02,3.741152584552764893e-02,2.690381556749343872e-02,1.011713668704032898e-01,1.338104903697967529e-01,1.740512102842330933e-01,9.137128293514251709e-02,1.583717763423919678e-02,-8.005788922309875488e-02,-1.453121453523635864e-01,1.795892417430877686e-02,-7.070609927177429199e-02,-1.390294134616851807e-01,3.875367343425750732e-02,-5.490383505821228027e-02,-2.090808302164077759e-01,-6.015370786190032959e-02,-4.243426024913787842e-02,-5.488427355885505676e-02,-8.016380667686462402e-02,-9.915582090616226196e-02,8.894708752632141113e-02,-2.417390644550323486e-01,-6.157261785119771957e-03,2.408544868230819702e-01,6.004317104816436768e-02,-6.217168271541595459e-02,-5.320234596729278564e-02,9.222217649221420288e-02,2.944594621658325195e-02,7.328838109970092773e-04,-1.475664973258972168e-02,1.139323636889457703e-01,-1.110058352351188660e-01,-2.783128619194030762e-01,5.182424094527959824e-03,2.400700896978378296e-01,-1.145999282598495483e-01,5.230765044689178467e-02,-2.757762186229228973e-02,1.228049620985984802e-01,5.027957260608673096e-02,2.130137830972671509e-01,-6.430576741695404053e-02,9.521722793579101562e-03,2.397839352488517761e-02,1.070493981242179871e-01,-1.552876979112625122e-01,3.821139037609100342e-02
-4.683098196983337402e-02,2.745462954044342041e-02,9.142945706844329834e-02,1.251486092805862427e-01,1.896082013845443726e-01,9.419336915016174316e-02,1.241770088672637939e-01,2.106591872870922089e-02,-1.675145328044891357e-01,-1.177801042795181274e-01,2.336961030960083008e-01,-1.198838502168655396e-01,-9.539868682622909546e-02,-4.621290788054466248e-02,-3.511063754558563232e-02,-9.591142833232879639e-02,-1.024343669414520264e-01,-8.412918448448181152e-02,8.281694352626800537e-02,1.052401363849639893e-01,2.507289648056030273e-01,8.107156306505203247e-02,9.939238429069519043e-03,-1.929855644702911377e-01,-1.697628498077392578e-01,6.456036120653152466e-02,-5.817974358797073364e-02,-1.049161255359649658e-01,-7.999345660209655762e-03,-7.940755784511566162e-02,-1.337083131074905396e-01,1.006374210119247437e-01,-7.555508613586425781e-02,-1.491880416870117188e-01,-2.571056783199310303e-02,1.050322502851486206e-01,-9.173130989074707031e-02,-7.431498169898986816e-02,-7.176639884710311890e-02,1.234059929847717285e-01,1.233717203140258789e-01,-9.675762057304382324e-02,9.051141142845153809e-02,2.314781546592712402e-01,6.149567291140556335e-02,1.970501244068145752e-02,-4.586830735206604004e-03,-2.750939130783081055e-02,-1.204349100589752197e-01,-2.527300715446472168e-01,3.602415695786476135e-02,1.984319537878036499e-01,3.532411158084869385e-02,5.575729534029960632e-02,8.340966701507568359e-02,5.878864787518978119e-03,6.660714745521545410e-03,2.242893129587173462e-01,-2.057718932628631592e-01,-6.803606450557708740e-02,1.439994014799594879e-02,6.466446071863174438e-02,-9.489340335130691528e-02,7.117576897144317627e-02
-1.081120967864990234e-01,-6.700935959815979004e-02,6.593699753284454346e-02,-7.501044869422912598e-02,-8.314894139766693115e-02,2.053646743297576904e-02,-6.302808225154876709e-02,-8.516709506511688232e-02,-1.501509547233581543e-02,2.133476734161376953e-02,5.557748675346374512e-02,5.877985060214996338e-02,-1.567654311656951904e-02,2.652406692504882812e-04,9.926527738571166992e-02,-8.347050845623016357e-02,-9.851200878620147705e-02,-8.510768413543701172e-02,-4.276563227176666260e-02,5.177155137062072754e-03,2.738489210605621338e-02,-4.599119722843170166e-02,-8.206717669963836670e-02,-1.056021600961685181e-01,-1.116206794977188110e-01,9.633377194404602051e-02,-9.664806723594665527e-02,1.097270250320434570e-01,5.718030035495758057e-02,2.948080003261566162e-02,2.611118555068969727e-02,-3.495784103870391846e-02,1.047632992267608643e-01,6.248492002487182617e-02,-7.997390627861022949e-02,1.459331810474395752e-02,-1.003168374300003052e-01,-2.291022241115570068e-02,-7.305209338665008545e-02,-4.934936761856079102e-02,7.041355967521667480e-02,-1.225354373455047607e-01,-7.046468555927276611e-02,3.896488249301910400e-02,1.112515181303024292e-01,5.197206139564514160e-02,-8.910328149795532227e-02,1.847511529922485352e-02,-8.288954198360443115e-02,-4.672950506210327148e-02,-8.640748262405395508e-02,-5.207270383834838867e-02,-1.055340468883514404e-01,-6.437294185161590576e-02,-9.754572808742523193e-02,-1.213406473398208618e-01,-1.743346452713012695e-03,-1.291921734809875488e-02,-1.137959808111190796e-01,-1.054699718952178955e-01,-5.748242139816284180e-03,-1.977977156639099121e-02,9.402677416801452637e-03,-5.768613517284393311e-02
4.419402778148651123e-02,2.170637249946594238e-03,2.950938045978546143e-02,-1.081438809633255005e-01,-1.055058836936950684e-01,4.946875572204589844e-02,-4.719081521034240723e-02,-5.341202020645141602e-02,1.119624972343444824e-01,3.659710288047790527e-02,-2.561311423778533936e-02,-1.126626431941986084e-01,-6.932914257049560547e-02,4.390585422515869141e-02,-4.396466910839080811e-02,2.464838325977325439e-02,4.946066439151763916e-02,-1.139024347066879272e-01,-6.607572734355926514e-02,-2.353484928607940674e-02,1.002985984086990356e-01,8.886888623237609863e-03,-9.415893256664276123e-02,-6.779463589191436768e-02,7.911346852779388428e-02,3.268447518348693848e-02,-6.725403666496276855e-02,-7.579916715621948242e-02,-1.248882710933685303e-02,-6.792947649955749512e-02,-7.582093775272369385e-02,-1.026103645563125610e-01,1.235909759998321533e-02,7.398645579814910889e-02,-1.128046512603759766e-01,4.294581711292266846e-02,-1.030800789594650269e-01,2.770300209522247314e-02,3.284713625907897949e-02,-6.645390391349792480e-02,8.661231398582458496e-02,-8.498652279376983643e-02,4.157771170139312744e-02,-2.518339455127716064e-02,-8.119225502014160156e-03,-1.166545003652572632e-01,6.527273356914520264e-02,-8.850726485252380371e-02,2.467875182628631592e-02,1.375228166580200195e-04,1.237460523843765259e-01,-1.157291680574417114e-01,-4.804329574108123779e-02,-8.235090970993041992e-02,-1.218080520629882812e-03,-5.712887644767761230e-02,-1.212963312864303589e-01,-8.245275914669036865e-02,6.673540174961090088e-02,6.384350359439849854e-02,-8.492115139961242676e-02,-7.008165121078491211e-02,9.562022984027862549e-02,-1.198100298643112183e-01
2.573524117469787598e-01,-5.869460105895996094e-02,1.223770976066589355e-01,2.385675761615857482e-04,-2.034218609333038330e-01,-3.546214848756790161e-02,1.146397665143013000e-01,-2.342228218913078308e-02,1.450924873352050781e-01,1.966576278209686279e-02,-2.985154092311859131e-01,8.571124076843261719e-02,4.027699306607246399e-02,1.392778009176254272e-01,-1.217030733823776245e-01,-2.565237879753112793e-02,-1.678973436355590820e-03,1.184331551194190979e-01,-4.422847926616668701e-02,1.180731430649757385e-01,-3.199459314346313477e-01,4.685939289629459381e-03,1.180943548679351807e-01,1.414668262004852295e-01,2.960504889488220215e-01,-1.055236160755157471e-01,1.752502918243408203e-01,-2.285574525594711304e-01,3.119114041328430176e-02,3.990449011325836182e-02,2.901145815849304199e-01,-8.342956006526947021e-02,1.232914626598358154e-02,2.491028457880020142e-01,4.404537379741668701e-02,-2.494196221232414246e-02,6.566792726516723633e-02,2.463605254888534546e-01,1.279351264238357544e-01,-4.849625378847122192e-02,-1.102571189403533936e-02,7.091236114501953125e-02,6.243422627449035645e-02,-2.870125472545623779e-01,1.309249252080917358e-01,1.068963408470153809e-01,5.057342350482940674e-02,-2.274595387279987335e-02,3.767659515142440796e-02,1.379748135805130005e-01,1.547114253044128418e-01,-2.542444169521331787e-01,7.989160716533660889e-02,1.751408278942108154e-01,1.836445480585098267e-01,1.577504277229309082e-01,5.478203296661376953e-02,-3.046550154685974121e-01,1.689864546060562134e-01,-1.020862460136413574e-01,1.506553590297698975e-01,8.349977433681488037e-02,5.844539031386375427e-02,-7.647630572319030762e-02
-9.217175841331481934e-02,1.155297160148620605e-01,-8.978402614593505859e-02,9.017296880483627319e-02,-5.472781509160995483e-02,1.096709445118904114e-01,1.453729271888732910e-01,-4.136848822236061096e-02,-1.532569825649261475e-01,2.298170328140258789e-02,1.362907290458679199e-01,1.050198674201965332e-01,4.177550785243511200e-03,1.147203966975212097e-01,-1.346851885318756104e-02,-7.712802290916442871e-02,3.133682906627655029e-02,3.798788413405418396e-02,1.177154704928398132e-01,9.791767597198486328e-02,2.099826931953430176e-01,-1.832211390137672424e-02,9.478206932544708252e-02,2.030954509973526001e-02,-6.414606422185897827e-02,9.442752599716186523e-02,9.214191138744354248e-02,-1.193435676395893097e-02,-6.992837786674499512e-02,1.145078092813491821e-01,-1.143175289034843445e-01,7.483293116092681885e-02,-7.256226241588592529e-02,-8.880849182605743408e-02,-9.144414961338043213e-02,2.787603810429573059e-02,-9.770262241363525391e-02,-5.241482332348823547e-02,-1.694325543940067291e-02,7.574129849672317505e-02,-9.239739179611206055e-02,1.011549085378646851e-01,3.284841775894165039e-02,2.018033117055892944e-01,-1.567350178956985474e-01,5.962017178535461426e-02,4.570056498050689697e-02,-7.069302350282669067e-02,3.879282251000404358e-02,-1.028527319431304932e-01,-1.374352127313613892e-01,1.752267181873321533e-01,-1.033988967537879944e-01,-2.576478943228721619e-02,-3.386462852358818054e-02,-3.073331341147422791e-02,-2.662470936775207520e-02,2.015567272901535034e-01,-5.484983325004577637e-02,4.333624243736267090e-02,-1.486631631851196289e-01,1.227237805724143982e-01,-3.199378028512001038e-02,-9.989382326602935791e-02
-1.147096082568168640e-01,-1.430949568748474121e-02,3.736992180347442627e-02,3.014825284481048584e-02,9.453436732292175293e-02,9.466794133186340332e-02,1.016476675868034363e-01,-8.016818761825561523e-02,-5.594024434685707092e-02,-1.023095846176147461e-01,2.361783385276794434e-01,1.119135767221450806e-01,3.426789492368698120e-02,7.557036727666854858e-02,7.478088140487670898e-03,8.883820474147796631e-02,-5.069084465503692627e-02,-2.752424031496047974e-02,8.353418856859207153e-02,-1.577471382915973663e-03,1.139387786388397217e-01,1.329088024795055389e-02,1.008914560079574585e-01,-7.328549027442932129e-02,-7.189837098121643066e-02,-7.561483886092901230e-03,-1.112124770879745483e-01,-1.470629125833511353e-01,8.042234182357788086e-02,9.176506102085113525e-02,-1.933254599571228027e-01,1.971928775310516357e-02,1.233951896429061890e-01,-5.053243786096572876e-02,5.480416119098663330e-02,8.736581541597843170e-03,-1.729083061218261719e-02,-2.058209031820297241e-01,1.870312914252281189e-02,1.670243740081787109e-01,9.632468223571777344e-03,3.485871851444244385e-02,1.090606749057769775e-01,1.597003638744354248e-01,-4.229874908924102783e-02,3.860221803188323975e-02,-5.779892206192016602e-02,9.714175947010517120e-03,9.155966341495513916e-02,-2.821311950683593750e-01,3.141409531235694885e-02,2.302637547254562378e-01,7.607023417949676514e-02,-8.909055590629577637e-02,-6.678709387779235840e-02,6.146195158362388611e-02,6.649734079837799072e-02,1.168547198176383972e-01,-3.579122200608253479e-02,5.304281413555145264e-02,-9.488254785537719727e-02,7.133650034666061401e-02,3.428652882575988770e-02,-1.171766221523284912e-02
-8.143084496259689331e-02,3.675413131713867188e-02,-5.312806367874145508e-02,-3.611596301198005676e-02,4.695049673318862915e-02,1.233434304594993591e-01,-9.080883860588073730e-02,-2.067259512841701508e-02,-5.213869363069534302e-02,-1.041316241025924683e-01,2.268594056367874146e-01,6.253093481063842773e-02,6.917352974414825439e-02,7.843884080648422241e-02,3.211414813995361328e-02,-5.911301076412200928e-02,-2.340279519557952881e-02,-5.894024297595024109e-02,1.705686897039413452e-01,1.360841840505599976e-01,3.164089918136596680e-01,8.181890845298767090e-02,9.332337975502014160e-02,-3.279292285442352295e-01,-2.024550139904022217e-01,6.271539628505706787e-02,4.311945289373397827e-02,-6.610139459371566772e-02,6.111437082290649414e-02,-2.092540264129638672e-02,-3.204261958599090576e-01,-1.013521850109100342e-02,3.335368633270263672e-02,3.963373973965644836e-02,-1.129311174154281616e-01,5.861879885196685791e-02,6.313021481037139893e-02,-1.469767242670059204e-01,1.147294268012046814e-01,2.389600872993469238e-01,-4.026460647583007812e-02,-1.159458756446838379e-01,3.875833749771118164e-02,1.782814413309097290e-01,-7.440282404422760010e-02,4.664032161235809326e-02,-4.588520526885986328e-02,1.353676766157150269e-01,-1.330830454826354980e-01,-3.112430274486541748e-01,-1.988523453474044800e-02,3.250183761119842529e-01,-1.406484656035900116e-02,5.541910976171493530e-02,1.179703995585441589e-01,7.753853220492601395e-03,-1.116340607404708862e-01,3.240505158901214600e-01,-1.182429566979408264e-01,1.152886599302291870e-01,-6.484754383563995361e-02,1.447530239820480347e-01,-1.753781884908676147e-01,3.146640956401824951e-02
-1.775518991053104401e-02,8.914817869663238525e-02,3.350067138671875000e-02,-1.664626784622669220e-02,4.137163050472736359e-03,-4.206311423331499100e-03,5.883491411805152893e-02,-1.240950226783752441e-01,-1.475561708211898804e-01,4.806630313396453857e-02,4.223594814538955688e-02,8.845010399818420410e-02,5.674348026514053345e-02,-8.427112549543380737e-02,7.646113634109497070e-03,-9.726247191429138184e-02,-8.924318850040435791e-02,6.954682618379592896e-02,-1.363750100135803223e-01,8.591842651367187500e-02,8.553901314735412598e-02,-7.403396070003509521e-02,-2.434520423412322998e-02,5.868615582585334778e-02,-8.877002447843551636e-02,-5.705039948225021362e-02,-6.023278087377548218e-02,1.399407386779785156e-01,-7.396215200424194336e-02,-1.130670309066772461e-03,-6.866391748189926147e-02,-7.754667103290557861e-02,-2.470864355564117432e-02,-6.186266615986824036e-02,-4.508265852928161621e-02,-1.561075299978256226e-01,-4.348477721214294434e-02,-6.743882596492767334e-02,9.223040193319320679e-02,1.104485988616943359e-02,2.887372672557830811e-02,3.199557960033416748e-02,-7.809281349182128906e-02,1.110428422689437866e-01,-1.386411637067794800e-01,2.307438850402832031e-02,-5.327808856964111328e-02,8.962127566337585449e-02,-1.389731317758560181e-01,-1.003295928239822388e-01,4.834230989217758179e-02,1.288109272718429565e-01,-2.438407763838768005e-02,-6.780832260847091675e-02,-9.344699978828430176e-02,-6.959750503301620483e-02,4.503351449966430664e-02,-8.559749461710453033e-03,-2.484065713360905647e-03,4.287089407444000244e-02,-1.630089730024337769e-01,2.134486846625804901e-02,-1.693681329488754272e-01,-5.695764720439910889e-02
-3.185246512293815613e-02,1.109241694211959839e-01,4.992869496345520020e-02,-5.784147977828979492e-02,1.095360964536666870e-01,-3.508500754833221436e-02,-1.178658381104469299e-01,-6.685801595449447632e-02,3.451160341501235962e-02,-9.945008158683776855e-02,-6.292928755283355713e-02,1.241314262151718140e-01,-2.989030443131923676e-02,-7.644382864236831665e-02,-1.192280650138854980e-01,7.594826817512512207e-02,-1.180863529443740845e-01,1.359841972589492798e-02,-1.192948780953884125e-02,5.134021118283271790e-02,9.899124503135681152e-02,4.491795971989631653e-02,-5.226472020149230957e-02,-1.007175743579864502e-01,-1.149418577551841736e-01,-3.678835183382034302e-02,6.787222623825073242e-02,1.138213053345680237e-01,-5.114082992076873779e-02,-1.070499420166015625e-03,-1.138448417186737061e-01,1.084637641906738281e-01,-1.106829792261123657e-01,-6.982408463954925537e-02,-8.831429481506347656e-02,1.086112111806869507e-02,-8.816894888877868652e-02,-7.991804927587509155e-02,6.980472058057785034e-02,-5.328686162829399109e-02,-1.244048625230789185e-01,-3.277212381362915039e-04,-9.104335308074951172e-02,9.230887144804000854e-02,-3.215811913833022118e-03,1.287081837654113770e-02,-1.114176660776138306e-01,-8.811295777559280396e-02,5.465654656291007996e-02,2.402371726930141449e-02,2.619996108114719391e-02,1.138018816709518433e-02,-9.284151718020439148e-03,-3.811066225171089172e-02,4.224545881152153015e-02,-4.728266038000583649e-03,-7.473753392696380615e-02,1.130603924393653870e-01,-8.469869941473007202e-02,-1.920886337757110596e-02,-2.711962908506393433e-02,-9.533870965242385864e-02,-7.611232250928878784e-02,-9.736059606075286865e-02
-1.201675683259963989e-01,-9.939695894718170166e-02,4.693956673145294189e-02,-1.052827537059783936e-01,6.445771455764770508e-02,-9.733293950557708740e-02,-4.829499125480651855e-02,-8.912971615791320801e-02,-2.360709011554718018e-02,1.123028695583343506e-01,-8.982017636299133301e-02,-1.246426850557327271e-01,-4.077123105525970459e-02,3.685010969638824463e-02,7.990200817584991455e-02,1.066062450408935547e-01,-2.575415372848510742e-02,-2.586559951305389404e-02,8.874094486236572266e-02,-9.486792981624603271e-02,-5.222390592098236084e-02,3.467673063278198242e-02,1.229672729969024658e-01,1.010597944259643555e-01,-6.700760126113891602e-02,-1.030693650245666504e-01,4.460370540618896484e-02,-4.679374396800994873e-02,3.363828361034393311e-02,2.574035525321960449e-02,5.513384938240051270e-03,-3.663243353366851807e-02,1.194840669631958008e-02,3.134442865848541260e-02,5.752587318420410156e-02,1.145750284194946289e-01,6.836697459220886230e-03,-1.196781843900680542e-01,-1.243187487125396729e-01,7.796910405158996582e-02,3.185577690601348877e-02,2.983491122722625732e-02,-1.215736567974090576e-02,-1.200755834579467773e-01,4.982545971870422363e-02,5.582296848297119141e-02,7.627277076244354248e-02,-1.085232347249984741e-01,1.210824996232986450e-01,-5.513399839401245117e-02,5.682846903800964355e-02,-1.136484295129776001e-01,-1.412121951580047607e-02,-5.824713408946990967e-02,-2.934895455837249756e-02,-7.525217533111572266e-02,-6.913144886493682861e-02,-4.079701006412506104e-02,-2.279248833656311035e-02,-8.250951766967773438e-03,1.016620844602584839e-01,4.049980640411376953e-02,6.245379149913787842e-02,7.582059502601623535e-02
2.028131186962127686e-01,-1.839996874332427979e-02,5.997261404991149902e-02,3.602512925863265991e-02,-1.977564543485641479e-01,1.269269138574600220e-01,4.713277146220207214e-02,1.975609213113784790e-01,3.317118287086486816e-01,-9.616687893867492676e-02,-1.882285475730895996e-01,-1.116780936717987061e-02,2.077459543943405151e-01,3.055909872055053711e-01,-1.113000810146331787e-01,-1.860991120338439941e-02,1.081511378288269043e-02,2.279547750949859619e-01,-2.280900627374649048e-02,1.517426921054720879e-03,-2.301386892795562744e-01,2.624400332570075989e-02,-4.208201169967651367e-02,1.528388112783432007e-01,2.035333067178726196e-01,-8.468060195446014404e-02,2.637882828712463379e-01,-1.504217833280563354e-01,5.061690509319305420e-02,-9.400849044322967529e-02,2.605360448360443115e-01,-7.051995396614074707e-02,1.158747375011444092e-01,1.606042236089706421e-01,-8.341385424137115479e-02,1.654600501060485840e-01,-5.643001198768615723e-02,3.043844103813171387e-01,2.366996556520462036e-01,5.673895031213760376e-02,8.504553139209747314e-02,2.566666901111602783e-02,9.895062446594238281e-02,-2.186481803655624390e-01,2.491819858551025391e-01,9.030055999755859375e-02,9.555380046367645264e-02,8.046789467334747314e-02,2.944484651088714600e-01,3.680131137371063232e-01,3.525863885879516602e-01,-1.802522242069244385e-01,1.756376624107360840e-01,1.677155643701553345e-01,1.806043982505798340e-01,1.437110602855682373e-01,-8.286722004413604736e-02,-2.111224234104156494e-01,2.437492161989212036e-01,4.599058628082275391e-02,1.143708899617195129e-01,-5.817037075757980347e-03,1.217128857970237732e-01,-1.088534146547317505e-01
2.593329548835754395e-02,-7.033832371234893799e-02,-4.640664160251617432e-02,1.135201007127761841e-01,-8.652864396572113037e-02,-8.283646404743194580e-02,-3.001253306865692139e-02,-2.946510910987854004e-03,-2.087861299514770508e-02,-7.912084460258483887e-03,-1.235654950141906738e-02,-1.092664897441864014e-01,-5.043064057826995850e-02,-9.623059630393981934e-02,7.483196258544921875e-02,-5.249598622322082520e-02,5.441474914550781250e-02,9.171426296234130859e-02,-2.622337639331817627e-02,-1.068913340568542480e-01,-3.155440092086791992e-03,-5.467593669891357422e-03,-7.007764279842376709e-02,-4.096813499927520752e-02,7.854059338569641113e-03,4.576180875301361084e-02,6.061944365501403809e-02,2.753654122352600098e-02,-4.045167565345764160e-02,-1.173311918973922729e-01,1.142674535512924194e-01,-6.409913301467895508e-03,5.852431058883666992e-02,-6.543888151645660400e-02,4.322154819965362549e-02,1.538409292697906494e-02,5.767066776752471924e-02,-6.018207967281341553e-02,-1.086679250001907349e-01,-4.826888442039489746e-03,3.939522802829742432e-02,-8.893102407455444336e-03,6.134094297885894775e-02,4.488097131252288818e-02,-1.194009035825729370e-01,-1.149052232503890991e-01,9.597191214561462402e-02,4.523378610610961914e-02,7.106524705886840820e-02,1.454637944698333740e-02,-1.226904690265655518e-01,-1.082527190446853638e-01,-3.958767652511596680e-02,-1.132805645465850830e-02,-1.011142879724502563e-01,5.707889795303344727e-02,2.152657508850097656e-02,-2.437457442283630371e-03,-6.916947662830352783e-02,-4.865303635597229004e-03,-1.957161724567413330e-02,-1.751047372817993164e-02,-1.287922263145446777e-03,3.698241710662841797e-02
-7.691755890846252441e-02,7.908499240875244141e-02,2.043698728084564209e-02,-3.052261471748352051e-02,-4.339821636676788330e-02,9.326365590095520020e-02,5.519019067287445068e-02,3.820751607418060303e-02,2.323982119560241699e-02,9.536382555961608887e-02,-1.977907121181488037e-02,-8.197513222694396973e-02,-4.643137753009796143e-02,8.813342452049255371e-02,2.597162127494812012e-02,4.690125584602355957e-03,1.120678335428237915e-01,6.828755140304565430e-02,-1.137269288301467896e-01,-5.727039277553558350e-02,4.025574028491973877e-02,-1.227437704801559448e-01,-9.591256082057952881e-02,-6.219138205051422119e-02,9.463070333003997803e-02,-7.615892589092254639e-02,9.577862918376922607e-02,5.652762949466705322e-02,-8.336031436920166016e-02,-6.769821047782897949e-02,-7.751087844371795654e-02,2.541986107826232910e-02,6.333670020103454590e-02,2.128273248672485352e-03,-1.066955626010894775e-01,8.681838214397430420e-02,1.044875979423522949e-01,-1.757697761058807373e-02,1.099741756916046143e-01,1.146555244922637939e-01,9.005971252918243408e-02,-1.241381615400314331e-01,8.755624294281005859e-02,-2.345252037048339844e-02,1.298755407333374023e-03,-5.087168514728546143e-02,-1.188239902257919312e-01,2.471342682838439941e-02,-1.209034770727157593e-01,-2.811837196350097656e-02,4.711161553859710693e-02,-8.674791455268859863e-02,-7.450106739997863770e-02,-9.101387858390808105e-02,-3.758713603019714355e-02,-1.200349628925323486e-01,-1.102414578199386597e-01,6.651459634304046631e-02,2.325448393821716309e-02,9.752005338668823242e-02,1.097902655601501465e-02,-7.543486356735229492e-02,-7.687471807003021240e-02,8.561909198760986328e-04
2.712698280811309814e-02,4.705795645713806152e-02,-1.584307849407196045e-02,9.333430230617523193e-02,-8.527475595474243164e-02,6.985588371753692627e-02,9.228850901126861572e-02,-6.674253940582275391e-02,1.227848529815673828e-01,-9.100793302059173584e-02,-4.189090430736541748e-02,8.379273116588592529e-02,-1.139881908893585205e-01,3.873620927333831787e-02,-1.172254979610443115e-02,-5.372588336467742920e-02,4.592324793338775635e-02,-9.682394564151763916e-02,5.307108163833618164e-03,4.630938172340393066e-03,4.806715250015258789e-02,-1.012628525495529175e-01,-5.316585302352905273e-03,-5.259308218955993652e-02,-1.135098934173583984e-02,-1.166029572486877441e-01,-2.860695123672485352e-03,1.822672784328460693e-02,8.196468651294708252e-02,6.725549697875976562e-03,2.298426628112792969e-02,1.359483599662780762e-02,1.058051586151123047e-01,-3.942373394966125488e-02,-1.049969047307968140e-01,-1.376555860042572021e-02,1.235287934541702271e-01,5.183011293411254883e-03,7.754866778850555420e-02,2.641950547695159912e-02,9.736195206642150879e-02,8.672264218330383301e-02,1.182714104652404785e-01,1.735940575599670410e-02,-1.046158969402313232e-01,-8.937300741672515869e-02,1.238569617271423340e-03,1.220852136611938477e-03,-1.244776695966720581e-01,1.926189661026000977e-02,5.246582627296447754e-02,-1.092586815357208252e-01,-6.674617528915405273e-03,-1.012399792671203613e-01,-8.721180260181427002e-02,-6.073777377605438232e-02,-3.102627396583557129e-02,-5.517217516899108887e-02,-9.939663112163543701e-02,-8.631333708763122559e-02,-4.882669448852539062e-02,-9.374639391899108887e-02,3.377474844455718994e-02,4.342246055603027344e-02
3.173690289258956909e-03,-3.991350531578063965e-02,7.221782207489013672e-02,1.429711878299713135e-01,8.525366336107254028e-02,7.249850779771804810e-02,7.809334248304367065e-02,6.764346361160278320e-02,-5.225617438554763794e-02,-2.471657097339630127e-02,2.737035751342773438e-01,-1.922039687633514404e-02,9.736351668834686279e-02,-1.114121377468109131e-01,4.886776208877563477e-02,-9.061774611473083496e-02,-2.758139371871948242e-02,-7.449239492416381836e-02,-6.146670132875442505e-02,5.264997482299804688e-02,3.040823936462402344e-01,1.157827526330947876e-01,4.373916983604431152e-02,-2.469610273838043213e-01,-5.829375982284545898e-02,2.147906124591827393e-01,9.404293447732925415e-02,3.491486981511116028e-02,7.297003269195556641e-02,9.924788773059844971e-02,-2.247317731380462646e-01,-3.415922820568084717e-02,2.655489742755889893e-02,7.424332946538925171e-02,-1.177597492933273315e-01,-7.681239396333694458e-02,2.109269797801971436e-02,-2.432302683591842651e-01,1.138755828142166138e-01,2.436445057392120361e-01,1.213089078664779663e-01,1.236602216958999634e-01,-7.768411934375762939e-02,2.331427335739135742e-01,4.409052059054374695e-02,8.339609205722808838e-02,5.016194283962249756e-02,-4.645144194364547729e-02,-4.493886604905128479e-02,-3.319224715232849121e-01,-3.872170299291610718e-02,2.626731395721435547e-01,5.052908882498741150e-02,-2.203785441815853119e-02,8.633765578269958496e-02,5.777500197291374207e-02,-2.871316671371459961e-02,3.151691854000091553e-01,-2.236018478870391846e-01,8.400604128837585449e-02,-5.904002115130424500e-02,-5.808600038290023804e-02,5.020961910486221313e-02,-1.288582384586334229e-02
1.160097122192382812e-01,-6.514757871627807617e-02,4.114656150341033936e-02,-7.984736561775207520e-02,8.054140210151672363e-02,4.551768302917480469e-03,6.457522511482238770e-03,-8.247710764408111572e-02,4.888443648815155029e-02,-2.001747488975524902e-02,-8.449585735797882080e-02,7.694120705127716064e-02,-5.414266884326934814e-02,9.626081585884094238e-02,-6.733375787734985352e-02,6.555040180683135986e-02,7.877469062805175781e-03,6.986252963542938232e-02,2.801477909088134766e-03,-1.093256771564483643e-01,1.032784730195999146e-01,1.528364419937133789e-02,-8.857727050781250000e-03,-1.332603394985198975e-02,2.336703240871429443e-02,1.172294318675994873e-01,-6.446312367916107178e-02,7.478827238082885742e-02,-6.495133042335510254e-03,-1.248892098665237427e-01,1.241042912006378174e-01,-1.172489076852798462e-01,-7.189171016216278076e-02,-9.062814712524414062e-02,6.494118273258209229e-02,9.372679889202117920e-02,-9.875287115573883057e-02,1.368452608585357666e-02,-4.114627838134765625e-03,2.384364604949951172e-02,1.196708679199218750e-01,6.245030462741851807e-02,3.267772495746612549e-02,1.142436414957046509e-01,1.106531172990798950e-01,-5.698044598102569580e-02,4.626259207725524902e-03,-1.127573549747467041e-01,4.961335659027099609e-02,-4.544372856616973877e-02,-2.088461816310882568e-02,-5.824521183967590332e-03,-9.780576825141906738e-02,-3.723277151584625244e-02,-5.384525656700134277e-02,-6.918469071388244629e-02,-1.118588596582412720e-01,-1.106936335563659668e-01,5.329044163227081299e-02,-5.494801700115203857e-02,1.137351989746093750e-01,9.786620736122131348e-03,-1.231503784656524658e-01,7.684993743896484375e-02
4.074734449386596680e-02,-6.960834562778472900e-02,-7.160958647727966309e-02,-3.428386151790618896e-02,-8.993147313594818115e-02,1.089191138744354248e-01,-2.166350185871124268e-02,-1.208289712667465210e-01,8.176180720329284668e-02,6.986235082149505615e-02,8.839026093482971191e-02,1.181707531213760376e-01,1.137263774871826172e-01,8.153465390205383301e-02,1.245063245296478271e-01,8.994449675083160400e-02,3.376045823097229004e-02,-2.128125727176666260e-02,-7.262697815895080566e-02,-5.395852029323577881e-02,6.615562736988067627e-02,-8.286745846271514893e-02,9.316362440586090088e-02,2.575217187404632568e-02,-4.222570359706878662e-02,2.236053347587585449e-02,-4.508878290653228760e-02,1.166570037603378296e-01,2.106277644634246826e-02,-7.386696338653564453e-02,1.042297482490539551e-01,-1.207122057676315308e-01,-4.564642906188964844e-02,6.345404684543609619e-02,-1.141132563352584839e-01,-9.328281879425048828e-02,3.165975213050842285e-02,-1.098572760820388794e-01,5.668134987354278564e-02,-1.072484254837036133e-02,1.189437210559844971e-01,-4.820451140403747559e-02,-7.620154321193695068e-02,-1.833279430866241455e-02,4.515510797500610352e-02,-5.563735961914062500e-03,8.178155124187469482e-02,4.534178972244262695e-02,-1.064997315406799316e-01,3.832544386386871338e-02,1.383924484252929688e-02,-7.031494379043579102e-02,-6.506088376045227051e-02,6.498236954212188721e-02,-5.110464990139007568e-02,1.132054924964904785e-01,6.325006484985351562e-03,-2.711606025695800781e-02,3.857836127281188965e-02,9.229201078414916992e-02,8.201052248477935791e-02,-6.149886548519134521e-02,1.386152207851409912e-02,5.206987261772155762e-02
5.560803040862083435e-02,8.245065808296203613e-03,3.897747397422790527e-02,2.871708758175373077e-02,-1.283573061227798462e-01,-1.014663800597190857e-01,8.571069687604904175e-02,-6.148710101842880249e-02,-7.100266218185424805e-02,-8.442178368568420410e-02,-1.227265447378158569e-01,-5.294531583786010742e-02,6.857283413410186768e-02,-3.707780502736568451e-03,1.239756643772125244e-01,-1.632151007652282715e-02,3.100815415382385254e-02,-1.127077545970678329e-02,-1.228971704840660095e-01,8.309625834226608276e-02,1.084758788347244263e-01,-1.251388788223266602e-01,-2.343058586120605469e-03,-1.140273958444595337e-01,-9.566154330968856812e-02,-1.320446580648422241e-01,-5.584599450230598450e-03,9.547048807144165039e-02,5.791650712490081787e-02,-5.950142443180084229e-02,1.061584055423736572e-01,3.895927965641021729e-02,1.385226845741271973e-02,3.157361596822738647e-02,8.238491415977478027e-02,2.380238659679889679e-02,4.616919159889221191e-02,4.374345391988754272e-02,8.665802329778671265e-02,-5.708939954638481140e-02,-3.022715449333190918e-03,-8.772554993629455566e-02,-1.110092550516128540e-01,4.819846898317337036e-02,1.037721484899520874e-01,3.587548434734344482e-02,-3.854125738143920898e-03,7.670611143112182617e-02,4.615775868296623230e-02,-7.878223806619644165e-02,-1.315055638551712036e-01,6.109563633799552917e-02,7.951498031616210938e-02,-4.233693704009056091e-02,-1.859808713197708130e-02,-3.943972289562225342e-02,-1.559898257255554199e-02,-3.523317724466323853e-02,-1.297878473997116089e-01,-1.199321150779724121e-01,-6.192480400204658508e-02,7.718250155448913574e-02,-2.189906546846032143e-03,6.100836396217346191e-02
1.247597485780715942e-01,-1.066542267799377441e-01,1.018461436033248901e-01,-1.142701357603073120e-01,-1.251859962940216064e-02,4.370105266571044922e-02,-1.216618716716766357e-01,6.826046109199523926e-02,4.785642027854919434e-02,1.114179641008377075e-01,-2.200876176357269287e-02,-8.511726558208465576e-02,-8.145520091056823730e-02,2.334538102149963379e-02,-1.044981330633163452e-01,-3.280566632747650146e-02,-3.945544362068176270e-02,-1.227283775806427002e-01,2.464973926544189453e-02,-1.212407648563385010e-01,-4.007725417613983154e-02,-4.865799844264984131e-02,1.026870161294937134e-01,8.693054318428039551e-03,-1.178566217422485352e-01,8.092410862445831299e-02,6.978106498718261719e-02,-4.211455583572387695e-02,5.356462299823760986e-02,-1.112049221992492676e-01,5.175028741359710693e-02,-1.094522476196289062e-01,-7.631929218769073486e-02,7.910224795341491699e-02,-9.377938508987426758e-02,7.759463787078857422e-02,-1.954706013202667236e-02,-2.628809213638305664e-02,-6.481462717056274414e-02,8.344739675521850586e-02,2.082735300064086914e-03,-1.101630479097366333e-01,-1.136890202760696411e-01,-3.800691664218902588e-02,7.352605462074279785e-02,3.309400379657745361e-02,-1.210800856351852417e-01,2.055847644805908203e-02,-4.443974792957305908e-02,-4.006269574165344238e-02,1.799800992012023926e-02,-1.195073127746582031e-05,-6.340648233890533447e-02,-7.194030284881591797e-02,-2.672372758388519287e-02,2.185396850109100342e-02,-7.542720437049865723e-02,-6.265352666378021240e-02,3.669548034667968750e-02,-1.039966791868209839e-01,-7.716757059097290039e-02,-3.049303591251373291e-02,-3.886872529983520508e-02,-5.392055213451385498e-02
4.335656762123107910e-03,-1.483787596225738525e-02,7.809326052665710449e-02,-2.823232114315032959e-02,1.211225390434265137e-01,4.270894825458526611e-02,-7.621203362941741943e-02,8.120959997177124023e-02,-8.146506547927856445e-02,-2.225403487682342529e-02,-1.032558828592300415e-01,-3.146666288375854492e-02,-2.853283286094665527e-02,-1.509226858615875244e-02,-5.425289273262023926e-03,-3.101631999015808105e-02,1.804880797863006592e-02,-1.218332052230834961e-01,-6.106163561344146729e-02,-7.277798652648925781e-02,-2.211716771125793457e-02,-1.072549074888229370e-01,-6.845243275165557861e-02,-1.487675309181213379e-02,4.102760553359985352e-02,7.865251600742340088e-02,5.883970856666564941e-02,-1.077438741922378540e-01,-9.263473749160766602e-02,7.621172070503234863e-02,-1.860104501247406006e-02,7.239197194576263428e-02,-7.093922793865203857e-02,-3.844118118286132812e-02,-2.961975336074829102e-02,4.014289379119873047e-02,4.492326080799102783e-02,-1.156082749366760254e-01,-3.971886634826660156e-02,-1.097062677145004272e-01,-1.020602583885192871e-01,-1.066088676452636719e-03,-6.573198735713958740e-02,-7.076992094516754150e-02,-1.899175345897674561e-02,3.307358920574188232e-02,-7.201065123081207275e-02,-7.892704010009765625e-02,7.540306448936462402e-02,-8.607989549636840820e-02,1.103223711252212524e-01,7.049019634723663330e-02,1.136541515588760376e-01,6.384214758872985840e-02,-3.064347803592681885e-02,-8.477714657783508301e-02,2.095639705657958984e-03,-1.144501715898513794e-01,1.921969652175903320e-02,1.134599745273590088e-01,-4.919977486133575439e-02,7.111819088459014893e-02,-1.393209397792816162e-02,1.084722727537155151e-01
-3.763200342655181885e-02,4.436120390892028809e-03,3.141292929649353027e-02,-1.211777925491333008e-01,-1.184677183628082275e-01,4.555590450763702393e-02,7.947519421577453613e-03,3.649924695491790771e-02,-1.099800318479537964e-01,-9.393191337585449219e-02,-1.027461886405944824e-01,-3.237722814083099365e-02,-7.747291028499603271e-02,-1.024688631296157837e-01,5.303159356117248535e-03,-8.843435347080230713e-02,-2.486684918403625488e-02,-4.733207821846008301e-02,-9.514720737934112549e-02,-5.561847984790802002e-02,8.159396052360534668e-02,4.782587289810180664e-03,5.466136336326599121e-02,-8.860379457473754883e-04,1.128622889518737793e-01,5.569769442081451416e-02,1.066859066486358643e-01,-8.920793235301971436e-02,8.882303535938262939e-02,6.156970560550689697e-02,7.007767260074615479e-02,6.562627851963043213e-02,3.164051473140716553e-02,-7.919177412986755371e-03,1.242948919534683228e-01,-6.821019947528839111e-02,-7.901161909103393555e-03,7.409299910068511963e-02,1.836848258972167969e-02,5.140866339206695557e-02,1.609070599079132080e-02,9.759247303009033203e-02,8.758665621280670166e-02,-8.506621420383453369e-02,-6.968338787555694580e-02,5.400972068309783936e-02,-7.170218229293823242e-02,4.960477352142333984e-03,-2.116855978965759277e-02,-7.316148281097412109e-02,-8.872640132904052734e-02,-7.964244484901428223e-02,1.006136089563369751e-01,3.382471203804016113e-02,-4.495282471179962158e-02,4.472573101520538330e-02,-1.119407117366790771e-01,1.798763871192932129e-02,-2.586585283279418945e-02,1.113021224737167358e-01,-9.595984220504760742e-02,4.744648933410644531e-03,-1.755490899085998535e-03,9.566055238246917725e-02
-8.190880715847015381e-02,-7.009264826774597168e-02,-1.222064495086669922e-01,-3.944725543260574341e-02,6.474149972200393677e-02,1.580713391304016113e-01,-1.936542987823486328e-02,6.259134411811828613e-02,-1.227798592299222946e-02,-1.138945221900939941e-01,1.919478178024291992e-01,8.047699928283691406e-03,-6.198203563690185547e-02,2.449601329863071442e-02,1.276475191116333008e-02,7.290250062942504883e-02,2.668143808841705322e-02,9.283157996833324432e-03,2.331930585205554962e-02,9.318741410970687866e-02,2.414217442274093628e-01,-2.820523642003536224e-02,-6.826104223728179932e-02,-2.178493738174438477e-01,-8.912348002195358276e-02,2.268008291721343994e-01,-6.195382401347160339e-02,-5.277922004461288452e-02,-9.983627498149871826e-02,-1.184589564800262451e-01,-1.611002534627914429e-01,7.398438453674316406e-02,-1.227093189954757690e-01,-3.033273294568061829e-02,8.945167064666748047e-02,1.284126639366149902e-01,1.170944869518280029e-01,-2.722362801432609558e-02,9.647132456302642822e-02,8.473020792007446289e-02,-2.264864742755889893e-02,-9.066621959209442139e-02,-1.003523170948028564e-02,2.445596605539321899e-01,-1.595949828624725342e-01,4.377147555351257324e-02,-5.306917428970336914e-02,5.941990762948989868e-02,-1.521006412804126740e-02,-2.986983656883239746e-01,-1.311995554715394974e-02,2.256599515676498413e-01,9.351228922605514526e-02,-6.987248361110687256e-02,8.900762349367141724e-02,1.276409029960632324e-01,1.154619008302688599e-01,9.034024178981781006e-02,-1.825914233922958374e-01,1.246490478515625000e-01,-1.116395145654678345e-01,1.023264303803443909e-01,-1.306991428136825562e-01,1.242831349372863770e-01
-5.299539864063262939e-02,-6.886029243469238281e-02,9.201958775520324707e-03,-9.990580379962921143e-02,-5.219991505146026611e-02,-2.728705108165740967e-02,-1.115733087062835693e-01,-1.298740506172180176e-02,-6.072032451629638672e-02,-6.339532136917114258e-02,-5.733790993690490723e-02,1.123545020818710327e-01,-8.324997127056121826e-02,-8.830678462982177734e-02,-1.243737041950225830e-01,-3.872828185558319092e-02,-9.303140640258789062e-02,8.499836921691894531e-02,1.077784299850463867e-01,-4.919686913490295410e-02,2.049858868122100830e-02,2.047033607959747314e-02,-5.692005157470703125e-03,-9.236125648021697998e-02,-9.624308347702026367e-02,6.709431111812591553e-02,2.361364662647247314e-02,-1.163350045680999756e-01,-7.190395891666412354e-02,-1.079673171043395996e-01,1.053294688463211060e-01,-7.882544398307800293e-02,-5.599363148212432861e-02,-2.435788512229919434e-03,-7.616639137268066406e-02,9.225545823574066162e-02,5.283322930335998535e-02,1.232444047927856445e-01,-7.892829179763793945e-02,-1.003620177507400513e-01,5.921189486980438232e-02,5.428075790405273438e-02,-8.595044910907745361e-02,-1.395833492279052734e-02,-1.995790004730224609e-02,-6.266601383686065674e-02,-1.475393772125244141e-03,-2.096074819564819336e-02,1.063367873430252075e-01,-9.074993431568145752e-02,-1.112040281295776367e-01,1.048303544521331787e-01,-9.866073727607727051e-03,8.274614810943603516e-02,-4.886095225811004639e-02,1.004177629947662354e-01,3.643327951431274414e-02,-9.661629796028137207e-02,-3.994148969650268555e-02,-6.364215910434722900e-02,8.985908329486846924e-02,3.958822786808013916e-02,-1.254026591777801514e-02,-6.363990902900695801e-02
8.559049665927886963e-02,8.017198741436004639e-02,-1.212271451950073242e-01,7.032524049282073975e-02,-7.700124382972717285e-02,-3.915548324584960938e-03,-1.149840950965881348e-01,5.347263813018798828e-02,-2.259166538715362549e-02,1.113175898790359497e-01,-1.107984781265258789e-01,-5.564586818218231201e-02,-7.385428249835968018e-02,7.075390219688415527e-02,8.033168315887451172e-02,-2.246890962123870850e-02,1.156170815229415894e-01,5.947455763816833496e-02,-1.126356422901153564e-01,7.799258828163146973e-02,2.454343438148498535e-02,-7.483474910259246826e-02,6.098851561546325684e-03,-5.716413259506225586e-03,-6.848879158496856689e-02,-3.095170855522155762e-02,3.391806781291961670e-02,1.085845828056335449e-01,-4.263043403625488281e-03,-6.275485455989837646e-02,6.579367816448211670e-02,9.678278863430023193e-02,-9.853981435298919678e-02,-6.075109541416168213e-02,3.424151241779327393e-02,1.043704897165298462e-01,-5.725343525409698486e-02,-3.180140256881713867e-02,-8.791670203208923340e-02,-2.704799175262451172e-02,-4.395839571952819824e-02,-1.508589088916778564e-02,6.306384503841400146e-02,8.955955505371093750e-02,-2.700194716453552246e-02,1.108873635530471802e-01,-3.591054677963256836e-02,-1.039032638072967529e-02,6.847198307514190674e-02,5.124451220035552979e-02,9.932607412338256836e-03,5.296580493450164795e-02,3.452740609645843506e-02,-1.513430476188659668e-02,-9.784485399723052979e-02,-1.226235926151275635e-01,7.043726742267608643e-02,-1.141271591186523438e-01,-9.940122067928314209e-02,-9.869791567325592041e-02,4.340718686580657959e-02,-7.383823394775390625e-02,7.347629964351654053e-02,-1.698285341262817383e-04
3.251212835311889648e-02,2.467036247253417969e-04,-6.436882913112640381e-02,-7.923887670040130615e-02,-1.191759407520294189e-01,-1.058198660612106323e-01,5.663032829761505127e-02,5.825749039649963379e-02,1.104861497879028320e-01,-8.903086185455322266e-03,1.087368279695510864e-01,5.133092403411865234e-02,-1.038961708545684814e-01,-6.109660863876342773e-02,9.722317755222320557e-02,1.666080951690673828e-02,1.297879219055175781e-02,3.918428719043731689e-02,7.782378792762756348e-02,-4.918777942657470703e-02,-5.702352523803710938e-02,-5.726499855518341064e-02,-6.674833595752716064e-02,3.619189560413360596e-02,8.425861597061157227e-04,5.166704952716827393e-02,1.236950308084487915e-01,6.811130046844482422e-02,-4.127614200115203857e-02,-9.608075022697448730e-03,3.714212775230407715e-02,-3.249946236610412598e-02,3.154766559600830078e-02,1.067540049552917480e-01,-1.081033200025558472e-01,-5.258166790008544922e-02,1.123533695936203003e-01,-1.376895606517791748e-02,2.672551572322845459e-02,-2.896229922771453857e-02,-2.860003709793090820e-02,9.277573227882385254e-02,-9.902739524841308594e-02,9.096963703632354736e-02,8.475670218467712402e-02,9.483541548252105713e-02,7.109630107879638672e-02,-3.017935156822204590e-02,-2.890998125076293945e-02,-3.752887248992919922e-03,-1.842191815376281738e-02,-9.835478663444519043e-02,7.150873541831970215e-03,1.894280314445495605e-02,3.222286701202392578e-02,-1.191770881414413452e-01,7.319654524326324463e-02,3.574252128601074219e-02,-3.516525030136108398e-04,6.491824984550476074e-03,-2.425248920917510986e-02,1.186588108539581299e-01,8.036941289901733398e-04,4.904823005199432373e-02
3.012865781784057617e-03,1.217266023159027100e-01,-7.652671635150909424e-02,9.953036904335021973e-03,7.893615961074829102e-02,-4.686169326305389404e-02,-4.728564620018005371e-02,-2.767081558704376221e-02,5.049693584442138672e-02,1.151514202356338501e-01,1.404012739658355713e-02,-1.740387082099914551e-02,-2.683222293853759766e-02,2.638694643974304199e-02,7.795803248882293701e-02,-8.076648414134979248e-02,3.958728909492492676e-02,-8.523887395858764648e-02,4.361928999423980713e-02,-1.592478156089782715e-02,-1.147522479295730591e-01,6.603315472602844238e-02,-1.096985191106796265e-01,-1.470030844211578369e-02,-2.349793910980224609e-02,7.681095600128173828e-02,2.116243541240692139e-02,-1.222176551818847656e-01,-1.934391260147094727e-02,-1.049136668443679810e-01,7.711753249168395996e-02,-5.435717105865478516e-02,1.112631857395172119e-01,-6.149341166019439697e-02,6.522578001022338867e-02,1.214012205600738525e-01,-6.846368312835693359e-02,3.241960704326629639e-02,-1.086599230766296387e-01,1.159117668867111206e-01,3.746899962425231934e-02,-4.989340901374816895e-02,-3.357318043708801270e-02,-1.005490869283676147e-01,5.247721076011657715e-02,3.644239902496337891e-02,8.041617274284362793e-02,-7.737861573696136475e-02,-7.260274887084960938e-02,1.060950458049774170e-01,5.374367535114288330e-02,4.038342833518981934e-02,-7.184930145740509033e-02,7.911810278892517090e-02,1.072355806827545166e-01,-8.080175518989562988e-02,-1.052621304988861084e-01,-8.399160206317901611e-02,4.599034786224365234e-02,9.026005864143371582e-02,-3.744646906852722168e-02,-3.363692760467529297e-02,-6.609843671321868896e-02,-6.894604861736297607e-02
1.508213579654693604e-02,-9.478217363357543945e-02,-1.268792152404785156e-02,-9.945842623710632324e-02,1.013606488704681396e-01,4.779981076717376709e-02,-1.126028001308441162e-01,-1.002423912286758423e-01,-3.204672038555145264e-02,1.014382094144821167e-01,5.916194617748260498e-02,-9.821252524852752686e-02,-1.084711104631423950e-01,2.189578115940093994e-02,-8.380860090255737305e-03,-2.139791846275329590e-02,8.607910573482513428e-02,1.495972275733947754e-02,1.126378029584884644e-01,-1.894122362136840820e-02,8.683457970619201660e-03,-1.044949591159820557e-01,8.612172305583953857e-02,-1.209608167409896851e-01,1.110971719026565552e-01,-1.577237248420715332e-02,-5.120921134948730469e-02,-1.105785369873046875e-01,1.164890974760055542e-01,-1.924306154251098633e-02,2.031663060188293457e-02,1.140007078647613525e-01,1.204388886690139771e-01,8.994458615779876709e-02,-1.218188852071762085e-01,-5.166009068489074707e-02,-1.147654801607131958e-01,1.187278330326080322e-01,-1.095450818538665771e-01,-4.841159284114837646e-02,7.973691821098327637e-02,-6.727591156959533691e-02,-1.017175167798995972e-01,-1.172886639833450317e-01,-2.478168904781341553e-02,7.958334684371948242e-02,-2.539545297622680664e-02,7.101649045944213867e-02,9.452041983604431152e-02,-3.438633680343627930e-02,-2.902127802371978760e-02,1.031805574893951416e-01,-5.039173364639282227e-02,1.035693883895874023e-01,-1.226945221424102783e-01,-6.683528423309326172e-02,-6.972251832485198975e-02,1.152370423078536987e-01,1.978367567062377930e-03,-7.003174722194671631e-02,-6.217576563358306885e-02,6.890177726745605469e-02,1.080821156501770020e-01,-8.460113406181335449e-02
-1.514950096607208252e-01,-3.199204802513122559e-02,-5.629518628120422363e-02,1.223875135183334351e-01,9.135074168443679810e-02,3.684410080313682556e-02,-9.852845221757888794e-02,-5.682776868343353271e-02,1.778979040682315826e-02,-5.453090369701385498e-02,2.969454824924468994e-01,5.791479349136352539e-02,-6.759233027696609497e-02,-9.039290249347686768e-03,2.710039913654327393e-02,4.824297130107879639e-02,6.993332505226135254e-02,1.179268732666969299e-01,8.774179220199584961e-02,3.133638203144073486e-02,2.092605084180831909e-01,1.391835976392030716e-02,-8.422692120075225830e-02,-2.160682231187820435e-01,-2.482445687055587769e-01,2.070883288979530334e-02,-1.087748333811759949e-01,-1.328004598617553711e-01,-9.517388045787811279e-02,2.229930460453033447e-02,-1.560062766075134277e-01,2.407307922840118408e-02,-2.073270082473754883e-02,3.187679499387741089e-02,-2.122445404529571533e-02,1.152309030294418335e-01,-1.144897043704986572e-01,-1.030425131320953369e-01,1.218236610293388367e-01,2.170805633068084717e-01,6.960311532020568848e-02,-7.095241546630859375e-02,-9.174016118049621582e-02,3.258726596832275391e-01,4.723395407199859619e-02,2.980127930641174316e-02,7.349544763565063477e-02,-8.379050344228744507e-02,-3.037098608911037445e-02,-3.094089925289154053e-01,-1.444143801927566528e-02,2.132658213376998901e-01,-1.461899876594543457e-01,-3.087130188941955566e-02,1.105776429176330566e-02,1.053537875413894653e-01,-1.095139980316162109e-01,1.653262972831726074e-01,-4.833626747131347656e-02,1.120397448539733887e-02,-1.317015886306762695e-01,1.276932470500469208e-02,-2.859236672520637512e-02,-6.610497832298278809e-02
3.364001214504241943e-02,-8.228251338005065918e-02,-7.059720158576965332e-02,-9.511002898216247559e-02,-7.837414741516113281e-02,-6.866481900215148926e-02,9.488667547702789307e-02,-2.789685130119323730e-02,6.629109382629394531e-03,-1.508109271526336670e-02,9.198865294456481934e-02,-1.053219437599182129e-01,4.821690917015075684e-02,3.062982857227325439e-02,3.617887198925018311e-02,4.018500447273254395e-02,7.787917554378509521e-02,1.043707132339477539e-02,1.025610566139221191e-01,-2.144517004489898682e-02,-5.256173014640808105e-02,-1.012644320726394653e-01,-1.931545138359069824e-02,-7.802082598209381104e-02,2.809585630893707275e-02,4.052028059959411621e-02,-1.216254234313964844e-01,3.587423264980316162e-02,9.896859526634216309e-02,-1.478064060211181641e-02,-3.178627789020538330e-02,2.966299653053283691e-03,-6.389549374580383301e-02,2.784757316112518311e-02,-9.398376941680908203e-02,2.418327331542968750e-02,6.588080525398254395e-02,5.471837520599365234e-02,1.564079523086547852e-02,7.427394390106201172e-03,-1.205923706293106079e-01,2.054154872894287109e-02,7.132329046726226807e-02,3.108040988445281982e-02,1.465339958667755127e-02,1.054801344871520996e-01,-7.520629465579986572e-02,-1.163526326417922974e-01,7.333992421627044678e-02,-1.200140863656997681e-01,1.684020459651947021e-02,2.280969917774200439e-02,-1.111443936824798584e-01,-7.330375909805297852e-02,6.078448891639709473e-02,-3.408138453960418701e-02,-7.976731657981872559e-02,6.760744750499725342e-02,-8.324275910854339600e-02,-9.297394752502441406e-02,-7.761558890342712402e-02,-7.016105949878692627e-02,1.220352947711944580e-01,7.195471227169036865e-02
3.814785182476043701e-02,-1.005125641822814941e-01,-1.362179219722747803e-02,-5.104590952396392822e-02,-2.019986510276794434e-03,-1.420864462852478027e-02,-1.038400530815124512e-01,9.991317987442016602e-03,1.211135685443878174e-01,-6.087669730186462402e-02,4.650743305683135986e-02,4.498969018459320068e-02,5.838255584239959717e-02,-8.247849345207214355e-02,9.323999285697937012e-02,-1.249441057443618774e-01,8.220027387142181396e-02,-1.214903593063354492e-02,6.012549996376037598e-02,-8.631898462772369385e-02,-1.198461800813674927e-01,-7.850454747676849365e-02,-3.008449077606201172e-02,-6.293486058712005615e-02,-9.489049017429351807e-02,-9.291985630989074707e-02,1.025245487689971924e-01,-4.952801764011383057e-02,-8.479389548301696777e-02,-2.300351858139038086e-02,2.497848868370056152e-02,1.997499167919158936e-02,-3.194150328636169434e-02,8.502425253391265869e-02,-7.214204967021942139e-02,-3.367364406585693359e-04,-1.024375408887863159e-01,5.696035921573638916e-02,-1.094512194395065308e-01,-7.193009555339813232e-02,-1.054723411798477173e-01,8.153374493122100830e-02,-7.600608468055725098e-02,1.137200295925140381e-01,-8.373185992240905762e-03,3.284782171249389648e-03,1.005654633045196533e-01,-9.813147783279418945e-02,5.193117260932922363e-02,8.607587218284606934e-02,7.273136079311370850e-02,-1.175739467144012451e-01,7.034167647361755371e-03,-2.709977328777313232e-02,8.334805071353912354e-02,-2.705059945583343506e-02,-3.612175583839416504e-03,-1.053631305694580078e-02,-4.295483231544494629e-02,-5.165511369705200195e-02,1.170919835567474365e-02,-1.042401939630508423e-01,-4.231071472167968750e-02,4.385326802730560303e-02
-2.789366245269775391e-02,-7.133644819259643555e-02,-7.870249450206756592e-02,-1.831084489822387695e-02,9.327809512615203857e-02,2.843526005744934082e-02,-2.217143774032592773e-04,1.089109480381011963e-01,-5.442343652248382568e-02,1.138688474893569946e-01,-2.246661484241485596e-02,1.241030842065811157e-01,5.505955219268798828e-02,-3.843203186988830566e-03,-3.337681293487548828e-02,6.599168479442596436e-02,6.275288760662078857e-02,-3.817294538021087646e-02,9.309974312782287598e-02,1.714533567428588867e-02,6.330214440822601318e-02,-9.552177786827087402e-02,3.592328727245330811e-02,2.304165065288543701e-02,-1.149818748235702515e-01,-8.045235276222229004e-02,1.685853302478790283e-02,-1.150780022144317627e-01,9.886743128299713135e-02,3.833930194377899170e-02,9.345814585685729980e-02,1.159985512495040894e-01,8.062097430229187012e-02,-3.978610038757324219e-03,3.056138753890991211e-03,-4.052485525608062744e-02,7.853966951370239258e-02,-1.211332678794860840e-01,-1.200689375400543213e-02,-1.651912927627563477e-03,1.029671728610992432e-01,-9.632931649684906006e-02,5.289727449417114258e-02,-9.205351769924163818e-02,1.515580713748931885e-02,9.065562486648559570e-02,-6.323297321796417236e-02,-9.300696849822998047e-02,-1.244830340147018433e-01,5.800479650497436523e-02,7.602386176586151123e-02,4.043354094028472900e-02,2.307339012622833252e-02,8.646497130393981934e-02,5.167019367218017578e-02,-3.136470913887023926e-02,7.791852951049804688e-02,4.588668048381805420e-02,-2.015326917171478271e-02,-9.399229288101196289e-02,9.448888897895812988e-02,-1.016300469636917114e-01,-3.332845866680145264e-02,-1.015329509973526001e-01
