4.733872413635253906e-02,3.628791868686676025e-02,2.811526693403720856e-02,-1.901870477013289928e-03,7.476189639419317245e-03,4.557171463966369629e-02,-3.102042153477668762e-02,-1.820656284689903259e-02,4.753689840435981750e-02,-6.108572240918874741e-03,-6.887320429086685181e-02,7.471004873514175415e-02,-3.796695545315742493e-02,7.086150348186492920e-02,-5.067214742302894592e-02,-6.205889582633972168e-02,-2.522841095924377441e-02,6.618594378232955933e-02,-4.061963036656379700e-02,1.934233680367469788e-02,3.340272605419158936e-02,1.011784560978412628e-02,-2.402867190539836884e-02,-5.530865117907524109e-02,7.639410323463380337e-04,2.340605482459068298e-03,6.561474502086639404e-02,-5.730566754937171936e-02,1.668551377952098846e-02,-2.652502246201038361e-02,-1.538971439003944397e-03,-8.795899897813796997e-02,-4.814162384718656540e-03,2.693064138293266296e-02,4.448613524436950684e-02,-9.619088843464851379e-03,2.088084816932678223e-02,3.925101757049560547e-01,-2.453588321805000305e-02,-2.117343712598085403e-03,6.348075694404542446e-04,3.207121044397354126e-02,-6.869838386774063110e-02,9.860076755285263062e-02,-8.871051250025629997e-04,2.229479700326919556e-02,7.035928312689065933e-03,-2.426043065497651696e-04,-1.894443295896053314e-02,-3.638661932200193405e-03,-7.548435032367706299e-02,4.634287906810641289e-04,4.566920176148414612e-02,-5.115773063153028488e-03,3.455919213593006134e-03,1.960044950246810913e-01,-4.660463705658912659e-02,1.161030866205692291e-02,5.526331067085266113e-02,6.348235905170440674e-02,2.845012024044990540e-02,1.995998667553067207e-03,2.570645883679389954e-03,-1.378303766250610352e-02,1.630592346191406250e-01,-6.428287923336029053e-02,-5.929232388734817505e-02,1.938878442160785198e-03,-4.505257308483123779e-02,-5.305255576968193054e-02,1.549251843243837357e-03,-8.833370357751846313e-02,-4.221197590231895447e-02,3.533918261528015137e-01,4.070387035608291626e-02,3.383039683103561401e-02,4.087553918361663818e-02,1.335256546735763550e-02,5.400108546018600464e-02,8.247519726864993572e-04,2.829005382955074310e-02,1.486063655465841293e-02,-3.639734163880348206e-02,-5.417366512119770050e-03,-4.628747701644897461e-02,-5.183887667953968048e-03,1.555119873955845833e-03,9.622326120734214783e-03,1.694530248641967773e-02,9.339133976027369499e-04,6.073222309350967407e-02,4.231883212924003601e-02,-8.663532882928848267e-02,-6.809614598751068115e-02,5.235390737652778625e-02,-1.862727291882038116e-02,4.248681664466857910e-01,3.612231812439858913e-04,-5.390223488211631775e-02,-4.565991833806037903e-02,4.343445599079132080e-02,-5.938294157385826111e-02,2.875946462154388428e-02,-6.375233083963394165e-02,6.609066575765609741e-02,2.785377670079469681e-03,-3.165818005800247192e-02,9.219110943377017975e-03,4.813095182180404663e-02,3.602683916687965393e-02,6.359767168760299683e-02,1.520976424217224121e-03,7.083887234330177307e-03,-3.087341785430908203e-02,-5.226288735866546631e-02,9.418073296546936035e-02,-2.005131728947162628e-02,8.069426566362380981e-02,-6.511671817861497402e-04,3.331099450588226318e-01,3.584291785955429077e-03,-3.204092616215348244e-03,-5.763440579175949097e-02,3.918515145778656006e-02,-4.595537856221199036e-02,-6.784682162106037140e-03,3.301016613841056824e-02,2.281371736899018288e-03
