3.357730805873870850e-03,-1.892891526222229004e-02,4.159777611494064331e-02,-3.203451260924339294e-02,-8.000014722347259521e-02,2.500663697719573975e-02,6.545131653547286987e-02,-6.811947375535964966e-02,-2.821184322237968445e-02,4.018931835889816284e-02,-5.112883448600769043e-02,-9.746940340846776962e-04,2.847382985055446625e-02,2.388343960046768188e-02,6.271486729383468628e-02,3.634665906429290771e-02,-6.717777252197265625e-02,-7.936657965183258057e-02,9.704999625682830811e-03,7.500103861093521118e-02,6.671915948390960693e-02,-1.522554364055395126e-02,-5.529129877686500549e-02,-3.104818798601627350e-02,1.288282871246337891e-02,-2.684451639652252197e-02,-8.114419877529144287e-03,-1.223462820053100586e-02,1.741284132003784180e-02,1.522678881883621216e-02,9.272485971450805664e-03,-5.840774625539779663e-02,6.369549781084060669e-02,1.297291927039623260e-02,4.591461271047592163e-02,3.732887655496597290e-02,-4.760025069117546082e-02,-6.425895541906356812e-02,6.882060319185256958e-02,2.285423129796981812e-02,2.619271725416183472e-02,5.943810194730758667e-02,-1.960594207048416138e-02,-4.896968603134155273e-03,3.961107507348060608e-02,3.076067566871643066e-02,8.506372570991516113e-03,-2.274612709879875183e-02,4.204107390251010656e-04,-5.593084916472434998e-02,3.580270707607269287e-02,1.246944628655910492e-02,-7.352396100759506226e-02,7.446718961000442505e-02,3.254714608192443848e-02,-3.967702388763427734e-03,-6.560830771923065186e-02,-7.537542283535003662e-02,-1.424617320299148560e-02,5.461587756872177124e-02,5.536835640668869019e-02,-6.182156503200531006e-02,8.362580090761184692e-02,7.094791159033775330e-03,-8.769979327917098999e-02,2.500180155038833618e-02,-3.248874843120574951e-02,-6.197396665811538696e-02,-4.432835802435874939e-02,-5.844439938664436340e-02,-2.281051874160766602e-02,2.168675512075424194e-02,4.518412798643112183e-02,-1.933568529784679413e-02,-1.097508519887924194e-01,-2.076689153909683228e-02,-8.356573432683944702e-02,-2.724941633641719818e-02,-1.140473131090402603e-02,-8.055556565523147583e-02,-5.700594559311866760e-02,3.718350455164909363e-02,-1.627400331199169159e-02,-7.266435772180557251e-02,-5.241753533482551575e-02,-3.958130627870559692e-02,8.127041906118392944e-02,-5.548691377043724060e-02,-9.395830333232879639e-02,-6.540088355541229248e-02,-2.719038724899291992e-02,3.554840385913848877e-02,6.897424906492233276e-02,-7.342980243265628815e-03,-7.149507850408554077e-02,8.807428181171417236e-03,1.159589737653732300e-02,1.876198500394821167e-02,-2.781685814261436462e-02,-4.709355905652046204e-02,-9.803536348044872284e-03,-5.433436855673789978e-02,4.965295642614364624e-02,-8.621750771999359131e-02,-6.467526406049728394e-02,3.605183213949203491e-02,6.451919674873352051e-02,7.805711124092340469e-03,7.149729877710342407e-02,-8.440787345170974731e-02,-7.081539928913116455e-02,6.110707670450210571e-02,6.431535631418228149e-02,9.695068001747131348e-03,4.686244577169418335e-02,5.821735411882400513e-02,4.876354709267616272e-03,9.644620120525360107e-03,-3.888933733105659485e-02,4.123033490031957626e-03,8.448342233896255493e-02,-3.980348259210586548e-02,2.807743847370147705e-02,6.975032389163970947e-02,4.848451539874076843e-02,-1.059950143098831177e-02,-6.721205264329910278e-02,-1.067948266863822937e-01
5.945253372192382812e-02,-1.347681879997253418e-02,2.662532590329647064e-02,1.149622350931167603e-02,2.174575440585613251e-02,-7.862259447574615479e-02,-4.441606253385543823e-02,6.322681903839111328e-02,-2.479554526507854462e-02,-4.385365173220634460e-02,4.078575968742370605e-02,4.311833158135414124e-02,2.476846985518932343e-02,-1.971971243619918823e-03,9.090360254049301147e-02,-1.499107014387845993e-02,-3.821154311299324036e-02,6.523037794977426529e-03,4.313166812062263489e-02,-3.854061663150787354e-02,-1.518099848181009293e-02,3.030573762953281403e-02,1.846790499985218048e-02,-8.338747918605804443e-02,2.693798951804637909e-02,-4.506754875183105469e-02,8.714281022548675537e-03,2.149960957467556000e-02,1.951240003108978271e-03,8.469047397375106812e-02,-2.857815474271774292e-02,2.658115699887275696e-02,3.214795887470245361e-02,-4.827108979225158691e-02,7.486979663372039795e-02,-7.146941125392913818e-02,-4.917245730757713318e-02,-2.569732256233692169e-02,5.885361507534980774e-02,7.850199937820434570e-02,1.938007585704326630e-02,-5.613448470830917358e-02,-4.580391570925712585e-02,-3.524089232087135315e-02,-7.466079294681549072e-02,-5.124277248978614807e-02,-9.751252084970474243e-02,1.140830758959054947e-02,-4.476900678128004074e-03,-3.106378763914108276e-02,5.491312965750694275e-02,4.069099668413400650e-03,-2.825133502483367920e-03,-3.758136415854096413e-03,2.499772608280181885e-02,-1.486449837684631348e-01,3.140743076801300049e-02,5.858800373971462250e-03,2.681392431259155273e-02,5.567745119333267212e-02,-5.398914963006973267e-02,2.634783834218978882e-02,-4.628694057464599609e-02,6.881140917539596558e-02,6.475929170846939087e-02,7.679599523544311523e-02,1.616719923913478851e-02,-9.944930672645568848e-03,4.495334252715110779e-02,-5.829510465264320374e-02,-8.429096639156341553e-02,8.807263523340225220e-02,4.032668098807334900e-02,2.400499209761619568e-02,-2.638354897499084473e-02,-8.605566620826721191e-02,-6.977772712707519531e-02,-8.036007732152938843e-02,-5.737801268696784973e-02,-7.770938333123922348e-03,4.394886549562215805e-03,-9.736765059642493725e-04,-4.097945988178253174e-02,-1.092125475406646729e-02,4.194271564483642578e-02,-4.670752584934234619e-02,2.291970513761043549e-02,-3.964465484023094177e-02,-1.177750807255506516e-02,-1.330634951591491699e-02,-4.327885061502456665e-02,2.446700260043144226e-02,-2.376001887023448944e-02,9.642853587865829468e-02,2.654039300978183746e-03,-1.003867574036121368e-02,-7.726213335990905762e-02,3.897139430046081543e-02,-6.015644595026969910e-02,3.705468401312828064e-02,6.795035302639007568e-02,-4.641814529895782471e-02,-7.781027257442474365e-02,3.486549109220504761e-02,-4.888655617833137512e-02,-1.608754508197307587e-02,3.749756515026092529e-02,4.280281066894531250e-02,-8.184487372636795044e-02,3.582064062356948853e-02,-5.729901045560836792e-02,-7.846339792013168335e-02,-1.419262588024139404e-02,1.523217372596263885e-02,8.592528849840164185e-02,-6.183358654379844666e-02,5.898554623126983643e-02,5.510941520333290100e-02,-6.982596963644027710e-02,2.745863050222396851e-02,-5.789848044514656067e-02,-1.218730956315994263e-02,-9.918518364429473877e-03,5.682956799864768982e-02,-8.405303955078125000e-02,-7.090570032596588135e-02,4.030884429812431335e-02,2.054757624864578247e-02
7.590628415346145630e-02,-4.347406327724456787e-03,-7.207290083169937134e-02,-1.328503992408514023e-02,3.632277250289916992e-03,-3.340598195791244507e-02,-9.182906895875930786e-02,5.718117952346801758e-02,5.953338742256164551e-02,6.883124262094497681e-02,6.621570140123367310e-02,-5.633530765771865845e-02,-8.267644047737121582e-02,8.845329284667968750e-04,-4.183811321854591370e-02,3.565008193254470825e-02,-6.612239032983779907e-02,-9.839064627885818481e-02,-8.502459526062011719e-02,8.219357579946517944e-02,1.114964112639427185e-02,4.482278227806091309e-02,-3.747552400454878807e-04,-3.615328669548034668e-02,2.507082931697368622e-02,-5.793858319520950317e-02,-5.985989421606063843e-02,6.278917938470840454e-02,7.376476377248764038e-02,2.483639121055603027e-02,-7.667919248342514038e-02,-1.109266281127929688e-02,-7.013326883316040039e-02,3.557159379124641418e-02,-8.482289314270019531e-02,5.163657665252685547e-02,8.569486439228057861e-03,4.221063107252120972e-02,5.297105759382247925e-02,-1.128546893596649170e-02,1.718393713235855103e-02,6.015112251043319702e-02,-3.564218757674098015e-03,-7.890815287828445435e-02,4.879416525363922119e-02,-7.231717556715011597e-02,3.260193765163421631e-02,-4.109915345907211304e-02,7.046667486429214478e-02,-8.621460944414138794e-02,-1.809194684028625488e-02,-2.266931161284446716e-02,-5.566380545496940613e-02,4.910834832116961479e-04,-6.819578260183334351e-02,-6.957593560218811035e-02,-3.835194557905197144e-02,1.085989177227020264e-02,-1.898527890443801880e-02,-3.077191859483718872e-02,7.336490601301193237e-02,6.659188121557235718e-02,-8.543526381254196167e-02,-7.300514727830886841e-02,-1.534043997526168823e-02,-9.430222958326339722e-02,3.297051042318344116e-02,-5.594171211123466492e-02,1.448220293968915939e-02,2.306546270847320557e-02,7.499831169843673706e-02,4.281266778707504272e-02,2.398534864187240601e-02,-5.273728817701339722e-02,5.163979716598987579e-03,-2.260725758969783783e-02,4.643651098012924194e-02,-9.521764703094959259e-03,5.113512277603149414e-03,3.088943101465702057e-02,-3.864732012152671814e-02,4.838788881897926331e-02,-9.373820573091506958e-02,5.544497072696685791e-02,-8.833558857440948486e-02,-7.301755249500274658e-02,6.111157685518264771e-02,-1.945573091506958008e-02,-1.040039733052253723e-01,7.447526603937149048e-02,-4.462937265634536743e-02,-1.055251806974411011e-02,7.583310455083847046e-02,4.816680401563644409e-02,-1.132366433739662170e-02,8.501370996236801147e-02,2.397980540990829468e-02,-6.204139441251754761e-02,-7.849191129207611084e-02,-7.526770234107971191e-03,-5.364814400672912598e-02,-5.991524457931518555e-02,3.667446225881576538e-02,-4.386678338050842285e-04,-2.421919256448745728e-02,-1.284936070442199707e-02,-6.455992907285690308e-02,-7.066582888364791870e-02,6.218560039997100830e-03,-2.872855030000209808e-02,-2.467624284327030182e-02,-4.628726840019226074e-02,3.810545057058334351e-02,7.227621972560882568e-02,5.975154787302017212e-02,2.935940027236938477e-02,-8.202998340129852295e-02,5.325968936085700989e-02,-1.823478192090988159e-02,-3.361005708575248718e-02,-6.573993712663650513e-02,-1.277612894773483276e-02,-7.326975464820861816e-03,6.257800757884979248e-02,1.551011390984058380e-02,4.284314066171646118e-02,1.188874244689941406e-02,-1.381378322839736938e-01
-7.557112723588943481e-02,8.522520214319229126e-02,3.070950321853160858e-02,-7.199664134532213211e-03,5.681519955396652222e-02,4.412078112363815308e-02,5.626066401600837708e-02,9.354633092880249023e-02,-6.907416880130767822e-02,4.632103443145751953e-02,-5.787219852209091187e-02,2.399512380361557007e-02,1.286755353212356567e-01,9.248767793178558350e-02,-3.914749994874000549e-02,9.962157346308231354e-03,-8.781389147043228149e-02,9.583913534879684448e-02,5.478543415665626526e-02,-9.660334326326847076e-03,-3.146160766482353210e-02,-4.654003307223320007e-02,1.767139881849288940e-02,4.896325245499610901e-02,-7.779957354068756104e-02,3.819235414266586304e-02,2.138244360685348511e-02,-8.703957498073577881e-02,-3.330402076244354248e-03,-7.142040133476257324e-02,-3.735794499516487122e-02,2.051214314997196198e-02,-7.023286074399948120e-02,5.475256219506263733e-02,7.966170459985733032e-02,-3.827214613556861877e-02,7.566150277853012085e-02,-8.371866308152675629e-03,5.272287130355834961e-02,9.073255956172943115e-02,5.585145205259323120e-02,1.513146125944331288e-04,-7.431845366954803467e-02,-1.127673871815204620e-02,9.550097274768631905e-06,-5.165506154298782349e-02,2.918002195656299591e-02,-4.613314196467399597e-02,3.300613956525921822e-03,4.698988422751426697e-02,1.328127086162567139e-02,-4.540024697780609131e-02,-1.175229996442794800e-02,-4.235261678695678711e-02,-8.695904910564422607e-02,-1.089951209723949432e-02,4.436738044023513794e-02,5.637533217668533325e-02,-3.103893995285034180e-02,-8.363837748765945435e-02,-7.358964532613754272e-02,9.054850786924362183e-02,7.549023628234863281e-02,2.160956338047981262e-02,1.833299547433853149e-02,-9.133414924144744873e-02,5.779246985912322998e-02,1.172260101884603500e-02,1.477293372154235840e-01,-6.712247431278228760e-02,-5.660561099648475647e-02,1.565159857273101807e-02,-4.317977279424667358e-02,2.928653918206691742e-02,7.505567371845245361e-02,-6.845089793205261230e-02,-8.273907005786895752e-02,1.440238207578659058e-02,6.266984622925519943e-03,5.322866141796112061e-02,5.632015317678451538e-02,-5.246485024690628052e-02,7.144165039062500000e-02,-8.417008072137832642e-02,1.300948113203048706e-01,1.028932332992553711e-01,-8.377885073423385620e-02,-5.270428955554962158e-03,-3.031082265079021454e-02,6.601559370756149292e-02,6.324274837970733643e-02,3.550883382558822632e-02,-3.958415985107421875e-02,-4.989701136946678162e-02,-5.334172770380973816e-02,-1.219781953841447830e-02,3.235181421041488647e-02,-1.827620901167392731e-02,-4.648303985595703125e-02,-6.795728951692581177e-02,-2.099607884883880615e-01,3.179003298282623291e-02,-2.993881143629550934e-02,2.048406004905700684e-02,4.323408380150794983e-02,-6.264248490333557129e-02,6.055864691734313965e-02,8.618859946727752686e-02,-8.698034286499023438e-02,-3.229247033596038818e-02,-8.236971497535705566e-02,8.796803653240203857e-03,5.893906205892562866e-02,-3.691411763429641724e-02,-5.077542364597320557e-02,-5.318271368741989136e-02,-7.127567380666732788e-02,1.048743817955255508e-02,-5.772802233695983887e-02,-7.067304849624633789e-02,7.003536075353622437e-02,8.064091205596923828e-03,-2.971680648624897003e-02,-3.241080418229103088e-02,3.491485491394996643e-02,-6.099936366081237793e-02,4.192814230918884277e-03,3.218658268451690674e-02
2.902787178754806519e-02,-4.309358075261116028e-02,3.961194306612014771e-02,1.591822504997253418e-02,1.849208027124404907e-02,3.177651762962341309e-02,1.115333288908004761e-02,-7.220945507287979126e-02,-5.817252397537231445e-02,3.338774293661117554e-02,8.044981211423873901e-02,7.963416725397109985e-02,-8.865854144096374512e-02,7.500910013914108276e-02,1.602748036384582520e-02,-8.563601225614547729e-02,5.551815032958984375e-03,2.971506863832473755e-02,2.449110895395278931e-02,5.305474251508712769e-02,5.496945814229547977e-04,2.559039741754531860e-02,-4.423829913139343262e-02,4.117286950349807739e-02,-1.578382402658462524e-02,1.134702563285827637e-02,-5.096080899238586426e-02,-8.175707608461380005e-02,-2.939310669898986816e-02,-3.661286085844039917e-02,4.046270996332168579e-02,4.293168336153030396e-02,5.316755920648574829e-02,-2.917950600385665894e-02,-4.812048003077507019e-02,2.625474333763122559e-02,8.300068229436874390e-02,3.483711183071136475e-02,-6.443457305431365967e-02,8.780863136053085327e-02,2.368943393230438232e-02,-9.204253554344177246e-03,-8.677284419536590576e-02,7.354874163866043091e-02,2.070690691471099854e-02,5.438648909330368042e-02,7.521820813417434692e-02,-2.985268458724021912e-02,5.608395114541053772e-02,1.126032322645187378e-02,7.200198620557785034e-02,-5.136768519878387451e-02,-1.216310262680053711e-02,3.948917239904403687e-02,3.829152137041091919e-02,-7.184679806232452393e-02,5.675087124109268188e-02,8.560598641633987427e-02,7.704626768827438354e-02,-7.918189465999603271e-02,-6.960412859916687012e-02,-6.799104809761047363e-02,-8.222775161266326904e-02,1.278077811002731323e-02,1.268088072538375854e-02,-6.250162422657012939e-02,-5.231268703937530518e-03,-7.650888711214065552e-02,7.999092340469360352e-03,4.518900066614151001e-02,-6.945213675498962402e-02,8.800256997346878052e-02,-5.841851234436035156e-03,6.959021836519241333e-02,-8.420893549919128418e-02,-2.767071127891540527e-04,6.094913929700851440e-02,-8.590428531169891357e-02,-9.913425892591476440e-02,5.487390607595443726e-02,-5.936596542596817017e-02,-4.102700576186180115e-02,-2.859422191977500916e-02,-1.030280441045761108e-02,-7.863027602434158325e-02,-3.933515772223472595e-02,5.300221592187881470e-02,-7.554237544536590576e-02,2.924665808677673340e-03,3.527711331844329834e-02,-3.259792923927307129e-03,8.417681604623794556e-02,2.494091540575027466e-02,-8.214430510997772217e-02,1.559621095657348633e-02,-6.141690164804458618e-02,3.406097739934921265e-02,-1.925607444718480110e-03,3.936975449323654175e-02,-3.936564177274703979e-02,3.187309950590133667e-02,-1.387411355972290039e-02,-7.567894458770751953e-02,-5.793876573443412781e-02,-6.764918565750122070e-02,-2.001950144767761230e-02,-6.984127312898635864e-02,-8.875145763158798218e-02,-7.286298274993896484e-02,4.408838599920272827e-02,4.110328108072280884e-02,-2.528043091297149658e-02,-4.535410553216934204e-02,-8.405414223670959473e-02,4.200436919927597046e-02,-4.380680620670318604e-03,-5.589368194341659546e-02,-9.580671787261962891e-03,6.270516663789749146e-02,-5.805307254195213318e-02,-9.472072124481201172e-04,5.142364650964736938e-02,2.463518083095550537e-02,5.598165839910507202e-02,-3.027048707008361816e-02,-3.218737989664077759e-02,2.185850590467453003e-02,-1.702669262886047363e-02
-7.102970778942108154e-02,-3.080956637859344482e-02,2.088624797761440277e-02,2.167642675340175629e-02,3.041324764490127563e-02,7.789890468120574951e-02,-6.786184012889862061e-02,8.223508484661579132e-03,5.757774785161018372e-02,9.134262800216674805e-04,-6.091140210628509521e-02,-4.566736519336700439e-02,-1.328933751210570335e-03,2.419116348028182983e-02,-3.708914294838905334e-02,1.666314899921417236e-03,4.031059890985488892e-02,-9.081827104091644287e-02,6.511084735393524170e-02,2.989148907363414764e-02,-2.284367196261882782e-02,2.839469723403453827e-02,-9.393043071031570435e-02,-6.238102912902832031e-02,-6.264067441225051880e-02,-3.346542594954371452e-03,-9.689010679721832275e-03,1.242962479591369629e-02,-6.015926599502563477e-03,5.968891829252243042e-02,-2.618047222495079041e-02,-6.618186086416244507e-02,-7.876088470220565796e-02,-6.457783281803131104e-02,-7.365338504314422607e-02,4.990850761532783508e-02,5.325284600257873535e-02,6.431814283132553101e-02,-3.727924451231956482e-02,-3.235887736082077026e-02,1.129087805747985840e-02,5.771260708570480347e-02,1.511499285697937012e-04,3.698796033859252930e-02,-7.182309776544570923e-02,1.924496516585350037e-02,7.024571765214204788e-03,2.706459537148475647e-02,-7.980526238679885864e-02,-5.110979080200195312e-03,7.189483195543289185e-02,7.772078737616539001e-03,-3.146583586931228638e-02,4.093599691987037659e-02,-2.836881205439567566e-02,-9.000866860151290894e-02,8.182957768440246582e-03,-6.543304026126861572e-02,-1.497822999954223633e-02,-8.411407470703125000e-03,-7.118882983922958374e-02,6.249490007758140564e-02,1.002662815153598785e-02,-4.688315093517303467e-02,-1.714357361197471619e-02,6.965175271034240723e-03,-4.954645782709121704e-02,-2.832117490470409393e-02,1.071813795715570450e-02,-4.999604076147079468e-02,-2.041813544929027557e-02,-3.997676074504852295e-02,7.205943018198013306e-02,7.253374904394149780e-02,2.576506696641445160e-02,5.681315064430236816e-02,3.637102246284484863e-02,-3.199683129787445068e-02,-7.892204076051712036e-02,-9.685532003641128540e-02,-4.418468102812767029e-02,-4.241406172513961792e-02,-1.596495276317000389e-03,1.346764806658029556e-02,-8.067840337753295898e-02,-4.848560690879821777e-02,4.509217292070388794e-02,8.687458932399749756e-03,-1.961509324610233307e-02,7.973462343215942383e-04,4.709785431623458862e-02,8.076860755681991577e-02,3.858869522809982300e-02,3.450485318899154663e-02,-2.466212399303913116e-02,-5.199519544839859009e-02,5.770755559206008911e-02,-4.776019603013992310e-02,-4.244451224803924561e-02,-7.106412947177886963e-02,-9.275707602500915527e-02,-3.480101376771926880e-02,-7.039357721805572510e-02,8.681317418813705444e-02,-1.098698703572154045e-03,-8.197461068630218506e-02,-3.910807147622108459e-02,-6.368205696344375610e-02,-6.297720968723297119e-02,-1.282260380685329437e-02,1.505767740309238434e-02,-4.946967214345932007e-02,6.849213689565658569e-02,-8.731560409069061279e-02,-1.665313541889190674e-02,5.159670859575271606e-02,-7.886825501918792725e-02,-3.728565573692321777e-02,-2.353040874004364014e-02,2.334062010049819946e-02,-2.401760220527648926e-02,4.392787069082260132e-02,7.790075987577438354e-02,3.888272866606712341e-02,-1.935674250125885010e-02,4.862361401319503784e-02,7.029797881841659546e-02,-4.898675531148910522e-02
1.607418060302734375e-03,-5.904896184802055359e-02,2.199681475758552551e-02,-8.274586498737335205e-02,2.492611855268478394e-02,-8.850220590829849243e-02,4.621266573667526245e-02,-2.509876713156700134e-02,-1.129006315022706985e-02,-7.270197570323944092e-02,6.741536408662796021e-02,-1.258475705981254578e-03,-7.451511919498443604e-02,-1.778934895992279053e-02,5.281472578644752502e-03,1.426076889038085938e-02,5.422607809305191040e-02,-1.125207170844078064e-01,-6.196672096848487854e-03,-9.155925363302230835e-02,7.726304233074188232e-02,-6.225964799523353577e-02,-7.263918220996856689e-02,-6.465722620487213135e-02,-4.992677643895149231e-02,-2.744608744978904724e-02,8.591234683990478516e-03,1.429928117431700230e-03,7.343553751707077026e-02,-6.193971261382102966e-02,-2.513653039932250977e-02,5.274595692753791809e-03,3.491116315126419067e-02,6.388463079929351807e-02,4.950939863920211792e-02,-2.392048761248588562e-02,-5.063475668430328369e-02,-3.336372226476669312e-02,3.884261101484298706e-02,7.706881035119295120e-03,5.014224350452423096e-02,3.584704548120498657e-02,5.497659742832183838e-02,2.130900509655475616e-02,6.206452846527099609e-02,6.648973375558853149e-02,-7.392928749322891235e-02,-3.298064321279525757e-02,7.663045544177293777e-03,-4.394162073731422424e-02,-7.451775670051574707e-02,-6.901714205741882324e-02,6.887591630220413208e-02,6.864244490861892700e-02,7.576970010995864868e-02,4.852950572967529297e-02,-6.635423749685287476e-03,4.732256755232810974e-03,-9.080256521701812744e-02,3.409612178802490234e-02,-1.225627958774566650e-03,-3.630129620432853699e-02,5.529809743165969849e-02,7.063758373260498047e-02,-6.022785604000091553e-02,-4.589634761214256287e-02,6.532356888055801392e-02,-4.964215308427810669e-02,1.196845341473817825e-02,7.700822502374649048e-02,3.376084193587303162e-02,-5.931873619556427002e-02,-3.551927208900451660e-02,1.352629996836185455e-02,-4.139100667089223862e-03,-4.406226798892021179e-02,-7.638175040483474731e-02,1.250557228922843933e-02,-1.261988580226898193e-01,1.352193858474493027e-02,-7.478494197130203247e-02,4.323602467775344849e-02,-3.980789706110954285e-02,5.720589309930801392e-02,-2.003834210336208344e-02,-5.377104040235280991e-03,4.535760357975959778e-02,-8.843763172626495361e-02,-3.932918235659599304e-02,5.565597862005233765e-02,-2.296380698680877686e-03,2.083742618560791016e-02,-2.250656485557556152e-02,2.874850062653422356e-03,1.277927961200475693e-02,5.186309665441513062e-02,2.184668183326721191e-02,-1.247130427509546280e-02,-6.669505685567855835e-02,2.979169040918350220e-02,-7.795394212007522583e-02,-4.623322188854217529e-02,4.362243413925170898e-02,5.675046145915985107e-02,-8.870737254619598389e-02,-1.140615437179803848e-03,-5.668853595852851868e-02,-1.152674183249473572e-01,-3.879981860518455505e-02,-5.041199736297130585e-03,3.600884601473808289e-02,6.033302284777164459e-03,5.229958146810531616e-02,-6.530892848968505859e-02,-4.429884627461433411e-02,-8.313429355621337891e-02,-9.479624778032302856e-02,-6.743450462818145752e-02,5.491103231906890869e-02,-3.119563683867454529e-02,-3.779954835772514343e-02,-6.686531007289886475e-03,-9.291268885135650635e-03,-1.171855926513671875e-01,-3.743492439389228821e-02,4.762106388807296753e-02,-9.229651652276515961e-03,-1.809881180524826050e-01
-2.633999101817607880e-02,-3.887550532817840576e-02,-2.867597341537475586e-02,-4.844442382454872131e-02,1.049631088972091675e-02,5.128202214837074280e-02,-7.926546968519687653e-03,3.048020787537097931e-02,4.863846674561500549e-02,3.548115491867065430e-02,-1.091124862432479858e-01,-4.457931965589523315e-02,-5.998737737536430359e-02,-4.714056849479675293e-02,8.106871694326400757e-02,8.166495710611343384e-02,-6.180172413587570190e-02,-6.941340863704681396e-02,2.802531793713569641e-02,3.358364570885896683e-03,5.912982672452926636e-02,1.780578121542930603e-02,-8.140678703784942627e-02,3.128313645720481873e-02,4.408881813287734985e-02,2.640390768647193909e-02,7.734284549951553345e-02,-4.041528701782226562e-02,-4.724318161606788635e-02,-8.139201253652572632e-02,7.337009161710739136e-02,7.371880859136581421e-02,5.174954235553741455e-02,3.513287520036101341e-03,-4.103009402751922607e-02,1.212192047387361526e-02,1.806861022487282753e-03,1.659677363932132721e-02,3.358850628137588501e-02,-8.003456890583038330e-02,9.174895286560058594e-02,-5.805131047964096069e-02,-2.384209260344505310e-02,4.252641275525093079e-02,5.462167784571647644e-02,-3.554406389594078064e-02,-1.079153418540954590e-01,6.997319310903549194e-02,-9.946200996637344360e-03,6.862773001194000244e-02,-3.476738929748535156e-02,-7.402595877647399902e-02,1.956246793270111084e-03,-6.900072330608963966e-04,6.905414909124374390e-02,4.613669589161872864e-02,8.439996093511581421e-02,-5.940784513950347900e-02,1.808604411780834198e-02,-8.691228926181793213e-02,8.423794060945510864e-02,1.658463478088378906e-02,7.844499498605728149e-02,-9.261175990104675293e-02,2.659826725721359253e-02,-4.411590285599231720e-03,9.063249081373214722e-02,-4.934673383831977844e-02,-3.576493635773658752e-02,8.632830530405044556e-02,-7.179057691246271133e-03,-5.212100595235824585e-02,1.550723612308502197e-02,4.690145328640937805e-02,-4.547652229666709900e-02,-8.598206192255020142e-02,7.229768484830856323e-02,-9.452547878026962280e-02,-2.881054021418094635e-02,1.349534280598163605e-02,1.767178624868392944e-02,1.508045475929975510e-02,-3.713771700859069824e-02,-3.426531329751014709e-02,-2.383321896195411682e-02,-2.868010848760604858e-02,3.149275481700897217e-02,7.250551134347915649e-02,-5.026741325855255127e-02,-6.973470002412796021e-02,-4.071616381406784058e-02,5.890807509422302246e-02,6.145239621400833130e-02,-8.273805677890777588e-02,-9.179303795099258423e-02,4.810870438814163208e-02,-2.408495545387268066e-02,-6.185592617839574814e-03,8.181660622358322144e-02,-6.403580307960510254e-02,4.523557052016258240e-02,2.141876146197319031e-02,3.217707946896553040e-02,-4.996658489108085632e-02,-2.062580548226833344e-02,-2.287216484546661377e-02,-2.284014364704489708e-03,-9.475423395633697510e-02,8.489152044057846069e-02,-8.670817315578460693e-02,-6.509487330913543701e-02,-8.744958788156509399e-02,6.652966141700744629e-03,8.098755776882171631e-02,-8.436557650566101074e-02,-1.666570454835891724e-02,-3.232699818909168243e-03,5.435460805892944336e-02,-7.983575761318206787e-02,5.858762934803962708e-02,6.669297814369201660e-03,8.605547994375228882e-02,-8.268265984952449799e-03,2.946457639336585999e-02,7.069451361894607544e-02,-7.042706757783889771e-02,-3.718849271535873413e-02,-4.504932090640068054e-02
8.254396915435791016e-02,5.532037839293479919e-02,-9.543842636048793793e-03,8.967206627130508423e-02,5.999847501516342163e-02,3.604949638247489929e-02,7.694131135940551758e-02,-5.704522132873535156e-02,-4.562782123684883118e-02,3.553169080987572670e-03,-6.127204746007919312e-02,3.957254439592361450e-02,5.723024904727935791e-02,2.945314347743988037e-02,7.827190309762954712e-02,-3.802258288487792015e-03,3.358505666255950928e-03,7.349531515501439571e-04,1.897890120744705200e-02,4.134247079491615295e-02,-4.646888002753257751e-02,-4.085637629032135010e-02,2.690415270626544952e-02,-4.057953506708145142e-02,-2.016817033290863037e-02,8.528640121221542358e-02,-7.152698934078216553e-02,8.306538313627243042e-02,1.605172455310821533e-02,6.696147471666336060e-02,-8.430925756692886353e-02,1.487037749029695988e-03,1.490165758877992630e-02,3.166062012314796448e-02,6.190870329737663269e-02,-6.818579137325286865e-02,3.799303993582725525e-02,6.855985522270202637e-02,-5.635440349578857422e-02,8.128170669078826904e-02,-6.667379289865493774e-02,1.293438673019409180e-02,6.901623308658599854e-02,4.445509985089302063e-03,-7.335294038057327271e-02,-7.386478036642074585e-02,-3.536395495757460594e-03,1.314484886825084686e-02,4.156588762998580933e-02,-7.438989728689193726e-02,-5.924890190362930298e-02,-8.493933826684951782e-02,-6.445520371198654175e-02,6.839205510914325714e-03,-3.189761936664581299e-02,-1.055574715137481689e-01,4.907498508691787720e-02,-2.018130570650100708e-02,3.048416040837764740e-02,-2.323263883590698242e-02,4.933323711156845093e-02,1.871280372142791748e-02,-2.899103239178657532e-02,-4.526549577713012695e-02,-3.899340331554412842e-02,4.883428919129073620e-04,-5.026427563279867172e-03,-5.438618734478950500e-02,-5.294070765376091003e-02,6.323209963738918304e-03,-9.242485463619232178e-02,6.038197502493858337e-02,-6.032056733965873718e-02,5.461937747895717621e-03,-2.146215736865997314e-02,-8.521202951669692993e-02,-3.829944878816604614e-02,-7.090702652931213379e-02,2.988256886601448059e-02,2.374414354562759399e-02,-4.281076788902282715e-02,9.437972679734230042e-03,-6.808307021856307983e-02,3.109504096210002899e-02,6.740773469209671021e-02,-2.745279856026172638e-02,7.205457240343093872e-02,-4.665242880582809448e-02,-1.731102936901152134e-03,-1.253280602395534515e-02,2.681432059034705162e-03,3.253395855426788330e-02,-8.829157799482345581e-03,-1.870243996381759644e-02,-5.702328309416770935e-02,5.797665938735008240e-02,5.077563598752021790e-02,1.499505597166717052e-03,-1.417005620896816254e-02,8.753094822168350220e-02,2.509256824851036072e-02,-4.631739854812622070e-02,-5.159766599535942078e-02,4.913140460848808289e-02,-1.016583945602178574e-02,-8.225672692060470581e-02,-1.012295484542846680e-01,4.765056818723678589e-02,-2.056132443249225616e-02,8.040132373571395874e-02,-1.218918785452842712e-01,5.091799050569534302e-02,3.077594190835952759e-02,-4.144556447863578796e-02,5.159280449151992798e-02,-1.995281316339969635e-03,3.187356516718864441e-02,9.120311588048934937e-02,-8.006318658590316772e-02,3.071334213018417358e-02,1.443706732243299484e-02,-2.838294208049774170e-02,5.379168689250946045e-02,-7.920179516077041626e-02,-2.038016356527805328e-02,2.208058536052703857e-02,-5.193856731057167053e-02,-1.136300936341285706e-01
-3.452425450086593628e-02,4.341708868741989136e-02,-6.734660360962152481e-03,-7.062679529190063477e-02,7.935500890016555786e-02,-6.891746073961257935e-02,4.774980992078781128e-02,-5.496172979474067688e-02,-2.661816403269767761e-02,3.043961524963378906e-02,-5.700333043932914734e-02,-1.194157302379608154e-01,-1.060217991471290588e-01,-1.800104230642318726e-02,6.311812251806259155e-02,6.908446550369262695e-03,2.764412760734558105e-02,-7.214527577161788940e-02,-2.820638241246342659e-03,-7.087903469800949097e-02,-5.419836938381195068e-02,3.622662276029586792e-02,6.754059810191392899e-03,-3.327949345111846924e-02,3.232534602284431458e-02,9.089639782905578613e-02,7.516540586948394775e-03,6.454983726143836975e-03,7.662565261125564575e-02,7.907418161630630493e-02,2.144867926836013794e-02,-6.026994064450263977e-02,1.872636377811431885e-03,-1.315694861114025116e-02,7.539529353380203247e-02,4.802317917346954346e-02,-1.494309306144714355e-02,3.170865774154663086e-02,-8.111237734556198120e-02,-7.046885788440704346e-02,-3.771513700485229492e-02,4.396668821573257446e-02,-7.194990664720535278e-02,8.191792666912078857e-02,5.467001721262931824e-02,5.257853772491216660e-03,-4.859630391001701355e-02,5.880697071552276611e-02,-3.357255365699529648e-03,4.037461057305335999e-02,-1.807818561792373657e-02,-1.161540225148200989e-01,-4.923124983906745911e-02,-9.482650458812713623e-02,2.172961831092834473e-04,-3.265877440571784973e-02,-4.701152071356773376e-02,5.520965903997421265e-02,-3.664282709360122681e-02,-6.927822530269622803e-02,4.228534549474716187e-02,4.859617352485656738e-02,5.688535422086715698e-02,2.770533226430416107e-02,1.052304450422525406e-02,-6.329581886529922485e-02,3.110931813716888428e-02,6.714602559804916382e-02,-1.807380467653274536e-02,-6.322095543146133423e-02,7.659216225147247314e-02,4.808594286441802979e-02,4.991680756211280823e-02,7.891625165939331055e-02,2.127334661781787872e-02,-3.097956767305731773e-03,6.729947030544281006e-02,-1.016832441091537476e-01,-2.200844511389732361e-02,-7.326769828796386719e-02,-4.988356027752161026e-03,-9.887944161891937256e-02,3.556418418884277344e-02,2.394913928583264351e-03,-8.111879229545593262e-02,3.617540001869201660e-02,-5.222828686237335205e-02,6.735688447952270508e-02,-5.018051713705062866e-02,6.430345028638839722e-02,-1.000607013702392578e-02,-1.161640137434005737e-02,-5.386461503803730011e-03,7.179765030741691589e-03,-2.516111172735691071e-02,-1.508712023496627808e-02,-5.347467027604579926e-03,-2.233814448118209839e-02,-6.327319145202636719e-02,6.387790292501449585e-02,1.954412320628762245e-03,1.162471622228622437e-02,-5.961290095001459122e-03,3.903102874755859375e-02,6.710823625326156616e-02,3.324239701032638550e-02,-1.130587905645370483e-01,-4.964134842157363892e-02,3.462714701890945435e-02,8.343437314033508301e-02,-5.156696215271949768e-02,4.185623675584793091e-02,-2.507545053958892822e-03,-2.016317099332809448e-02,4.231304675340652466e-02,1.214234344661235809e-02,5.015993118286132812e-02,1.725525967776775360e-02,9.008384495973587036e-02,-4.105632752180099487e-02,7.306515425443649292e-02,-8.632324635982513428e-02,-4.729283973574638367e-02,-1.075614690780639648e-01,1.179576572030782700e-02,8.736305683851242065e-02,-5.255826562643051147e-02,-4.661698043346405029e-01
-7.796913385391235352e-03,-9.217002987861633301e-02,-2.114685997366905212e-02,-6.421196460723876953e-02,7.712938636541366577e-02,-3.188970685005187988e-02,7.292027026414871216e-02,-2.876765094697475433e-02,2.675072662532329559e-02,1.972723007202148438e-02,-1.162393242120742798e-01,3.106995671987533569e-02,1.021521631628274918e-02,4.075028747320175171e-02,1.488196663558483124e-02,2.942686527967453003e-02,-3.908634558320045471e-02,-2.965630218386650085e-02,-8.480988442897796631e-03,4.182776808738708496e-02,1.293906103819608688e-02,-5.448004603385925293e-02,-4.480878263711929321e-02,-6.151153892278671265e-02,4.937606677412986755e-02,1.914786919951438904e-02,6.297955662012100220e-02,4.876616969704627991e-02,-4.287964478135108948e-02,-3.235933929681777954e-02,1.058345288038253784e-02,-6.155060231685638428e-02,-6.384214013814926147e-02,2.402182482182979584e-02,-6.326895952224731445e-02,7.726991921663284302e-02,3.745511174201965332e-02,1.715912297368049622e-02,-2.448767423629760742e-02,4.437640309333801270e-02,2.374146319925785065e-02,8.636044710874557495e-02,8.080218732357025146e-02,4.319353401660919189e-02,-5.205902084708213806e-02,6.584469694644212723e-03,-3.882860392332077026e-02,5.969758145511150360e-03,-7.039470225572586060e-02,6.767064332962036133e-02,-7.648602128028869629e-03,6.777336448431015015e-02,-7.786067575216293335e-02,6.877554580569267273e-03,-6.856946647167205811e-02,1.279816962778568268e-02,-4.264568164944648743e-02,1.055195741355419159e-02,3.231638669967651367e-02,3.394585102796554565e-02,6.682097166776657104e-02,-4.250780213624238968e-03,-5.599067360162734985e-02,-2.506854571402072906e-02,5.477797985076904297e-02,2.671597152948379517e-02,3.250204026699066162e-02,-7.884301990270614624e-02,-6.385845597833395004e-03,5.213782936334609985e-02,-8.838905394077301025e-02,6.189732253551483154e-02,6.900904327630996704e-02,-3.020532801747322083e-02,-4.414078220725059509e-02,-5.866845324635505676e-02,7.017741352319717407e-02,1.635375805199146271e-02,-7.589293271303176880e-02,-9.048215299844741821e-02,-9.445682168006896973e-02,-2.201583236455917358e-02,-1.164560019969940186e-02,-4.932897165417671204e-02,-5.257966741919517517e-02,1.092003379017114639e-02,3.293627873063087463e-02,2.457363903522491455e-02,-1.520847156643867493e-02,-8.544867485761642456e-02,-5.573891103267669678e-03,-6.710017472505569458e-02,-8.012540638446807861e-02,-4.047453030943870544e-02,3.170014917850494385e-02,2.281553298234939575e-02,2.884039841592311859e-02,-8.879824727773666382e-02,-5.417066439986228943e-02,-3.159043192863464355e-02,-9.642263501882553101e-02,-5.276975780725479126e-02,-7.518859207630157471e-02,4.852171242237091064e-02,-9.381255134940147400e-03,2.662095648702234030e-04,-5.761481449007987976e-02,-8.873154968023300171e-02,-8.398430794477462769e-02,8.126866817474365234e-02,-6.581954658031463623e-02,-7.241535931825637817e-02,-4.211984202265739441e-02,2.803620323538780212e-02,7.519163191318511963e-03,6.166868284344673157e-02,1.563726458698511124e-03,-3.984503075480461121e-02,3.213372780010104179e-03,-6.620535254478454590e-02,-3.889573365449905396e-02,5.745946615934371948e-02,1.047904789447784424e-02,-2.336597070097923279e-02,8.745937608182430267e-03,-3.926993533968925476e-02,-3.121095709502696991e-02,-6.837156414985656738e-02
-4.263754189014434814e-02,-3.594058752059936523e-02,-6.385173648595809937e-02,4.029472172260284424e-02,-3.526420518755912781e-02,-2.191135846078395844e-02,9.262487292289733887e-03,2.110052853822708130e-02,-7.205117493867874146e-02,5.743309110403060913e-02,-3.109782934188842773e-03,1.699159145355224609e-01,-1.038651466369628906e-01,-7.112719118595123291e-02,-6.298153102397918701e-02,-8.538657426834106445e-02,-8.162982761859893799e-03,-1.366099268198013306e-01,-7.329499721527099609e-02,-2.993499860167503357e-02,2.485189959406852722e-02,-8.100593090057373047e-02,-2.025221884250640869e-01,5.629405379295349121e-02,-3.829574957489967346e-02,-7.904952764511108398e-02,-2.797977626323699951e-02,-5.597782135009765625e-02,-2.181684970855712891e-02,-8.752498775720596313e-02,8.745365589857101440e-02,-4.671741742640733719e-03,7.167411595582962036e-02,4.970969259738922119e-02,-3.582942485809326172e-02,-2.499185316264629364e-02,8.450526744127273560e-02,-1.786168664693832397e-01,6.570786237716674805e-03,1.674805395305156708e-02,1.877595484256744385e-02,7.752030342817306519e-02,-2.748162858188152313e-02,7.277731597423553467e-02,-6.221773102879524231e-02,1.990668475627899170e-02,-2.858550753444433212e-03,7.684894651174545288e-02,1.020130980759859085e-02,-3.404265642166137695e-02,2.685309574007987976e-02,2.106302604079246521e-02,-3.331754729151725769e-02,-1.288254410028457642e-01,-7.771622389554977417e-02,2.911766245961189270e-02,4.992676898837089539e-02,4.995367303490638733e-02,-2.903650887310504913e-02,-3.513244166970252991e-02,-5.855748057365417480e-02,-5.050614848732948303e-02,8.084844797849655151e-02,2.776768244802951813e-02,8.211732655763626099e-02,1.286809239536523819e-02,-1.593790203332901001e-02,-8.851443976163864136e-02,1.406589299440383911e-01,4.407865554094314575e-02,2.017279155552387238e-02,-5.947367474436759949e-02,7.661975175142288208e-02,-1.175022125244140625e-02,-1.059750318527221680e-01,-1.255920971743762493e-03,-8.138851821422576904e-02,-2.005834132432937622e-01,2.464119531214237213e-02,-1.980950124561786652e-02,-3.910146281123161316e-02,-1.454043537378311157e-01,-9.375054389238357544e-02,2.727266773581504822e-02,9.005011618137359619e-02,-1.092700883746147156e-01,-4.682991653680801392e-02,2.345442771911621094e-05,-1.757122874259948730e-01,-1.084783673286437988e-02,8.392373472452163696e-02,4.294631630182266235e-02,4.355547577142715454e-02,-1.023606583476066589e-01,-8.105442859232425690e-03,-1.455935090780258179e-02,2.686379104852676392e-02,2.167301252484321594e-02,1.317690499126911163e-02,6.480234116315841675e-02,-8.837771415710449219e-02,4.024473577737808228e-02,-8.033195137977600098e-02,-8.011867105960845947e-02,2.276699431240558624e-02,-3.622380644083023071e-02,-7.312963157892227173e-02,-5.886961519718170166e-02,7.649518549442291260e-03,-1.766471564769744873e-02,2.731479331851005554e-02,7.061206549406051636e-02,-2.047672867774963379e-02,-2.823232114315032959e-02,7.576199620962142944e-02,-1.780131249688565731e-03,-7.793732732534408569e-02,4.141363501548767090e-02,-5.797751620411872864e-02,1.096331886947154999e-02,6.081520020961761475e-02,3.663533180952072144e-02,-3.861360251903533936e-03,-2.980169281363487244e-02,-1.000231504440307617e-01,-5.849076062440872192e-02,-5.293206870555877686e-02,4.328786209225654602e-02
8.425285667181015015e-02,-7.779237627983093262e-02,-7.398902624845504761e-02,-3.586522489786148071e-02,-6.800118833780288696e-02,-2.251047454774379730e-02,-2.157278545200824738e-02,-4.014485329389572144e-02,-7.174728810787200928e-02,-4.856891930103302002e-02,4.952819645404815674e-02,-7.412759214639663696e-02,-6.741313636302947998e-02,5.292185768485069275e-02,7.042001187801361084e-02,7.220112532377243042e-02,-8.226596564054489136e-02,2.690701931715011597e-02,-1.371095131617039442e-04,2.773821540176868439e-02,-1.839920505881309509e-02,3.602692484855651855e-02,-8.510976284742355347e-02,-3.015488013625144958e-02,-5.493343621492385864e-02,5.072622373700141907e-02,3.777841478586196899e-02,-1.541543565690517426e-02,3.113626688718795776e-02,-4.740189760923385620e-02,2.201045304536819458e-02,8.975313603878021240e-02,-5.713513866066932678e-02,8.305703103542327881e-02,9.883508086204528809e-03,-7.890955358743667603e-02,-1.329161319881677628e-02,-2.725512534379959106e-02,-7.605186104774475098e-02,8.475618809461593628e-02,-1.604329422116279602e-02,-4.459127038717269897e-02,3.480140492320060730e-02,5.016424879431724548e-02,2.314872574061155319e-03,1.308324281126260757e-02,-8.730221539735794067e-02,-4.680764675140380859e-02,-4.962586984038352966e-02,2.262589335441589355e-02,7.901019603013992310e-02,4.008445143699645996e-02,-7.989532500505447388e-02,1.625597290694713593e-02,3.307208418846130371e-02,-2.388851158320903778e-02,-2.573386207222938538e-02,-5.851601436734199524e-02,7.245831936597824097e-02,-8.068294078111648560e-02,-7.217095792293548584e-02,8.850009739398956299e-02,8.247179538011550903e-02,5.948244035243988037e-02,7.865686714649200439e-02,-7.654287666082382202e-02,-6.295292824506759644e-02,8.635687083005905151e-02,-1.679837889969348907e-02,-4.681018739938735962e-02,7.000079005956649780e-02,3.871842101216316223e-02,5.833538994193077087e-02,-7.930765300989151001e-02,5.863300338387489319e-02,5.806732457131147385e-03,-2.147303521633148193e-02,3.609538450837135315e-02,-4.944081604480743408e-02,-6.712733209133148193e-02,6.557247042655944824e-02,-5.483663454651832581e-02,2.653017267584800720e-02,7.506217062473297119e-02,-9.075019508600234985e-03,1.061574928462505341e-02,3.952970728278160095e-02,-7.435170467942953110e-03,-4.701649025082588196e-02,-9.188115596771240234e-03,2.374561131000518799e-02,-4.033422470092773438e-02,1.733488962054252625e-02,7.677463442087173462e-02,1.719759032130241394e-02,-6.479658186435699463e-02,7.569893449544906616e-02,2.298304066061973572e-02,3.783003613352775574e-02,3.164160996675491333e-02,-1.175761129707098007e-02,-6.747712939977645874e-02,-4.186022654175758362e-02,2.511488646268844604e-02,8.405692130327224731e-02,2.512211166322231293e-02,-5.928126722574234009e-02,-4.975632950663566589e-02,-2.614396438002586365e-02,-6.567966938018798828e-02,4.963884502649307251e-02,-2.247616462409496307e-02,3.254608064889907837e-02,-2.178462967276573181e-02,2.548069506883621216e-02,1.483158953487873077e-02,3.922320157289505005e-02,7.053823024034500122e-02,-1.874827407300472260e-02,-7.156457006931304932e-02,4.627529531717300415e-02,2.448359131813049316e-02,-7.046849280595779419e-02,-4.956794902682304382e-02,4.386324435472488403e-02,-3.779019042849540710e-02,3.932501375675201416e-02,-4.775550961494445801e-02
-1.615536399185657501e-02,-6.071492284536361694e-02,4.531022906303405762e-02,7.815219461917877197e-02,1.236982271075248718e-02,5.874237045645713806e-02,-2.111380547285079956e-02,-7.074776291847229004e-02,-4.374345764517784119e-02,4.542626813054084778e-02,-2.857807651162147522e-02,-4.189693927764892578e-02,-1.060654670000076294e-01,4.495488107204437256e-02,1.130489911884069443e-02,3.318271040916442871e-02,5.268803983926773071e-02,3.486961126327514648e-02,5.086854472756385803e-02,7.096786051988601685e-02,7.270810753107070923e-02,-6.471378356218338013e-02,3.142008930444717407e-02,-2.345106005668640137e-02,4.039892926812171936e-02,6.251470744609832764e-02,4.694249480962753296e-02,3.901828452944755554e-02,-4.567392170429229736e-03,9.356945753097534180e-03,1.647568494081497192e-02,-3.978152945637702942e-02,-5.726097151637077332e-02,3.903603181242942810e-02,2.810586616396903992e-02,2.891813404858112335e-02,5.988138914108276367e-02,-5.010012164711952209e-02,5.609722062945365906e-02,8.394444733858108521e-02,4.971754178404808044e-02,3.070261701941490173e-02,-1.221136096864938736e-02,-7.474322617053985596e-02,5.780612118542194366e-04,-7.371952384710311890e-02,-6.299512088298797607e-02,7.552218437194824219e-02,6.927241384983062744e-02,-5.400738492608070374e-02,5.156853701919317245e-03,1.335517968982458115e-02,3.096077591180801392e-02,3.663499280810356140e-02,-1.824707537889480591e-02,-3.284806758165359497e-02,6.043205503374338150e-03,-6.059610843658447266e-02,1.899094134569168091e-02,-1.263321191072463989e-02,6.867700815200805664e-02,2.255741739645600319e-03,-4.119925945997238159e-02,5.231431126594543457e-02,-5.227177590131759644e-02,9.775120019912719727e-02,-1.022391300648450851e-02,-8.186996728181838989e-02,1.594637148082256317e-02,3.322539106011390686e-02,-4.647885635495185852e-02,-7.205435633659362793e-02,6.389838643372058868e-03,1.303162239491939545e-02,-9.774996899068355560e-03,6.858598440885543823e-02,-2.088730037212371826e-02,3.663764148950576782e-02,-3.833301365375518799e-02,2.404166571795940399e-02,-1.665499806404113770e-02,3.002301789820194244e-02,-4.916798323392868042e-02,1.121913194656372070e-01,-9.080894291400909424e-02,-9.768929332494735718e-02,-1.312811020761728287e-02,8.812677860260009766e-02,2.643294446170330048e-02,7.913020998239517212e-02,-5.889654532074928284e-02,8.533166348934173584e-02,5.158390849828720093e-02,-6.104057282209396362e-02,-4.715955816209316254e-03,-5.689469724893569946e-02,4.679225757718086243e-02,1.174748968333005905e-02,-1.393273472785949707e-02,8.072933554649353027e-02,7.392220944166183472e-02,1.424482651054859161e-02,8.069898188114166260e-02,-2.925952523946762085e-02,-3.358050435781478882e-02,7.722048461437225342e-02,-2.627311833202838898e-02,5.181679129600524902e-02,7.202625274658203125e-02,3.945669904351234436e-02,-1.723832683637738228e-04,8.639524877071380615e-02,-3.699068725109100342e-02,-3.127036616206169128e-02,-7.675936818122863770e-02,-5.200274288654327393e-02,5.564270913600921631e-02,-7.697016117163002491e-04,-6.241863220930099487e-02,5.941133946180343628e-02,-8.332815021276473999e-03,2.668559551239013672e-02,-1.475273311370983720e-04,-7.490034401416778564e-02,-9.663431346416473389e-02,-3.582089021801948547e-02,4.383406043052673340e-02,-9.945790469646453857e-02
-2.313394285738468170e-02,4.272857680916786194e-02,3.210337087512016296e-02,5.110711604356765747e-02,-2.752153389155864716e-02,-2.646185271441936493e-02,5.337560549378395081e-02,-4.190761968493461609e-02,-9.134282171726226807e-02,6.277823448181152344e-02,2.193253859877586365e-02,-1.105071306228637695e-01,-6.303779780864715576e-02,-2.667017839848995209e-02,3.859304264187812805e-02,-8.049609512090682983e-02,5.311891436576843262e-03,2.822691202163696289e-02,3.758386522531509399e-02,-9.231338277459144592e-03,-5.525865033268928528e-02,-3.936151787638664246e-02,-9.077078104019165039e-02,-4.621784761548042297e-02,3.098777309060096741e-02,2.835508435964584351e-02,6.818623095750808716e-02,3.242143243551254272e-02,4.718532413244247437e-02,-2.876909077167510986e-02,-6.839946657419204712e-02,2.752763405442237854e-02,5.404644459486007690e-02,1.684888615272939205e-03,5.284857936203479767e-03,-5.069904774427413940e-02,-9.370554238557815552e-02,-3.444780409336090088e-02,-8.794226497411727905e-02,-1.838461868464946747e-02,1.531230472028255463e-02,8.488928526639938354e-02,1.055236998945474625e-02,7.155508548021316528e-02,-2.036576904356479645e-02,8.211484178900718689e-03,-6.828509271144866943e-02,-4.142987728118896484e-02,6.527017802000045776e-02,9.404961019754409790e-03,5.948673468083143234e-03,2.605630084872245789e-02,6.753992289304733276e-02,1.106222439557313919e-02,6.010914593935012817e-02,1.641192436218261719e-01,-9.010991081595420837e-03,-4.644377902150154114e-02,-4.612706601619720459e-02,-1.274816691875457764e-02,8.704260922968387604e-03,-4.866748675704002380e-02,-9.658079594373703003e-03,-6.418395042419433594e-02,-7.136508822441101074e-02,-1.519414689391851425e-02,4.389066621661186218e-02,4.392061382532119751e-02,-4.706495441496372223e-03,9.474110789597034454e-03,2.852572500705718994e-02,-8.647251874208450317e-02,-6.913728266954421997e-02,2.431350573897361755e-02,-1.171509250998497009e-01,-5.872706323862075806e-02,4.547066986560821533e-02,-2.251068688929080963e-02,1.572042703628540039e-02,-6.790968775749206543e-02,8.632737398147583008e-02,6.590421497821807861e-02,-9.022538363933563232e-02,-1.072466820478439331e-01,-1.058936864137649536e-01,-4.620026424527168274e-02,3.743011131882667542e-02,-5.181855335831642151e-02,-2.168567106127738953e-02,-5.837013013660907745e-03,-7.951074838638305664e-02,4.262333363294601440e-02,7.004994153976440430e-02,2.410954423248767853e-02,8.054489642381668091e-02,-8.015088737010955811e-02,-3.291210159659385681e-02,4.379139468073844910e-02,5.455789342522621155e-02,6.889160722494125366e-02,-8.248955011367797852e-02,-7.939503341913223267e-02,7.288520783185958862e-02,7.095696404576301575e-03,-8.583054691553115845e-02,-5.924758315086364746e-02,3.545011579990386963e-02,3.809230774641036987e-02,7.279496639966964722e-02,4.744027927517890930e-02,1.702114567160606384e-02,9.869717992842197418e-03,3.405603021383285522e-02,1.145200990140438080e-02,3.924898058176040649e-02,-1.443922892212867737e-02,6.304772198200225830e-02,1.328104361891746521e-02,-2.686720527708530426e-02,2.858481928706169128e-02,8.071289211511611938e-02,-1.503468304872512817e-02,3.669057413935661316e-02,-1.274068560451269150e-02,-3.099459223449230194e-02,3.936550766229629517e-02,4.043135046958923340e-02,1.547083724290132523e-02
-1.884565502405166626e-02,2.490560710430145264e-02,3.207939863204956055e-02,6.126951426267623901e-02,-7.579876482486724854e-02,2.524062246084213257e-02,-4.300514608621597290e-02,7.168432325124740601e-02,-8.772179484367370605e-02,2.846727520227432251e-02,-3.623464703559875488e-02,-1.148492321372032166e-01,-1.450112164020538330e-01,-1.318971812725067139e-02,-6.993542611598968506e-02,-4.099109768867492676e-02,-1.908347010612487793e-02,3.084875456988811493e-02,8.155681937932968140e-02,7.069756835699081421e-02,-9.926776587963104248e-02,-2.558533102273941040e-02,4.691155627369880676e-02,-5.189716815948486328e-02,-7.458911836147308350e-02,7.070168107748031616e-02,-3.696478903293609619e-02,5.761051923036575317e-02,5.006959289312362671e-02,4.205022007226943970e-02,5.031574517488479614e-02,2.324747294187545776e-02,-4.256570339202880859e-02,-2.336825430393218994e-02,-9.015947580337524414e-05,-5.896446108818054199e-02,-8.427263051271438599e-02,1.957446336746215820e-02,7.748983055353164673e-02,-1.882908493280410767e-02,-7.100250571966171265e-02,-3.797196969389915466e-02,3.929493576288223267e-02,-8.826844394207000732e-03,2.571957558393478394e-02,6.433181464672088623e-03,-5.428618192672729492e-02,-5.400802567601203918e-02,-3.232490643858909607e-02,2.330391854047775269e-02,4.074314981698989868e-02,-8.891335129737854004e-02,7.834192365407943726e-02,6.982236355543136597e-02,-2.369583398103713989e-02,-5.127956345677375793e-02,-1.390679180622100830e-02,-5.326979234814643860e-02,3.582982718944549561e-02,-2.599239349365234375e-03,-6.676095724105834961e-02,-9.785193204879760742e-02,-4.499358311295509338e-02,2.839502692222595215e-02,4.896425455808639526e-02,2.283600717782974243e-02,7.030510157346725464e-02,-7.219607383012771606e-02,2.944111265242099762e-02,7.060483843088150024e-02,-6.325672566890716553e-02,3.197833895683288574e-02,3.288783878087997437e-02,1.221088320016860962e-02,-1.293392628431320190e-01,8.075125515460968018e-03,7.404720038175582886e-02,1.348547637462615967e-02,-5.425374209880828857e-02,8.554194122552871704e-02,-4.555518180131912231e-02,1.631455868482589722e-02,3.960836678743362427e-02,2.627462148666381836e-02,3.034530021250247955e-02,-1.437097787857055664e-01,8.736855536699295044e-02,-6.657785922288894653e-02,-8.782394230365753174e-03,-4.509955644607543945e-03,5.392178148031234741e-02,-5.943744629621505737e-02,7.501736283302307129e-03,8.470689505338668823e-02,-4.895708337426185608e-02,7.171859592199325562e-02,4.141221195459365845e-02,-1.027593836188316345e-01,3.960201889276504517e-02,7.489197701215744019e-02,6.430486589670181274e-02,-6.634747982025146484e-02,-4.158784449100494385e-02,1.108104735612869263e-02,-8.603858202695846558e-02,7.216826081275939941e-03,-3.457120433449745178e-02,-1.386828999966382980e-02,-3.679368272423744202e-02,-6.710030883550643921e-02,2.649145573377609253e-02,-6.320834159851074219e-02,8.359722048044204712e-02,-4.102129489183425903e-02,-7.097288966178894043e-02,8.487839251756668091e-02,4.166640341281890869e-03,-8.452661335468292236e-02,-8.810326457023620605e-02,6.187818199396133423e-02,-8.049309253692626953e-02,1.761221885681152344e-02,1.920314878225326538e-02,-1.986016333103179932e-02,-1.376512944698333740e-01,-2.716056630015373230e-02,5.705160647630691528e-02,-2.953834533691406250e-01
-1.694240607321262360e-03,-8.810012787580490112e-02,-3.226444125175476074e-02,-7.790751755237579346e-02,8.236182481050491333e-02,-7.989671081304550171e-03,8.263601362705230713e-02,-5.196158587932586670e-02,4.081839695572853088e-02,-1.335200038738548756e-03,-9.262188524007797241e-02,-4.919607564806938171e-02,2.086604014039039612e-02,1.448841392993927002e-02,7.347396761178970337e-02,7.865271717309951782e-02,3.430582582950592041e-03,-1.662504859268665314e-02,4.576347023248672485e-02,5.999692901968955994e-02,-6.433684378862380981e-02,-1.162014529109001160e-02,1.842186413705348969e-02,-4.497125744819641113e-02,-1.158836632966995239e-01,7.782388478517532349e-02,-6.983824074268341064e-03,1.050264388322830200e-02,7.356727868318557739e-02,2.346479147672653198e-02,-6.798090785741806030e-02,4.171301424503326416e-02,-3.118962515145540237e-03,1.167041622102260590e-02,7.520654797554016113e-02,-3.436194360256195068e-02,2.407805249094963074e-02,6.528690457344055176e-02,3.785488381981849670e-02,6.608863919973373413e-02,6.074045784771442413e-03,3.412733227014541626e-02,1.487003173679113388e-02,-2.307995595037937164e-02,-4.984397813677787781e-02,8.186179399490356445e-02,-5.549963563680648804e-02,-6.829235702753067017e-02,2.119938097894191742e-02,8.172424882650375366e-02,6.393454223871231079e-02,5.616506934165954590e-02,4.551853984594345093e-02,-7.757104933261871338e-02,3.311611711978912354e-02,-1.429800540208816528e-01,-2.881471440196037292e-02,4.092328995466232300e-02,-4.585546627640724182e-02,-6.799268722534179688e-02,-6.645395606756210327e-02,-9.248185902833938599e-02,5.433724448084831238e-02,-1.658654771745204926e-02,-6.562338024377822876e-02,-5.252787098288536072e-02,-2.457111515104770660e-02,-3.961997479200363159e-02,-4.094957932829856873e-02,9.106104075908660889e-02,3.624972328543663025e-02,-7.136535644531250000e-02,-7.714314758777618408e-02,-1.937464810907840729e-02,-5.510855466127395630e-02,-6.540737301111221313e-02,-6.782445311546325684e-02,5.619323253631591797e-02,-2.562858164310455322e-02,-1.382396090775728226e-02,-8.709625899791717529e-02,6.236775219440460205e-02,3.882068023085594177e-02,-3.661596402525901794e-02,-3.460329025983810425e-02,-9.806380420923233032e-02,2.300143241882324219e-02,-7.757355272769927979e-02,8.771368861198425293e-02,-2.422471717000007629e-02,-2.299662120640277863e-02,1.747380569577217102e-02,-7.640534639358520508e-02,1.335365884006023407e-02,-5.133716017007827759e-02,6.900795549154281616e-02,-3.752976655960083008e-03,6.159082800149917603e-02,7.021227478981018066e-02,-3.674108535051345825e-02,-5.476857721805572510e-02,8.183900266885757446e-02,-3.682012856006622314e-02,2.715129405260086060e-02,-5.878099799156188965e-02,-5.986559391021728516e-02,5.108756572008132935e-02,3.029751777648925781e-02,7.295010983943939209e-02,4.252007603645324707e-02,-1.258148103952407837e-01,2.866280823945999146e-02,8.569769561290740967e-03,4.617043957114219666e-02,-6.352587789297103882e-02,1.887436211109161377e-02,-4.303822293877601624e-02,1.257925876416265965e-03,7.395219057798385620e-02,1.040854025632143021e-02,5.138754844665527344e-03,5.359321832656860352e-03,5.319765955209732056e-02,-1.282822061330080032e-02,5.551273748278617859e-02,-4.501693323254585266e-02,-5.467823147773742676e-02,-1.000506207346916199e-01
8.235258609056472778e-02,-3.046530112624168396e-02,5.694101378321647644e-02,-2.122720144689083099e-02,5.187722295522689819e-02,2.334298193454742432e-02,6.357828527688980103e-02,5.389747023582458496e-02,-7.604341022670269012e-03,-7.197644561529159546e-02,-2.964978851377964020e-02,-4.536194354295730591e-02,6.351942569017410278e-02,5.819550901651382446e-02,6.945434957742691040e-02,2.356123924255371094e-02,4.344873130321502686e-03,-4.746212810277938843e-02,7.772038131952285767e-02,-7.357811927795410156e-02,-8.682687580585479736e-02,6.104608997702598572e-02,-6.674841046333312988e-02,-9.464941918849945068e-02,-1.712747104465961456e-02,-7.245441526174545288e-02,1.617839187383651733e-02,6.187317520380020142e-02,9.417459368705749512e-03,6.481429189443588257e-02,-5.634241178631782532e-02,-3.532366827130317688e-02,-8.030772209167480469e-02,-5.633196979761123657e-02,4.615499824285507202e-02,-1.021560877561569214e-01,-8.729635179042816162e-02,-2.703112363815307617e-02,-6.343311071395874023e-02,2.955871447920799255e-02,-7.595629431307315826e-04,1.416460424661636353e-02,-6.042234227061271667e-02,-4.154302179813385010e-02,8.046917617321014404e-03,-2.127660997211933136e-02,-1.803626772016286850e-03,-1.274303067475557327e-02,6.173732876777648926e-02,-2.778460457921028137e-02,-4.032387956976890564e-02,5.191973410546779633e-03,4.161576181650161743e-02,-5.874110385775566101e-02,-6.655074656009674072e-02,-5.601664260029792786e-02,-1.759304106235504150e-02,6.117660552263259888e-02,-4.076510667800903320e-02,1.279140263795852661e-02,-9.376136958599090576e-02,-3.505702689290046692e-02,-7.067014276981353760e-02,-5.372643098235130310e-02,6.071490421891212463e-02,4.605692252516746521e-02,5.766874551773071289e-02,4.050293192267417908e-02,-1.788985729217529297e-01,-2.011303789913654327e-02,-6.949372589588165283e-02,3.479109704494476318e-02,8.200367540121078491e-02,4.713418334722518921e-02,-9.519773721694946289e-02,-4.580825939774513245e-02,-8.032861351966857910e-02,7.660224288702011108e-02,7.239300012588500977e-02,6.527399178594350815e-03,3.209260478615760803e-02,-4.349066689610481262e-02,7.319653779268264771e-02,-1.075858436524868011e-02,-9.480519592761993408e-02,4.095273464918136597e-02,-4.852695390582084656e-02,-8.063943684101104736e-02,-4.362857714295387268e-02,-1.687496900558471680e-03,-1.736335456371307373e-03,2.489148452877998352e-02,-3.950111567974090576e-03,-1.423273328691720963e-02,5.073711276054382324e-02,1.562511920928955078e-02,1.017028838396072388e-02,-2.347392588853836060e-02,-8.987167477607727051e-02,6.947197765111923218e-02,1.563616469502449036e-02,5.098620429635047913e-02,5.099521484225988388e-03,-2.974003925919532776e-02,-2.508707903325557709e-02,3.554765135049819946e-02,4.474867507815361023e-02,7.694896310567855835e-02,1.939707249402999878e-02,-5.055440962314605713e-02,4.282303899526596069e-02,-2.760197222232818604e-02,1.090651750564575195e-02,-6.958494335412979126e-02,-5.456934496760368347e-02,5.441609770059585571e-02,-5.820540711283683777e-03,-8.429902791976928711e-02,-6.598630547523498535e-02,-4.591153189539909363e-02,5.108865350484848022e-02,-8.391851186752319336e-02,7.822639495134353638e-02,3.510462492704391479e-02,-9.326272457838058472e-02,-4.152136668562889099e-02,-4.720586910843849182e-02,-6.662999093532562256e-02
9.224407374858856201e-03,-1.703488640487194061e-02,2.595031447708606720e-02,5.899210646748542786e-02,6.298466771841049194e-02,7.129224389791488647e-02,4.283370822668075562e-02,-4.739148076623678207e-03,-6.510928273200988770e-02,-1.792110502719879150e-02,-6.489080842584371567e-03,4.946371074765920639e-03,-1.009959727525711060e-01,3.300869092345237732e-02,2.873377874493598938e-02,-5.340471491217613220e-02,-8.805837482213973999e-02,-4.830332100391387939e-02,-4.184942692518234253e-02,5.662225559353828430e-02,1.087726093828678131e-02,-6.293468922376632690e-02,-1.359816789627075195e-01,6.569789350032806396e-02,4.262070357799530029e-02,-5.554086063057184219e-03,-3.662855923175811768e-02,-7.582212239503860474e-02,2.778533101081848145e-02,7.324860244989395142e-02,-5.998314172029495239e-02,1.751016452908515930e-02,-5.030826851725578308e-02,-6.824414595030248165e-04,3.726526349782943726e-02,-8.229300379753112793e-02,6.530375778675079346e-02,-1.328351199626922607e-01,3.634496778249740601e-02,-6.969472765922546387e-02,7.363877445459365845e-02,3.687993437051773071e-02,-3.596759214997291565e-02,5.401065945625305176e-02,4.499686881899833679e-02,-2.980997785925865173e-02,-8.822846226394176483e-03,-1.405836734920740128e-02,-4.542909190058708191e-02,-6.101248413324356079e-02,4.777073860168457031e-02,-4.039122164249420166e-02,7.087901979684829712e-02,-3.963983803987503052e-02,7.833588868379592896e-02,-7.622461766004562378e-02,-5.322969332337379456e-02,7.915524393320083618e-02,-2.548133488744497299e-03,-8.406953513622283936e-02,8.547259122133255005e-02,-1.907725445926189423e-02,-7.960762083530426025e-02,8.162302523851394653e-02,-1.454331446439027786e-02,-1.065487489104270935e-01,-1.965759694576263428e-02,2.921267971396446228e-02,-7.277583703398704529e-03,5.051422119140625000e-02,-2.229763939976692200e-02,1.345265191048383713e-02,1.244235131889581680e-02,1.714026182889938354e-02,5.385191738605499268e-02,-5.117766559123992920e-02,1.644950918853282928e-02,-9.971157461404800415e-02,3.020044602453708649e-02,-9.319752454757690430e-02,-7.810936123132705688e-02,-8.229835331439971924e-02,-6.183293834328651428e-02,-5.539883673191070557e-02,1.981276553124189377e-03,-1.009575203061103821e-01,5.934954062104225159e-02,-7.957034558057785034e-02,-1.310454159975051880e-01,-3.160152584314346313e-02,-2.219104021787643433e-02,-3.257784992456436157e-02,-8.028370328247547150e-03,-5.706086009740829468e-02,-3.212043270468711853e-02,1.367446035146713257e-02,-9.215454012155532837e-02,2.722886577248573303e-02,-3.104113973677158356e-02,-2.503447234630584717e-03,5.943587049841880798e-02,-2.088926732540130615e-02,7.949317991733551025e-02,-2.947519347071647644e-02,1.568802446126937866e-02,-2.561922930181026459e-02,-3.085365891456604004e-02,8.948158472776412964e-03,8.463441580533981323e-02,-4.616254568099975586e-02,-5.896017700433731079e-02,5.080287531018257141e-02,7.589457184076309204e-02,-2.411348931491374969e-02,7.693419605493545532e-02,-4.563225060701370239e-02,3.098204173147678375e-02,-3.138636797666549683e-02,1.001829188317060471e-02,6.103277578949928284e-02,-7.131713628768920898e-02,3.070486336946487427e-02,-6.572023034095764160e-02,-5.154908075928688049e-02,-2.735985442996025085e-02,-4.943615570664405823e-02,2.898214012384414673e-02,1.723695662803947926e-03
2.412299066781997681e-02,-1.201128959655761719e-02,-7.428688555955886841e-02,-7.272719591856002808e-02,4.123417288064956665e-02,8.292047679424285889e-02,-8.319929242134094238e-02,7.922614365816116333e-02,-5.670051276683807373e-02,7.351524382829666138e-02,6.649398058652877808e-02,-8.433823287487030029e-02,2.237184159457683563e-02,-5.097621306777000427e-02,3.947196155786514282e-02,-1.398763898760080338e-02,7.329598069190979004e-03,6.475701183080673218e-02,1.224729814566671848e-03,6.367290019989013672e-02,-7.659997045993804932e-02,-5.207088775932788849e-03,3.629522025585174561e-02,-7.356267422437667847e-02,2.785163745284080505e-02,-7.315958291292190552e-02,-1.120286434888839722e-02,-6.698710471391677856e-02,-7.071387767791748047e-02,-2.524470537900924683e-02,-8.751758188009262085e-02,2.921091206371784210e-02,-2.393161505460739136e-02,2.495135366916656494e-02,2.628437988460063934e-02,3.583160415291786194e-02,4.365834221243858337e-02,7.658416777849197388e-02,-6.523812655359506607e-03,6.752766668796539307e-03,-4.935544356703758240e-02,7.341772317886352539e-02,-5.802713707089424133e-02,-1.515421271324157715e-02,8.755122125148773193e-02,7.842082530260086060e-02,-7.602749764919281006e-02,-1.329045160673558712e-03,-8.381945639848709106e-02,-1.028903573751449585e-02,-3.557817637920379639e-02,-5.925810337066650391e-02,-1.722307503223419189e-02,2.389144152402877808e-02,3.758557885885238647e-02,-1.307301968336105347e-01,2.471151947975158691e-02,4.264887422323226929e-02,4.963634163141250610e-02,-1.979246735572814941e-02,2.551136165857315063e-02,1.381282322108745575e-02,-3.200991824269294739e-02,5.369641259312629700e-02,-8.003202825784683228e-02,7.396631687879562378e-02,-3.451595827937126160e-02,9.219808876514434814e-02,-1.336999833583831787e-01,3.080322779715061188e-02,-5.769287049770355225e-02,1.806531101465225220e-02,2.066881209611892700e-02,-7.072228938341140747e-02,6.041216105222702026e-02,3.728540614247322083e-02,8.810373395681381226e-02,-2.171586640179157257e-02,-4.795474931597709656e-02,-2.709964290261268616e-02,-2.747503481805324554e-02,1.059057656675577164e-02,-3.424994274973869324e-02,5.538636818528175354e-02,-5.634598061442375183e-02,-1.223649084568023682e-02,-1.154314726591110229e-02,-8.030851930379867554e-02,-3.318812325596809387e-02,6.078710779547691345e-02,-3.502468764781951904e-02,-5.941060185432434082e-02,8.210040628910064697e-03,6.044855713844299316e-02,-7.568337023258209229e-02,-9.098524600267410278e-02,1.730538159608840942e-02,4.303603246808052063e-02,-8.180148154497146606e-02,1.813439652323722839e-02,4.066973179578781128e-02,1.113135367631912231e-02,-4.177561774849891663e-02,-4.324629157781600952e-02,7.763458788394927979e-02,-8.577786386013031006e-02,-7.361759990453720093e-02,7.912552915513515472e-03,-5.997762456536293030e-02,-5.579523742198944092e-03,-5.671789869666099548e-02,2.218150347471237183e-02,3.084736317396163940e-02,6.596579216420650482e-03,-8.488511294126510620e-02,-1.181625574827194214e-02,4.870552569627761841e-03,1.419987808912992477e-02,-2.107328921556472778e-02,-6.521160155534744263e-02,2.801986783742904663e-02,4.876845329999923706e-02,-1.697953045368194580e-02,5.927949398756027222e-02,3.948560729622840881e-02,-1.192550361156463623e-02,3.519485890865325928e-02,-6.050602346658706665e-02
-4.236334562301635742e-02,-8.691418915987014771e-02,4.227183014154434204e-02,-2.197438478469848633e-02,8.707887679338455200e-02,9.354084730148315430e-03,6.541689485311508179e-02,4.816066473722457886e-02,-2.559797465801239014e-02,4.248047620058059692e-02,2.815902978181838989e-02,-5.650462582707405090e-03,-9.119947999715805054e-02,7.798170298337936401e-02,-1.822582632303237915e-02,-1.020310074090957642e-02,-3.399344533681869507e-02,-1.000389456748962402e-01,-1.010011136531829834e-02,-4.699471592903137207e-02,-6.853636354207992554e-02,-2.750989049673080444e-02,-9.071445465087890625e-02,-8.011493086814880371e-02,5.694139748811721802e-02,3.087633103132247925e-02,-7.864984124898910522e-02,-9.717464447021484375e-03,5.150758475065231323e-02,3.600776940584182739e-02,-4.465706273913383484e-02,-1.055633276700973511e-02,4.626960307359695435e-02,-8.773270249366760254e-02,-8.333925157785415649e-02,-2.713439427316188812e-02,-3.357328474521636963e-02,-6.349574029445648193e-02,-7.550972700119018555e-02,-5.535374209284782410e-02,3.549523651599884033e-03,4.817608743906021118e-02,-4.135239124298095703e-02,4.089834541082382202e-02,1.553872227668762207e-02,-2.375014126300811768e-03,-6.952952593564987183e-02,2.282423526048660278e-02,7.306204736232757568e-02,-1.253552734851837158e-03,-4.831047728657722473e-02,1.862307265400886536e-02,2.023375034332275391e-02,2.396546117961406708e-02,1.399897038936614990e-03,-1.188448630273342133e-02,8.618787676095962524e-02,-7.839085906744003296e-02,1.545359194278717041e-02,-5.081010237336158752e-02,3.124073147773742676e-03,4.101666808128356934e-02,-5.359199270606040955e-02,-7.019239664077758789e-02,1.279252022504806519e-02,1.639648526906967163e-02,-6.304523348808288574e-02,-6.132952868938446045e-03,-6.591810286045074463e-02,-1.117849349975585938e-02,-7.237094640731811523e-02,-6.038807332515716553e-03,-8.400689810514450073e-02,-6.982903182506561279e-02,6.318816542625427246e-02,-2.493804879486560822e-02,-4.482957720756530762e-02,-5.795135721564292908e-02,4.345192387700080872e-02,-6.277482956647872925e-02,-6.710135191679000854e-02,-2.800216712057590485e-02,-2.722001634538173676e-03,-7.453218847513198853e-02,-8.185923099517822266e-02,3.694697469472885132e-02,2.679542452096939087e-02,-5.392597615718841553e-02,1.846673712134361267e-02,-2.378922700881958008e-02,2.195648103952407837e-02,7.306089252233505249e-02,-2.635093778371810913e-02,4.501006752252578735e-02,8.633740991353988647e-02,-4.857539013028144836e-02,-2.387917041778564453e-02,3.978317975997924805e-02,-6.277294456958770752e-02,-3.458473458886146545e-02,-1.093184649944305420e-01,2.064519375562667847e-02,4.795912653207778931e-02,-1.335611194372177124e-02,1.615610718727111816e-02,-2.118670195341110229e-02,-1.936904969625174999e-03,-8.182920515537261963e-02,-8.154061436653137207e-02,-3.276392817497253418e-04,-6.877440214157104492e-02,-1.669158786535263062e-02,7.322504371404647827e-02,7.991840690374374390e-02,3.322149068117141724e-02,4.212287813425064087e-02,6.803396344184875488e-02,4.028359800577163696e-02,-8.078920841217041016e-02,-6.739091128110885620e-02,-3.634903207421302795e-02,4.689343273639678955e-03,1.641608029603958130e-02,-4.007794708013534546e-02,-6.621096283197402954e-02,-3.738168254494667053e-02,-8.401475846767425537e-02,-2.189641445875167847e-02
-6.133675202727317810e-02,6.456229835748672485e-02,-1.658917404711246490e-02,6.841269135475158691e-02,-8.651190251111984253e-02,6.048258394002914429e-02,3.812403231859207153e-02,5.499764531850814819e-02,-8.432286232709884644e-02,-7.262258231639862061e-02,6.734697520732879639e-02,5.819750018417835236e-03,-8.800137788057327271e-02,2.866273187100887299e-02,-6.115163862705230713e-02,2.900450490415096283e-02,-6.474681198596954346e-03,-3.279151394963264465e-03,-2.156293019652366638e-02,3.284295275807380676e-02,-3.888712823390960693e-02,-7.145492825657129288e-03,-1.706197299063205719e-02,5.601449869573116302e-03,-4.028317704796791077e-02,-6.058977171778678894e-02,4.281304776668548584e-03,-5.389395356178283691e-02,-7.778123021125793457e-02,3.755066543817520142e-02,3.111613541841506958e-02,7.177560776472091675e-02,8.412659168243408203e-02,4.179428145289421082e-02,5.043228343129158020e-02,-5.382924899458885193e-02,7.245746999979019165e-02,-6.668085604906082153e-02,3.472408279776573181e-02,-4.355613887310028076e-02,-9.306074352934956551e-04,5.357734113931655884e-02,4.109781607985496521e-02,6.305610388517379761e-02,3.085279464721679688e-02,-3.407130390405654907e-02,5.102247744798660278e-02,-2.201104909181594849e-02,-3.370309621095657349e-02,-6.558121182024478912e-03,-7.934765517711639404e-02,4.973317310214042664e-02,-3.679233416914939880e-02,3.992906212806701660e-02,-5.689049884676933289e-02,-3.433546051383018494e-02,-4.629989154636859894e-03,-3.456513583660125732e-02,-6.748476880602538586e-04,4.777600616216659546e-02,3.148099780082702637e-02,-7.300901412963867188e-02,5.113330855965614319e-02,3.704915568232536316e-02,-9.125409275293350220e-02,5.554412305355072021e-02,4.240315407514572144e-02,-8.276882767677307129e-02,-5.992296710610389709e-02,-1.947999559342861176e-02,5.502130836248397827e-02,-7.761599123477935791e-02,-4.423866048455238342e-02,-8.383611589670181274e-02,5.658927559852600098e-02,2.524190209805965424e-02,-4.193915054202079773e-02,5.508112255483865738e-03,-1.943673565983772278e-02,4.491797089576721191e-02,1.778474636375904083e-02,-4.632846266031265259e-02,-4.101974144577980042e-02,7.728355471044778824e-03,-9.159974008798599243e-02,6.241905502974987030e-03,2.881217189133167267e-02,5.695090815424919128e-02,7.888939231634140015e-02,-6.280519068241119385e-03,-4.630294069647789001e-02,2.258493751287460327e-02,-3.731476515531539917e-02,-1.743825897574424744e-02,-1.501207798719406128e-02,6.693077832460403442e-02,-6.003626063466072083e-02,3.608189150691032410e-02,9.537025354802608490e-03,-3.503806889057159424e-02,-5.012118816375732422e-02,5.512606725096702576e-02,-8.375206589698791504e-02,5.601713928626850247e-05,-3.399756550788879395e-02,3.319054841995239258e-02,6.807216256856918335e-02,7.421420741593465209e-05,3.348110616207122803e-02,8.110892027616500854e-02,-2.673240378499031067e-02,-4.306174069643020630e-02,-1.173770427703857422e-02,6.340770423412322998e-02,2.611652761697769165e-02,-2.356620505452156067e-02,-2.822165191173553467e-02,2.817133627831935883e-02,5.103212594985961914e-02,-1.621403917670249939e-02,-2.164102345705032349e-02,-5.665529891848564148e-02,-2.565918490290641785e-03,-3.350084880366921425e-03,-7.909798622131347656e-02,-3.391470387578010559e-02,-8.032865077257156372e-02,-5.779245495796203613e-02
5.016648024320602417e-02,-1.730808615684509277e-02,4.742553085088729858e-02,-7.948385179042816162e-02,4.672440141439437866e-02,-7.309059053659439087e-02,8.275232464075088501e-02,5.413229018449783325e-02,-6.629932671785354614e-02,-8.209025114774703979e-02,8.140898309648036957e-03,1.850647479295730591e-02,-9.689135104417800903e-02,-6.129076704382896423e-02,6.258159130811691284e-02,-7.195557653903961182e-02,-2.577002346515655518e-02,5.823132116347551346e-03,-3.979359939694404602e-02,-5.771535634994506836e-02,1.108487881720066071e-02,-5.612106993794441223e-03,-3.025262616574764252e-02,-5.423752591013908386e-02,3.038378804922103882e-02,5.886339396238327026e-02,-6.434583663940429688e-02,1.380294561386108398e-02,-8.259911835193634033e-02,-1.501205563545227051e-02,6.027188152074813843e-02,-3.323573991656303406e-02,-6.046053767204284668e-02,7.909321039915084839e-02,5.698215216398239136e-02,-2.672661468386650085e-02,-5.419626459479331970e-02,3.285632655024528503e-02,2.253582328557968140e-02,7.079608738422393799e-03,-6.832155585289001465e-02,4.183829575777053833e-02,-8.104692399501800537e-02,-2.656789869070053101e-02,-7.492811977863311768e-02,-6.145307421684265137e-02,4.002665355801582336e-02,8.408180624246597290e-02,-8.640038967132568359e-02,1.312337815761566162e-02,-2.157500386238098145e-02,-4.971721023321151733e-02,1.221659779548645020e-02,-2.860323712229728699e-02,-2.207330614328384399e-02,3.975742310285568237e-02,4.813236743211746216e-02,-8.369941264390945435e-02,-5.056623741984367371e-02,-4.912015050649642944e-02,-5.513169243931770325e-02,-1.068196296691894531e-01,3.119449317455291748e-02,2.065006643533706665e-02,1.509625464677810669e-02,-3.155862912535667419e-02,8.120486885309219360e-02,-1.510553807020187378e-02,-4.316457081586122513e-03,-4.345713928341865540e-02,-8.390467613935470581e-02,-1.368606835603713989e-02,2.571577578783035278e-02,5.983681231737136841e-02,3.863911703228950500e-02,-9.185595065355300903e-02,-7.152172923088073730e-02,-1.037359610199928284e-01,-5.249007046222686768e-02,3.640188276767730713e-02,-1.087596639990806580e-01,4.698301851749420166e-02,-3.528198599815368652e-02,-5.812094360589981079e-02,-1.244878992438316345e-01,-1.141797285526990891e-02,3.539005666971206665e-02,1.799327880144119263e-02,-7.582709938287734985e-02,6.515299528837203979e-02,-7.915191352367401123e-02,7.857277244329452515e-02,1.574797928333282471e-02,-9.845075756311416626e-02,-5.203620344400405884e-02,3.265647590160369873e-02,-1.477349549531936646e-02,-5.053174495697021484e-02,-2.790663018822669983e-02,-2.197822928428649902e-02,-4.360919445753097534e-02,-6.754528731107711792e-02,-4.380074143409729004e-02,-3.845719620585441589e-02,6.146401166915893555e-03,-4.784521833062171936e-02,-6.085614860057830811e-02,-8.871680498123168945e-02,4.498385637998580933e-02,-2.639070153236389160e-03,-8.537837862968444824e-02,6.629104167222976685e-02,4.106710106134414673e-02,-1.413653790950775146e-02,6.428083032369613647e-02,-7.891401648521423340e-02,-2.278599567944183946e-04,5.840774625539779663e-02,-1.378442347049713135e-02,-3.870901465415954590e-02,2.619042247533798218e-02,-7.027781009674072266e-02,7.915290445089340210e-02,-6.909532938152551651e-03,1.500558853149414062e-02,-6.582054495811462402e-02,5.939010530710220337e-02,1.098308479413390160e-03
8.111258968710899353e-03,-4.417772591114044189e-02,-5.198647826910018921e-02,-7.911050692200660706e-03,-3.059474984183907509e-04,-6.839790381491184235e-03,4.927443340420722961e-02,-3.955628722906112671e-02,-2.092836983501911163e-02,7.990871369838714600e-02,3.957204520702362061e-02,-2.167419716715812683e-02,-8.600242435932159424e-02,4.342500865459442139e-02,-5.634212400764226913e-03,-3.757007047533988953e-02,-4.076802358031272888e-02,3.943028673529624939e-02,3.320204094052314758e-02,-2.832809463143348694e-03,3.129797801375389099e-02,6.496694684028625488e-02,2.086206898093223572e-02,-3.048545308411121368e-02,-3.839379921555519104e-02,7.326433900743722916e-03,-6.171531975269317627e-03,3.434294462203979492e-02,-8.367753028869628906e-02,7.494037598371505737e-02,2.548226714134216309e-02,-1.216885074973106384e-02,-2.380005782470107079e-03,-4.624756053090095520e-02,-7.470800727605819702e-02,-1.160890087485313416e-01,3.677234798669815063e-02,3.255470469594001770e-02,-4.008147493004798889e-02,-2.386218123137950897e-02,-6.748258322477340698e-02,8.608500659465789795e-02,8.018823713064193726e-02,7.255841791629791260e-02,8.811370283365249634e-02,-2.471825852990150452e-02,-3.413419425487518311e-02,5.158537533134222031e-03,-3.130444325506687164e-03,-7.532102614641189575e-02,-2.385057508945465088e-02,5.027791112661361694e-02,5.076058954000473022e-02,2.142119035124778748e-02,-8.304464071989059448e-02,-1.599893569946289062e-01,-4.915250465273857117e-02,-3.387459740042686462e-02,6.498058885335922241e-02,-6.123049557209014893e-02,-6.613892316818237305e-02,3.782669082283973694e-02,9.122840315103530884e-02,-6.178801134228706360e-02,7.844185084104537964e-02,-1.208320353180170059e-02,-4.443960264325141907e-02,1.479559671133756638e-02,-5.502442270517349243e-02,-4.640104714781045914e-03,-3.467040881514549255e-02,-3.065693564713001251e-02,5.198799446225166321e-02,1.349650509655475616e-02,5.820119380950927734e-02,8.556494489312171936e-03,1.218133140355348587e-02,8.054696023464202881e-03,-6.176828593015670776e-02,-2.317141555249691010e-02,-7.196803390979766846e-02,-1.154970005154609680e-02,7.694275677204132080e-02,4.013898316770792007e-03,6.047650799155235291e-02,-5.776134133338928223e-02,-1.376091316342353821e-02,6.235138326883316040e-02,6.450846046209335327e-02,8.800794370472431183e-03,-4.310518130660057068e-02,-1.358282566070556641e-02,5.381355062127113342e-02,7.613606750965118408e-02,1.233377261087298393e-03,-2.305382862687110901e-02,-4.921133443713188171e-02,6.154625117778778076e-02,5.717488750815391541e-02,8.327899500727653503e-03,1.878755539655685425e-02,-2.140691038221120834e-03,-7.723741233348846436e-02,-3.689590143039822578e-03,-5.197977274656295776e-02,4.773986060172319412e-03,-3.004682809114456177e-02,-8.474242873489856720e-03,-7.952168583869934082e-02,-6.805267930030822754e-02,-2.742139063775539398e-02,1.121426373720169067e-02,4.514884203672409058e-02,-2.129513397812843323e-02,2.109008282423019409e-02,-8.781906962394714355e-02,5.925314873456954956e-02,-5.201423168182373047e-02,-3.309408202767372131e-02,4.835412651300430298e-02,-8.305258303880691528e-02,-3.807523101568222046e-02,3.817916661500930786e-02,2.866788534447550774e-03,-8.949916064739227295e-02,4.206369072198867798e-02,-5.481267720460891724e-02,-7.786820828914642334e-02
3.947183489799499512e-02,-3.216803818941116333e-02,-1.738761179149150848e-02,-5.749852862209081650e-03,-3.771216422319412231e-02,5.964345484972000122e-02,-3.946615010499954224e-02,-2.444711886346340179e-02,-1.601458340883255005e-02,6.455514580011367798e-03,7.320481538772583008e-02,-5.816386640071868896e-02,2.629822492599487305e-02,-7.605604827404022217e-02,-4.959422349929809570e-02,-8.047441951930522919e-03,-8.353879302740097046e-02,1.269402913749217987e-02,2.312882570549845695e-03,3.834316506981849670e-02,-3.051203675568103790e-02,2.197145856916904449e-02,3.794384002685546875e-02,-5.909828469157218933e-02,-1.157815754413604736e-02,2.931219153106212616e-02,2.836126834154129028e-02,-4.353776946663856506e-02,-2.059610933065414429e-02,-3.286439552903175354e-02,-7.989748567342758179e-02,1.445868145674467087e-02,6.537242978811264038e-02,-1.622479036450386047e-02,-1.233993563801050186e-02,-5.666735768318176270e-02,8.347945660352706909e-02,6.655831634998321533e-02,-1.795025542378425598e-02,8.071845769882202148e-02,1.737952791154384613e-02,6.293500959873199463e-02,9.760520188137888908e-04,5.682096257805824280e-02,1.148170139640569687e-02,1.191414240747690201e-02,-5.439340695738792419e-02,1.626318506896495819e-02,-4.554598778486251831e-02,-5.513658747076988220e-02,4.304725304245948792e-02,-9.091288596391677856e-02,4.790995270013809204e-02,-1.974464766681194305e-02,2.566111087799072266e-02,-1.284914463758468628e-01,-2.475100383162498474e-02,1.917001791298389435e-02,-4.038597643375396729e-02,-5.667206272482872009e-02,2.870074473321437836e-02,3.140386193990707397e-02,8.452818542718887329e-02,6.184235587716102600e-02,-6.787075661122798920e-03,6.657048314809799194e-02,5.947893112897872925e-02,3.921129554510116577e-02,4.904823377728462219e-02,7.846087217330932617e-02,4.804901778697967529e-02,-4.307724535465240479e-02,6.960641592741012573e-02,-7.511929422616958618e-02,2.055453136563301086e-02,-5.615238915197551250e-04,1.297026127576828003e-02,4.696325957775115967e-02,-5.458755046129226685e-02,-1.353516057133674622e-02,1.230027992278337479e-02,1.703345403075218201e-02,6.847046315670013428e-02,-8.790482580661773682e-02,4.339182004332542419e-02,-5.870807170867919922e-02,-8.794271945953369141e-02,2.550236508250236511e-02,1.446765568107366562e-02,5.298145115375518799e-02,-7.699093967676162720e-02,6.920424755662679672e-03,-8.493223041296005249e-02,5.168835446238517761e-02,6.699594110250473022e-02,-2.839108929038047791e-03,1.577230170369148254e-03,2.010298706591129303e-02,9.319260716438293457e-03,-7.097887247800827026e-02,5.590508505702018738e-02,-4.244004189968109131e-02,6.863562017679214478e-02,-5.110920220613479614e-02,3.162387013435363770e-02,7.456129044294357300e-02,-4.170501604676246643e-02,3.293776512145996094e-02,7.266547530889511108e-02,4.280574619770050049e-02,4.408892616629600525e-02,-8.175434172153472900e-02,8.063407987356185913e-02,5.813679471611976624e-02,8.533681184053421021e-02,-7.143110036849975586e-02,-3.428732603788375854e-02,-6.095657125115394592e-02,-6.856033205986022949e-02,-4.770480096340179443e-02,-8.820481598377227783e-02,7.157056778669357300e-02,-8.472213149070739746e-02,-9.414611011743545532e-02,4.237826168537139893e-02,2.966605871915817261e-02,-4.127969592809677124e-02,-1.631579734385013580e-02
-5.745453760027885437e-02,-7.262653112411499023e-02,-9.247976355254650116e-03,7.150764763355255127e-02,-7.874351739883422852e-02,5.843826383352279663e-02,4.914639145135879517e-02,-3.837894648313522339e-02,1.734508760273456573e-02,1.477659121155738831e-02,-1.098647415637969971e-01,2.163067273795604706e-02,1.240099668502807617e-01,-5.938397347927093506e-02,4.998004809021949768e-02,-1.154159195721149445e-03,-1.613636314868927002e-02,4.101982340216636658e-02,-5.452217534184455872e-02,-1.813012058846652508e-03,7.230505347251892090e-03,-2.261072769761085510e-02,3.624681755900382996e-02,-7.966685295104980469e-02,-9.786007925868034363e-03,5.672567710280418396e-02,-6.138159334659576416e-02,8.080049604177474976e-02,-5.382413789629936218e-02,-5.306236445903778076e-03,-6.495413184165954590e-02,3.816228732466697693e-02,8.019600808620452881e-02,2.446963265538215637e-02,4.836286231875419617e-02,-1.155625060200691223e-01,-4.390930384397506714e-02,-4.235808551311492920e-02,8.033432066440582275e-02,7.147998083382844925e-03,3.550457581877708435e-02,7.247902452945709229e-02,4.581343010067939758e-02,5.213580094277858734e-03,5.941689759492874146e-02,8.053815364837646484e-02,-1.448552757501602173e-01,-5.303845554590225220e-02,4.435771331191062927e-02,6.342054158449172974e-02,-1.848660223186016083e-02,7.629951834678649902e-02,-5.913189053535461426e-02,-1.707080751657485962e-02,-1.763981580734252930e-02,-7.133036106824874878e-02,-2.015935070812702179e-02,7.917340844869613647e-02,-4.147411137819290161e-02,3.979847580194473267e-02,5.315070599317550659e-02,5.287896841764450073e-02,2.201248332858085632e-02,7.956060767173767090e-02,-4.161411151289939880e-02,-2.815431356430053711e-02,9.498225897550582886e-02,-5.551134422421455383e-02,5.321471393108367920e-02,8.641865849494934082e-02,7.127900421619415283e-02,-5.949091166257858276e-02,1.450122520327568054e-02,4.799842089414596558e-02,-4.473384097218513489e-02,-1.479048281908035278e-01,-2.648760937154293060e-02,6.616299599409103394e-02,2.054290100932121277e-02,7.845380343496799469e-03,-1.323146861977875233e-03,7.618922740221023560e-03,-3.179723571520298719e-04,-6.584373116493225098e-02,-2.721160650253295898e-02,-5.472277477383613586e-02,-7.902706041932106018e-03,-6.303265690803527832e-02,1.527607813477516174e-02,-4.807469900697469711e-03,-6.032097712159156799e-02,5.601367354393005371e-02,1.007617078721523285e-02,-7.725430279970169067e-02,-5.340116843581199646e-02,-9.020920097827911377e-02,6.404798477888107300e-03,6.157571822404861450e-02,-7.531902194023132324e-02,2.431627735495567322e-02,-1.817084401845932007e-01,-1.802955288439989090e-03,6.591277569532394409e-02,-5.035977438092231750e-02,2.024062536656856537e-02,8.833054453134536743e-02,-2.284772694110870361e-02,7.218293100595474243e-02,5.807958543300628662e-02,7.277799397706985474e-02,-7.468962669372558594e-02,-2.670524641871452332e-02,7.341728359460830688e-02,-2.629550406709313393e-03,1.715586334466934204e-02,-6.324502080678939819e-02,-4.625690728425979614e-02,5.569453537464141846e-02,-7.297121733427047729e-02,2.494795946404337883e-03,8.716360479593276978e-02,2.485881000757217407e-02,-7.504212111234664917e-02,-3.447728976607322693e-02,1.145102009177207947e-01,5.357535928487777710e-02,-6.789521127939224243e-02,-2.878623083233833313e-02
8.760584145784378052e-02,3.167671337723731995e-02,4.574004188179969788e-02,-9.005988389253616333e-02,4.129650816321372986e-02,-7.898813486099243164e-02,-5.316223204135894775e-02,4.107735678553581238e-02,2.580178715288639069e-02,8.266390115022659302e-02,6.048769876360893250e-02,-1.033421307802200317e-01,-1.147369146347045898e-01,-5.913534760475158691e-02,6.006867066025733948e-02,1.141481101512908936e-03,2.501257508993148804e-02,-7.666286081075668335e-02,-7.718714326620101929e-02,-5.258738622069358826e-02,-6.055436655879020691e-02,-5.613882094621658325e-02,5.214199796319007874e-02,5.880596116185188293e-02,5.795879405923187733e-04,7.170609384775161743e-02,-8.782605081796646118e-02,-1.276146806776523590e-02,-8.795277774333953857e-02,-2.026398479938507080e-02,2.524659037590026855e-02,6.452902406454086304e-02,-7.403017580509185791e-02,-3.671711310744285583e-02,-5.483294278383255005e-02,3.640973195433616638e-02,-1.096210069954395294e-02,-7.085128128528594971e-02,7.754862308502197266e-03,-7.829343900084495544e-03,-3.044575080275535583e-02,-4.979774355888366699e-03,6.509140133857727051e-02,-3.652031719684600830e-02,7.070505619049072266e-02,-7.404086738824844360e-02,-4.288563504815101624e-02,-8.171955123543739319e-03,5.354007240384817123e-03,-9.222852997481822968e-03,5.366457253694534302e-02,3.750540316104888916e-03,4.876836389303207397e-02,2.696996368467807770e-02,-1.799109578132629395e-02,1.199362277984619141e-01,1.419920660555362701e-02,5.821786448359489441e-02,-6.169167533516883850e-02,-2.672802284359931946e-02,8.099188655614852905e-02,7.134618237614631653e-03,-6.637420505285263062e-02,-7.172408699989318848e-02,-5.895943194627761841e-02,-9.502636641263961792e-02,2.741825580596923828e-02,3.043231554329395294e-02,-2.894214689731597900e-01,-6.327760219573974609e-02,-7.085606455802917480e-02,1.019191555678844452e-02,-8.963453024625778198e-02,-1.007924228906631470e-02,-9.076056629419326782e-02,-2.977860160171985626e-02,2.528938837349414825e-02,2.909063361585140228e-02,2.103501185774803162e-02,-7.638013362884521484e-02,-8.781447261571884155e-02,-1.121295150369405746e-02,-3.462426736950874329e-02,-5.350758507847785950e-02,-6.910827010869979858e-02,-4.150793701410293579e-02,-6.795419007539749146e-02,-8.239334076642990112e-02,-8.616823703050613403e-03,-3.893560543656349182e-02,-2.630200237035751343e-02,-5.451032891869544983e-02,-5.430338904261589050e-02,-6.934092380106449127e-03,7.008719444274902344e-02,7.848835736513137817e-02,-2.382116019725799561e-02,-4.879283159971237183e-02,3.052502684295177460e-02,-8.056709170341491699e-02,-8.139233291149139404e-02,3.653924539685249329e-02,7.619263231754302979e-02,-3.793158009648323059e-02,1.150401774793863297e-02,1.481689792126417160e-02,2.766129188239574432e-02,4.829015582799911499e-02,4.297811537981033325e-02,1.819274015724658966e-02,-6.574243307113647461e-02,-4.624468088150024414e-02,-2.037927508354187012e-02,-4.231901466846466064e-02,7.265280932188034058e-02,7.967519760131835938e-02,-1.251714527606964111e-01,-5.455559864640235901e-02,3.497915342450141907e-02,-6.310630589723587036e-02,-4.939873144030570984e-02,4.690457135438919067e-02,-4.102714359760284424e-03,4.246134776622056961e-03,-1.235076189041137695e-01,2.658665180206298828e-02,-2.154051698744297028e-02,-1.493479218333959579e-02
4.424966126680374146e-02,7.270448654890060425e-02,1.114913728088140488e-03,-6.444996595382690430e-02,4.179113358259201050e-02,-8.614643663167953491e-02,2.514484897255897522e-02,4.834416788071393967e-03,5.966379493474960327e-02,8.736186474561691284e-02,-1.154595687985420227e-01,-9.290402382612228394e-02,1.419638395309448242e-01,-8.759966492652893066e-02,-5.481857061386108398e-02,3.587640821933746338e-02,1.852232962846755981e-02,2.375150285661220551e-02,-5.398442596197128296e-02,-5.185184255242347717e-02,-6.560306251049041748e-02,6.962370127439498901e-02,8.156467974185943604e-02,-9.099368005990982056e-03,-3.177535235881805420e-01,6.596434861421585083e-02,-3.654984012246131897e-02,8.113937824964523315e-02,2.284757792949676514e-02,5.632000416517257690e-02,-1.378010213375091553e-02,4.330912604928016663e-02,8.120407164096832275e-02,-7.991384714841842651e-02,1.707985252141952515e-02,-7.024867087602615356e-02,-2.945146150887012482e-02,-7.161174714565277100e-02,8.764431625604629517e-02,4.516947269439697266e-02,-7.386510260403156281e-03,1.919861882925033569e-02,-6.465678662061691284e-02,1.720290258526802063e-02,-2.503616362810134888e-02,1.281791273504495621e-02,-3.177845180034637451e-01,1.908999495208263397e-02,-8.443202078342437744e-02,-9.178096801042556763e-02,7.893653959035873413e-02,-3.982756286859512329e-02,3.310342878103256226e-02,6.469104439020156860e-02,-2.028445899486541748e-02,-1.361699961125850677e-02,-2.948953956365585327e-02,-5.549689382314682007e-02,-5.863394588232040405e-02,-3.956064209342002869e-02,-2.886234410107135773e-02,1.074049528688192368e-02,-2.064536698162555695e-02,-4.916125535964965820e-02,4.290647059679031372e-02,-7.041312009096145630e-02,-6.001127511262893677e-02,3.598175570368766785e-02,1.027264166623353958e-02,2.864137291908264160e-02,2.758028917014598846e-03,-7.074555754661560059e-02,3.951548784971237183e-02,6.605692952871322632e-02,8.012384176254272461e-02,-1.621255725622177124e-01,7.688277214765548706e-02,-1.085816621780395508e-01,5.546336248517036438e-02,5.174068734049797058e-02,-9.139200299978256226e-02,2.893288061022758484e-02,-2.264801599085330963e-02,-1.118037775158882141e-01,1.793690770864486694e-02,5.981341376900672913e-02,4.394219070672988892e-02,7.787365466356277466e-02,-1.335911452770233154e-01,-1.458635926246643066e-02,5.594594031572341919e-02,7.519583404064178467e-02,-2.409467846155166626e-02,-2.127220109105110168e-02,-5.016662552952766418e-02,7.742357999086380005e-02,-3.901177644729614258e-02,1.486098673194646835e-02,-7.848218083381652832e-02,-3.273267671465873718e-02,6.461263447999954224e-02,-6.056528165936470032e-02,-5.317763239145278931e-02,-3.729800134897232056e-02,-6.481104344129562378e-02,-4.922200739383697510e-02,-2.692073024809360504e-02,4.087792336940765381e-02,-7.761408388614654541e-02,5.917053204029798508e-03,-8.034446835517883301e-02,3.808303922414779663e-02,-1.564396172761917114e-02,4.921653121709823608e-02,8.439453691244125366e-02,6.069127470254898071e-02,-7.489717006683349609e-02,-6.875896453857421875e-02,3.914096206426620483e-02,-1.251859664916992188e-01,-7.736141234636306763e-02,2.972052246332168579e-02,-6.844244897365570068e-02,-8.456446975469589233e-02,-4.846037924289703369e-02,9.358718991279602051e-03,9.322471916675567627e-03,-9.508492797613143921e-02
-7.740984112024307251e-02,-2.267705462872982025e-02,-2.804326079785823822e-02,7.792429532855749130e-03,4.756306298077106476e-03,-3.976209461688995361e-02,-8.720174431800842285e-02,-4.535561800003051758e-02,4.243554547429084778e-02,-5.537033081054687500e-03,8.044244721531867981e-03,-1.498445589095354080e-02,-6.336733698844909668e-02,-2.944184839725494385e-02,-8.154728263616561890e-02,7.780233770608901978e-02,5.133194476366043091e-02,1.183790247887372971e-02,-3.965929150581359863e-02,1.085424050688743591e-02,-5.362109094858169556e-02,6.354913115501403809e-02,-1.076083481311798096e-01,-7.981781661510467529e-02,-1.746998354792594910e-02,7.195764780044555664e-02,-7.952882349491119385e-02,8.156019449234008789e-02,6.514061242341995239e-02,5.716439336538314819e-02,2.076385170221328735e-02,7.463418692350387573e-02,2.297103032469749451e-02,-4.668667446821928024e-03,-4.025348648428916931e-02,-9.527380578219890594e-03,-2.651313319802284241e-02,-5.321495607495307922e-02,-5.554199963808059692e-02,-5.315944086760282516e-03,-6.872427463531494141e-02,6.807912141084671021e-02,-4.803780466318130493e-02,-5.522532388567924500e-03,3.171522635966539383e-03,3.155237436294555664e-02,-1.004222929477691650e-01,-6.557570397853851318e-02,5.924692749977111816e-02,4.219784960150718689e-02,2.145458571612834930e-02,-5.097511410713195801e-02,-1.798935979604721069e-02,6.739253178238868713e-03,3.672166913747787476e-02,-5.723001435399055481e-02,-3.504176065325737000e-02,2.206445857882499695e-02,-6.722366064786911011e-02,7.339204102754592896e-02,6.105142086744308472e-02,2.797549031674861908e-02,4.919475317001342773e-02,-1.163552515208721161e-02,-7.532767951488494873e-02,-2.599021233618259430e-02,5.432422086596488953e-02,7.182172033935785294e-03,-1.800889335572719574e-02,2.741485275328159332e-02,-4.279519245028495789e-02,6.289789080619812012e-02,7.967720180749893188e-02,-6.288645416498184204e-02,5.015925690531730652e-02,-5.927004665136337280e-02,1.009209640324115753e-02,1.622827164828777313e-02,-6.017651781439781189e-02,-3.951610624790191650e-02,-8.349984139204025269e-02,3.131532669067382812e-02,-6.250192970037460327e-02,-7.221481204032897949e-02,9.811259806156158447e-03,3.934051841497421265e-02,7.764870673418045044e-02,8.230112493038177490e-02,9.367136284708976746e-03,-1.475679874420166016e-02,6.498948484659194946e-02,3.044158918783068657e-03,4.285805299878120422e-02,5.839337408542633057e-02,6.193111464381217957e-02,6.139261275529861450e-02,6.143473088741302490e-02,6.160760670900344849e-02,3.358829393982887268e-02,5.249872058629989624e-02,1.908122189342975616e-02,5.425126105546951294e-02,2.016048692166805267e-02,1.072092633694410324e-02,-5.291631072759628296e-02,7.551259547472000122e-02,6.349524110555648804e-02,-5.685630068182945251e-02,7.531095296144485474e-02,-3.032061830163002014e-02,-9.358175843954086304e-02,6.602182984352111816e-02,7.089912891387939453e-03,-3.331401571631431580e-02,3.342734277248382568e-02,-2.872812561690807343e-02,3.110914491117000580e-02,4.465871024876832962e-03,-6.874229013919830322e-02,-1.147247478365898132e-02,-4.383676871657371521e-02,-7.206594944000244141e-02,-2.479284070432186127e-02,-8.792982250452041626e-02,6.303146481513977051e-02,-4.301437735557556152e-02,-1.371734961867332458e-02,-9.098665416240692139e-02
4.468896239995956421e-02,5.182487517595291138e-02,-1.078896224498748779e-02,5.669376999139785767e-02,-6.134723499417304993e-02,-9.018884599208831787e-02,-8.334851264953613281e-02,1.029727607965469360e-02,2.467107959091663361e-02,2.983470261096954346e-02,2.107332460582256317e-02,-4.642827436327934265e-02,5.838050320744514465e-02,4.973375052213668823e-02,-3.989577293395996094e-02,1.286452263593673706e-02,-3.703665733337402344e-02,-4.128965362906455994e-02,-6.313105672597885132e-02,1.474311202764511108e-02,-4.197295755147933960e-02,1.947062462568283081e-02,-6.512377411127090454e-02,-5.910198763012886047e-02,-9.147629141807556152e-02,-6.457140296697616577e-02,6.624653190374374390e-02,-4.824422299861907959e-02,-4.435063153505325317e-02,-8.627476543188095093e-02,4.679652303457260132e-02,-2.597638592123985291e-02,-5.635166168212890625e-02,-7.617557793855667114e-02,7.528010755777359009e-02,-2.357655391097068787e-02,4.908561706542968750e-03,-6.199663504958152771e-03,2.892725169658660889e-03,-5.657664313912391663e-02,7.513143867254257202e-02,6.211548298597335815e-02,-4.632036387920379639e-02,-5.764044821262359619e-02,5.062969774007797241e-02,8.324696868658065796e-02,-4.693576693534851074e-02,-6.600701063871383667e-02,-4.802450537681579590e-02,-6.832333654165267944e-02,2.904155850410461426e-02,-4.686268419027328491e-02,-2.388685941696166992e-02,-8.626114577054977417e-02,-7.224878668785095215e-02,2.000864036381244659e-02,5.641136318445205688e-02,-8.573456853628158569e-02,-2.107776701450347900e-02,4.072519391775131226e-02,1.820199191570281982e-02,-3.090390376746654510e-02,-5.193394795060157776e-02,1.118168234825134277e-03,7.111519575119018555e-03,2.916665375232696533e-02,-5.064972117543220520e-02,-3.047761693596839905e-02,-3.326407447457313538e-02,-2.120913565158843994e-02,-2.968212962150573730e-02,7.815592736005783081e-02,6.973742693662643433e-02,-3.353446722030639648e-03,-6.426673382520675659e-02,-3.168252855539321899e-02,8.460608869791030884e-02,-2.511484734714031219e-02,-6.850613653659820557e-02,7.599286735057830811e-03,1.112535130232572556e-02,-9.341420233249664307e-02,1.971913687884807587e-02,-6.923159211874008179e-02,-1.055187582969665527e-01,-3.567204996943473816e-02,-7.536733895540237427e-02,-6.814486533403396606e-02,-4.324819892644882202e-02,-5.999490991234779358e-02,-1.732137799263000488e-02,6.139235943555831909e-02,8.100885897874832153e-02,4.831776022911071777e-03,8.690088242292404175e-02,5.036484450101852417e-02,2.882541716098785400e-02,4.446954652667045593e-02,6.738743931055068970e-02,-5.716126412153244019e-02,-8.795692026615142822e-02,-5.894140899181365967e-02,6.653964519500732422e-03,4.042059183120727539e-03,-8.285029232501983643e-02,-8.366778492927551270e-02,-1.160966828465461731e-01,-9.142427891492843628e-02,4.124153405427932739e-02,1.493185013532638550e-02,2.997436933219432831e-02,5.350560694932937622e-02,-5.397779494524002075e-02,4.406683892011642456e-02,-5.150701105594635010e-02,7.270523160696029663e-02,-6.347787380218505859e-02,2.287002652883529663e-02,-6.471628695726394653e-02,-1.103682629764080048e-02,6.664846092462539673e-02,-3.970595449209213257e-02,4.768028110265731812e-02,1.440774090588092804e-02,-9.476798027753829956e-02,3.020381182432174683e-02,5.498858541250228882e-02,-5.600296333432197571e-02
